<?xml version="1.0"?>
<opencv_storage>
<cascade>
  <stageType>BOOST</stageType>
  <featureType>HAAR</featureType>
  <height>20</height>
  <width>20</width>
  <stageParams>
    <boostType>GAB</boostType>
    <minHitRate>9.9500000476837158e-01</minHitRate>
    <maxFalseAlarm>5.0000000000000000e-01</maxFalseAlarm>
    <weightTrimRate>9.4999999999999996e-01</weightTrimRate>
    <maxDepth>1</maxDepth>
    <maxWeakCount>100</maxWeakCount></stageParams>
  <featureParams>
    <maxCatCount>0</maxCatCount>
    <featSize>1</featSize>
    <mode>BASIC</mode></featureParams>
  <stageNum>30</stageNum>
  <stages>
    <!-- stage 0 -->
    <_>
      <maxWeakCount>6</maxWeakCount>
      <stageThreshold>-1.2869673967361450e+00</stageThreshold>
      <weakClassifiers>
        <_>
          <internalNodes>
            0 -1 18 7.5852990150451660e-02</internalNodes>
          <leafValues>
            -4.9529781937599182e-01 8.7292820215225220e-01</leafValues></_>
        <_>
          <internalNodes>
            0 -1 494 -1.3198446482419968e-02</internalNodes>
          <leafValues>
            7.4118411540985107e-01 -4.2277973890304565e-01</leafValues></_>
        <_>
          <internalNodes>
            0 -1 269 -1.1613406240940094e-01</internalNodes>
          <leafValues>
            5.4481494426727295e-01 -5.4010325670242310e-01</leafValues></_>
        <_>
          <internalNodes>
            0 -1 117 5.8315128087997437e-02</internalNodes>
          <leafValues>
            -3.0692723393440247e-01 7.3808825016021729e-01</leafValues></_>
        <_>
          <internalNodes>
            0 -1 81 -2.2954827174544334e-02</internalNodes>
          <leafValues>
            8.1916087865829468e-01 -3.1598585844039917e-01</leafValues></_>
        <_>
          <internalNodes>
            0 -1 10 4.3787665665149689e-02</internalNodes>
          <leafValues>
            -2.9079172015190125e-01 6.8229955434799194e-01</leafValues></_></weakClassifiers></_>
    <!-- stage 1 -->
    <_>
      <maxWeakCount>8</maxWeakCount>
      <stageThreshold>-1.0503748655319214e+00</stageThreshold>
      <weakClassifiers>
        <_>
          <internalNodes>
            0 -1 167 4.2850941419601440e-02</internalNodes>
          <leafValues>
            -5.6660038232803345e-01 5.7344067096710205e-01</leafValues></_>
        <_>
          <internalNodes>
            0 -1 496 -3.4880690276622772e-02</internalNodes>
          <leafValues>
            7.6533812284469604e-01 -3.0546167492866516e-01</leafValues></_>
        <_>
          <internalNodes>
            0 -1 221 -1.4493539929389954e-02</internalNodes>
          <leafValues>
            6.7395490407943726e-01 -1.8899819254875183e-01</leafValues></_>
        <_>
          <internalNodes>
            0 -1 31 1.3578765094280243e-01</internalNodes>
          <leafValues>
            -2.7171510457992554e-01 6.4696186780929565e-01</leafValues></_>
        <_>
          <internalNodes>
            0 -1 509 -1.1129156919196248e-03</internalNodes>
          <leafValues>
            -7.7416253089904785e-01 2.0419715344905853e-01</leafValues></_>
        <_>
          <internalNodes>
            0 -1 444 -6.4017027616500854e-03</internalNodes>
          <leafValues>
            5.5702579021453857e-01 -2.8626501560211182e-01</leafValues></_>
        <_>
          <internalNodes>
            0 -1 340 6.4629567787051201e-03</internalNodes>
          <leafValues>
            1.8779896199703217e-01 -8.4329545497894287e-01</leafValues></_>
        <_>
          <internalNodes>
            0 -1 341 -4.8066410236060619e-03</internalNodes>
          <leafValues>
            -7.6714950799942017e-01 1.7666937410831451e-01</leafValues></_></weakClassifiers></_>
    <!-- stage 2 -->
    <_>
      <maxWeakCount>7</maxWeakCount>
      <stageThreshold>-1.3122270107269287e+00</stageThreshold>
      <weakClassifiers>
        <_>
          <internalNodes>
            0 -1 495 -1.7360545694828033e-02</internalNodes>
          <leafValues>
            6.3926941156387329e-01 -4.9822065234184265e-01</leafValues></_>
        <_>
          <internalNodes>
            0 -1 172 4.6969279646873474e-02</internalNodes>
          <leafValues>
            -3.8192340731620789e-01 6.0115474462509155e-01</leafValues></_>
        <_>
          <internalNodes>
            0 -1 254 -9.2032151296734810e-03</internalNodes>
          <leafValues>
            6.8092679977416992e-01 -2.5713184475898743e-01</leafValues></_>
        <_>
          <internalNodes>
            0 -1 327 -8.0335643142461777e-03</internalNodes>
          <leafValues>
            4.5070523023605347e-01 -4.0331918001174927e-01</leafValues></_>
        <_>
          <internalNodes>
            0 -1 33 8.7171029299497604e-03</internalNodes>
          <leafValues>
            -2.7430027723312378e-01 5.4220002889633179e-01</leafValues></_>
        <_>
          <internalNodes>
            0 -1 355 -1.1495709419250488e-02</internalNodes>
          <leafValues>
            6.3221353292465210e-01 -2.9282182455062866e-01</leafValues></_>
        <_>
          <internalNodes>
            0 -1 310 5.9308586642146111e-03</internalNodes>
          <leafValues>
            -1.2954513728618622e-01 7.4122995138168335e-01</leafValues></_></weakClassifiers></_>
    <!-- stage 3 -->
    <_>
      <maxWeakCount>9</maxWeakCount>
      <stageThreshold>-1.0665330886840820e+00</stageThreshold>
      <weakClassifiers>
        <_>
          <internalNodes>
            0 -1 528 -7.7494899742305279e-03</internalNodes>
          <leafValues>
            5.9610706567764282e-01 -4.1595923900604248e-01</leafValues></_>
        <_>
          <internalNodes>
            0 -1 268 -2.0169159770011902e-01</internalNodes>
          <leafValues>
            5.1309263706207275e-01 -4.0522271394729614e-01</leafValues></_>
        <_>
          <internalNodes>
            0 -1 12 7.6648525893688202e-02</internalNodes>
          <leafValues>
            -3.6399349570274353e-01 5.8343452215194702e-01</leafValues></_>
        <_>
          <internalNodes>
            0 -1 469 -8.6571812629699707e-02</internalNodes>
          <leafValues>
            7.7257454395294189e-01 -2.1681848168373108e-01</leafValues></_>
        <_>
          <internalNodes>
            0 -1 177 1.0625181347131729e-01</internalNodes>
          <leafValues>
            -1.5654084086418152e-01 7.7336764335632324e-01</leafValues></_>
        <_>
          <internalNodes>
            0 -1 334 -8.7610143236815929e-04</internalNodes>
          <leafValues>
            -5.4944485425949097e-01 2.7205824851989746e-01</leafValues></_>
        <_>
          <internalNodes>
            0 -1 471 -3.0485082417726517e-02</internalNodes>
          <leafValues>
            6.8818640708923340e-01 -1.4665801823139191e-01</leafValues></_>
        <_>
          <internalNodes>
            0 -1 19 5.1288856193423271e-03</internalNodes>
          <leafValues>
            -2.9458305239677429e-01 4.0988573431968689e-01</leafValues></_>
        <_>
          <internalNodes>
            0 -1 311 3.5145968198776245e-02</internalNodes>
          <leafValues>
            -1.7365990579128265e-01 6.5777659416198730e-01</leafValues></_></weakClassifiers></_>
    <!-- stage 4 -->
    <_>
      <maxWeakCount>12</maxWeakCount>
      <stageThreshold>-1.0682034492492676e+00</stageThreshold>
      <weakClassifiers>
        <_>
          <internalNodes>
            0 -1 261 7.0335408672690392e-03</internalNodes>
          <leafValues>
            -3.6098310351371765e-01 6.7335242033004761e-01</leafValues></_>
        <_>
          <internalNodes>
            0 -1 529 -1.1935323476791382e-02</internalNodes>
          <leafValues>
            6.2833297252655029e-01 -2.7000358700752258e-01</leafValues></_>
        <_>
          <internalNodes>
            0 -1 405 5.2684597671031952e-02</internalNodes>
          <leafValues>
            -1.8750502169132233e-01 7.4966174364089966e-01</leafValues></_>
        <_>
          <internalNodes>
            0 -1 358 -2.7205348014831543e-02</internalNodes>
          <leafValues>
            4.6443900465965271e-01 -3.7843728065490723e-01</leafValues></_>
        <_>
          <internalNodes>
            0 -1 40 2.7272102888673544e-03</internalNodes>
          <leafValues>
            -2.4601309001445770e-01 4.9669605493545532e-01</leafValues></_>
        <_>
          <internalNodes>
            0 -1 426 -3.7879380397498608e-03</internalNodes>
          <leafValues>
            4.6124210953712463e-01 -2.3737317323684692e-01</leafValues></_>
        <_>
          <internalNodes>
            0 -1 474 1.5741601586341858e-02</internalNodes>
          <leafValues>
            -2.8416016697883606e-01 4.5896667242050171e-01</leafValues></_>
        <_>
          <internalNodes>
            0 -1 11 2.5559682399034500e-02</internalNodes>
          <leafValues>
            -3.6302882432937622e-01 3.1284868717193604e-01</leafValues></_>
        <_>
          <internalNodes>
            0 -1 217 -2.1802376955747604e-02</internalNodes>
          <leafValues>
            4.1848319768905640e-01 -3.0009391903877258e-01</leafValues></_>
        <_>
          <internalNodes>
            0 -1 350 -1.0345843620598316e-02</internalNodes>
          <leafValues>
            5.8143407106399536e-01 -1.7004165053367615e-01</leafValues></_>
        <_>
          <internalNodes>
            0 -1 421 4.9669966101646423e-02</internalNodes>
          <leafValues>
            -2.5309598445892334e-01 5.1439899206161499e-01</leafValues></_>
        <_>
          <internalNodes>
            0 -1 122 4.8012570478022099e-03</internalNodes>
          <leafValues>
            -2.0215500891208649e-01 4.8300415277481079e-01</leafValues></_></weakClassifiers></_>
    <!-- stage 5 -->
    <_>
      <maxWeakCount>13</maxWeakCount>
      <stageThreshold>-1.0224885940551758e+00</stageThreshold>
      <weakClassifiers>
        <_>
          <internalNodes>
            0 -1 26 8.2075912505388260e-03</internalNodes>
          <leafValues>
            -3.7931033968925476e-01 4.6547883749008179e-01</leafValues></_>
        <_>
          <internalNodes>
            0 -1 116 4.9166724085807800e-02</internalNodes>
          <leafValues>
            -3.4530237317085266e-01 3.6934143304824829e-01</leafValues></_>
        <_>
          <internalNodes>
            0 -1 53 -9.3508064746856689e-02</internalNodes>
          <leafValues>
            2.5871706008911133e-01 -4.6539595723152161e-01</leafValues></_>
        <_>
          <internalNodes>
            0 -1 265 -2.5929002091288567e-02</internalNodes>
          <leafValues>
            5.1865029335021973e-01 -1.9484683871269226e-01</leafValues></_>
        <_>
          <internalNodes>
            0 -1 171 9.0996418148279190e-03</internalNodes>
          <leafValues>
            -3.8045713305473328e-01 2.7146038413047791e-01</leafValues></_>
        <_>
          <internalNodes>
            0 -1 235 3.2786387950181961e-02</internalNodes>
          <leafValues>
            -1.6082765161991119e-01 6.6343045234680176e-01</leafValues></_>
        <_>
          <internalNodes>
            0 -1 275 -1.1851123999804258e-03</internalNodes>
          <leafValues>
            -5.2900081872940063e-01 2.1533301472663879e-01</leafValues></_>
        <_>
          <internalNodes>
            0 -1 102 -1.8909314647316933e-02</internalNodes>
          <leafValues>
            4.3158918619155884e-01 -2.2518755495548248e-01</leafValues></_>
        <_>
          <internalNodes>
            0 -1 222 -1.0602997615933418e-02</internalNodes>
          <leafValues>
            3.4052047133445740e-01 -2.9898202419281006e-01</leafValues></_>
        <_>
          <internalNodes>
            0 -1 95 -6.5491897985339165e-03</internalNodes>
          <leafValues>
            5.7699894905090332e-01 -1.4716731011867523e-01</leafValues></_>
        <_>
          <internalNodes>
            0 -1 478 7.9464807640761137e-04</internalNodes>
          <leafValues>
            1.7441248893737793e-01 -5.2270305156707764e-01</leafValues></_>
        <_>
          <internalNodes>
            0 -1 196 1.3134504668414593e-02</internalNodes>
          <leafValues>
            -2.3315408825874329e-01 4.1416957974433899e-01</leafValues></_>
        <_>
          <internalNodes>
            0 -1 129 3.2977247610688210e-03</internalNodes>
          <leafValues>
            1.3157100975513458e-01 -7.1254891157150269e-01</leafValues></_></weakClassifiers></_>
    <!-- stage 6 -->
    <_>
      <maxWeakCount>14</maxWeakCount>
      <stageThreshold>-9.0456378459930420e-01</stageThreshold>
      <weakClassifiers>
        <_>
          <internalNodes>
            0 -1 497 -2.1314375102519989e-02</internalNodes>
          <leafValues>
            4.1295546293258667e-01 -4.0316206216812134e-01</leafValues></_>
        <_>
          <internalNodes>
            0 -1 34 1.5320398844778538e-02</internalNodes>
          <leafValues>
            -2.7772346138954163e-01 5.1535624265670776e-01</leafValues></_>
        <_>
          <internalNodes>
            0 -1 79 -1.7010178416967392e-02</internalNodes>
          <leafValues>
            4.3447858095169067e-01 -2.1759912371635437e-01</leafValues></_>
        <_>
          <internalNodes>
            0 -1 354 7.0211575366556644e-03</internalNodes>
          <leafValues>
            -2.0310202240943909e-01 4.7891789674758911e-01</leafValues></_>
        <_>
          <internalNodes>
            0 -1 124 1.5639618039131165e-01</internalNodes>
          <leafValues>
            -1.9149684906005859e-01 5.6644099950790405e-01</leafValues></_>
        <_>
          <internalNodes>
            0 -1 297 6.7861797288060188e-03</internalNodes>
          <leafValues>
            1.8497844040393829e-01 -6.1485463380813599e-01</leafValues></_>
        <_>
          <internalNodes>
            0 -1 366 6.4941197633743286e-02</internalNodes>
          <leafValues>
            -1.0483509302139282e-01 8.0886787176132202e-01</leafValues></_>
        <_>
          <internalNodes>
            0 -1 282 -2.5828037410974503e-02</internalNodes>
          <leafValues>
            6.3655608892440796e-01 -1.3298775255680084e-01</leafValues></_>
        <_>
          <internalNodes>
            0 -1 242 -6.4893090166151524e-04</internalNodes>
          <leafValues>
            2.3739941418170929e-01 -3.5003697872161865e-01</leafValues></_>
        <_>
          <internalNodes>
            0 -1 373 5.0849588587880135e-03</internalNodes>
          <leafValues>
            1.2288795411586761e-01 -8.4659576416015625e-01</leafValues></_>
        <_>
          <internalNodes>
            0 -1 186 -5.0818067975342274e-03</internalNodes>
          <leafValues>
            3.4465619921684265e-01 -2.4696566164493561e-01</leafValues></_>
        <_>
          <internalNodes>
            0 -1 178 1.3014364987611771e-02</internalNodes>
          <leafValues>
            -2.2391457855701447e-01 3.5583412647247314e-01</leafValues></_>
        <_>
          <internalNodes>
            0 -1 45 5.0453405827283859e-02</internalNodes>
          <leafValues>
            -1.0322650521993637e-01 8.3151948451995850e-01</leafValues></_>
        <_>
          <internalNodes>
            0 -1 206 1.4867722056806087e-03</internalNodes>
          <leafValues>
            -3.0230858922004700e-01 2.8149545192718506e-01</leafValues></_></weakClassifiers></_>
    <!-- stage 7 -->
    <_>
      <maxWeakCount>15</maxWeakCount>
      <stageThreshold>-1.0606890916824341e+00</stageThreshold>
      <weakClassifiers>
        <_>
          <internalNodes>
            0 -1 92 5.7398560456931591e-03</internalNodes>
          <leafValues>
            -2.1525885164737701e-01 5.9398496150970459e-01</leafValues></_>
        <_>
          <internalNodes>
            0 -1 500 -4.3198645114898682e-02</internalNodes>
          <leafValues>
            5.5354243516921997e-01 -1.7845530807971954e-01</leafValues></_>
        <_>
          <internalNodes>
            0 -1 119 -1.5680320560932159e-01</internalNodes>
          <leafValues>
            1.8678538501262665e-01 -5.0608259439468384e-01</leafValues></_>
        <_>
          <internalNodes>
            0 -1 353 -2.9194857925176620e-03</internalNodes>
          <leafValues>
            4.1696992516517639e-01 -2.5038728117942810e-01</leafValues></_>
        <_>
          <internalNodes>
            0 -1 224 8.5626341402530670e-02</internalNodes>
          <leafValues>
            -4.6531219035387039e-02 7.9568058252334595e-01</leafValues></_>
        <_>
          <internalNodes>
            0 -1 156 2.0573688670992851e-03</internalNodes>
          <leafValues>
            -3.2952409982681274e-01 2.3504053056240082e-01</leafValues></_>
        <_>
          <internalNodes>
            0 -1 306 -5.0859354436397552e-02</internalNodes>
          <leafValues>
            7.0323270559310913e-01 -1.3830444216728210e-01</leafValues></_>
        <_>
          <internalNodes>
            0 -1 308 -3.0868556350469589e-02</internalNodes>
          <leafValues>
            5.3829991817474365e-01 -1.5265969932079315e-01</leafValues></_>
        <_>
          <internalNodes>
            0 -1 38 1.0398633778095245e-02</internalNodes>
          <leafValues>
            -1.6229881346225739e-01 4.1733723878860474e-01</leafValues></_>
        <_>
          <internalNodes>
            0 -1 283 -4.1319619049318135e-04</internalNodes>
          <leafValues>
            2.3541857302188873e-01 -3.2276177406311035e-01</leafValues></_>
        <_>
          <internalNodes>
            0 -1 415 -1.4598765410482883e-03</internalNodes>
          <leafValues>
            5.2817833423614502e-01 -1.4727489650249481e-01</leafValues></_>
        <_>
          <internalNodes>
            0 -1 328 -7.8093574848026037e-04</internalNodes>
          <leafValues>
            -4.6740138530731201e-01 1.7976437509059906e-01</leafValues></_>
        <_>
          <internalNodes>
            0 -1 344 -5.2267108112573624e-03</internalNodes>
          <leafValues>
            5.0666207075119019e-01 -1.7960441112518311e-01</leafValues></_>
        <_>
          <internalNodes>
            0 -1 400 -3.3587314188480377e-02</internalNodes>
          <leafValues>
            4.2586880922317505e-01 -1.7988076806068420e-01</leafValues></_>
        <_>
          <internalNodes>
            0 -1 77 -2.1453821659088135e-01</internalNodes>
          <leafValues>
            -9.3135255575180054e-01 8.4021173417568207e-02</leafValues></_></weakClassifiers></_>
    <!-- stage 8 -->
    <_>
      <maxWeakCount>14</maxWeakCount>
      <stageThreshold>-9.1590690612792969e-01</stageThreshold>
      <weakClassifiers>
        <_>
          <internalNodes>
            0 -1 105 -1.7364844679832458e-02</internalNodes>
          <leafValues>
            4.6086955070495605e-01 -2.4274809658527374e-01</leafValues></_>
        <_>
          <internalNodes>
            0 -1 277 -4.9332080379826948e-05</internalNodes>
          <leafValues>
            2.4208632111549377e-01 -4.3348178267478943e-01</leafValues></_>
        <_>
          <internalNodes>
            0 -1 472 -3.2871387898921967e-02</internalNodes>
          <leafValues>
            5.6758773326873779e-01 -1.7075002193450928e-01</leafValues></_>
        <_>
          <internalNodes>
            0 -1 413 5.5598746985197067e-03</internalNodes>
          <leafValues>
            1.0423383861780167e-01 -7.9198467731475830e-01</leafValues></_>
        <_>
          <internalNodes>
            0 -1 301 4.7401753254234791e-03</internalNodes>
          <leafValues>
            -2.2203028202056885e-01 3.6217007040977478e-01</leafValues></_>
        <_>
          <internalNodes>
            0 -1 258 6.5444656647741795e-03</internalNodes>
          <leafValues>
            9.8327785730361938e-02 -8.4174799919128418e-01</leafValues></_>
        <_>
          <internalNodes>
            0 -1 255 -6.2447888776659966e-03</internalNodes>
          <leafValues>
            -8.0273890495300293e-01 7.6047286391258240e-02</leafValues></_>
        <_>
          <internalNodes>
            0 -1 259 -3.9227618835866451e-03</internalNodes>
          <leafValues>
            4.7437724471092224e-01 -1.7821881175041199e-01</leafValues></_>
        <_>
          <internalNodes>
            0 -1 527 -1.0723048821091652e-02</internalNodes>
          <leafValues>
            5.2848815917968750e-01 -1.4456541836261749e-01</leafValues></_>
        <_>
          <internalNodes>
            0 -1 7 2.1114211529493332e-02</internalNodes>
          <leafValues>
            -4.6579289436340332e-01 1.6533604264259338e-01</leafValues></_>
        <_>
          <internalNodes>
            0 -1 412 -4.2299209162592888e-03</internalNodes>
          <leafValues>
            -5.9276777505874634e-01 1.3833421468734741e-01</leafValues></_>
        <_>
          <internalNodes>
            0 -1 5 6.4448197372257710e-03</internalNodes>
          <leafValues>
            1.1860810220241547e-01 -6.3551527261734009e-01</leafValues></_>
        <_>
          <internalNodes>
            0 -1 181 -6.0370936989784241e-02</internalNodes>
          <leafValues>
            5.4824918508529663e-01 -1.2833388149738312e-01</leafValues></_>
        <_>
          <internalNodes>
            0 -1 479 3.2393744913861156e-04</internalNodes>
          <leafValues>
            1.6216026246547699e-01 -5.5585950613021851e-01</leafValues></_></weakClassifiers></_>
    <!-- stage 9 -->
    <_>
      <maxWeakCount>18</maxWeakCount>
      <stageThreshold>-1.0367331504821777e+00</stageThreshold>
      <weakClassifiers>
        <_>
          <internalNodes>
            0 -1 525 -1.6576562076807022e-02</internalNodes>
          <leafValues>
            4.9287748336791992e-01 -2.6656395196914673e-01</leafValues></_>
        <_>
          <internalNodes>
            0 -1 27 2.3575153201818466e-02</internalNodes>
          <leafValues>
            -2.3343522846698761e-01 4.1173925995826721e-01</leafValues></_>
        <_>
          <internalNodes>
            0 -1 404 1.3061712682247162e-01</internalNodes>
          <leafValues>
            -1.0711878538131714e-01 8.3923071622848511e-01</leafValues></_>
        <_>
          <internalNodes>
            0 -1 147 8.3056122064590454e-02</internalNodes>
          <leafValues>
            -2.1054750680923462e-01 4.2845737934112549e-01</leafValues></_>
        <_>
          <internalNodes>
            0 -1 295 3.7650498561561108e-03</internalNodes>
          <leafValues>
            1.1798880249261856e-01 -6.6317826509475708e-01</leafValues></_>
        <_>
          <internalNodes>
            0 -1 37 -5.7433201000094414e-03</internalNodes>
          <leafValues>
            5.2849197387695313e-01 -1.2979631125926971e-01</leafValues></_>
        <_>
          <internalNodes>
            0 -1 316 -5.7781208306550980e-04</internalNodes>
          <leafValues>
            -4.4772815704345703e-01 1.9747532904148102e-01</leafValues></_>
        <_>
          <internalNodes>
            0 -1 314 3.5221312195062637e-02</internalNodes>
          <leafValues>
            -1.4043970406055450e-01 5.3126126527786255e-01</leafValues></_>
        <_>
          <internalNodes>
            0 -1 325 7.4239820241928101e-04</internalNodes>
          <leafValues>
            2.1451032161712646e-01 -4.4831034541130066e-01</leafValues></_>
        <_>
          <internalNodes>
            0 -1 395 -1.0356420278549194e-01</internalNodes>
          <leafValues>
            5.5490368604660034e-01 -1.6354247927665710e-01</leafValues></_>
        <_>
          <internalNodes>
            0 -1 222 -1.0396918281912804e-02</internalNodes>
          <leafValues>
            3.5707131028175354e-01 -2.1929848194122314e-01</leafValues></_>
        <_>
          <internalNodes>
            0 -1 82 -3.4892313182353973e-02</internalNodes>
          <leafValues>
            5.3185898065567017e-01 -1.5782026946544647e-01</leafValues></_>
        <_>
          <internalNodes>
            0 -1 128 -3.2416179776191711e-02</internalNodes>
          <leafValues>
            4.1617384552955627e-01 -2.1798284351825714e-01</leafValues></_>
        <_>
          <internalNodes>
            0 -1 463 -8.5580786690115929e-03</internalNodes>
          <leafValues>
            -7.8557443618774414e-01 1.0535673052072525e-01</leafValues></_>
        <_>
          <internalNodes>
            0 -1 502 3.5268582869321108e-03</internalNodes>
          <leafValues>
            -2.6240080595016479e-01 3.3768454194068909e-01</leafValues></_>
        <_>
          <internalNodes>
            0 -1 493 -5.1132682710886002e-03</internalNodes>
          <leafValues>
            4.2835292220115662e-01 -1.7411722242832184e-01</leafValues></_>
        <_>
          <internalNodes>
            0 -1 521 5.8066546916961670e-03</internalNodes>
          <leafValues>
            1.2480498850345612e-01 -7.1927791833877563e-01</leafValues></_>
        <_>
          <internalNodes>
            0 -1 303 -8.3779236301779747e-03</internalNodes>
          <leafValues>
            4.4530537724494934e-01 -1.7190141975879669e-01</leafValues></_></weakClassifiers></_>
    <!-- stage 10 -->
    <_>
      <maxWeakCount>19</maxWeakCount>
      <stageThreshold>-7.8560197353363037e-01</stageThreshold>
      <weakClassifiers>
        <_>
          <internalNodes>
            0 -1 96 2.2323580924421549e-03</internalNodes>
          <leafValues>
            -2.8353139758110046e-01 4.0632602572441101e-01</leafValues></_>
        <_>
          <internalNodes>
            0 -1 476 2.4849958717823029e-02</internalNodes>
          <leafValues>
            -2.0416738092899323e-01 3.9998540282249451e-01</leafValues></_>
        <_>
          <internalNodes>
            0 -1 436 1.6955426335334778e-01</internalNodes>
          <leafValues>
            -1.8206413090229034e-01 4.2820492386817932e-01</leafValues></_>
        <_>
          <internalNodes>
            0 -1 462 -1.4258237555623055e-02</internalNodes>
          <leafValues>
            5.9856724739074707e-01 -1.3304010033607483e-01</leafValues></_>
        <_>
          <internalNodes>
            0 -1 504 2.3493801709264517e-03</internalNodes>
          <leafValues>
            1.0353426635265350e-01 -6.5022677183151245e-01</leafValues></_>
        <_>
          <internalNodes>
            0 -1 428 3.9511244744062424e-02</internalNodes>
          <leafValues>
            -1.1950342357158661e-01 4.9710920453071594e-01</leafValues></_>
        <_>
          <internalNodes>
            0 -1 241 -6.0338969342410564e-04</internalNodes>
          <leafValues>
            -4.8458209633827209e-01 1.4547038078308105e-01</leafValues></_>
        <_>
          <internalNodes>
            0 -1 3 -1.0091912699863315e-03</internalNodes>
          <leafValues>
            -3.7644127011299133e-01 2.0522233843803406e-01</leafValues></_>
        <_>
          <internalNodes>
            0 -1 195 2.9056405648589134e-02</internalNodes>
          <leafValues>
            -2.3620216548442841e-01 3.0467826128005981e-01</leafValues></_>
        <_>
          <internalNodes>
            0 -1 136 -1.1338172480463982e-02</internalNodes>
          <leafValues>
            5.6499010324478149e-01 -1.1839229613542557e-01</leafValues></_>
        <_>
          <internalNodes>
            0 -1 157 1.1090112850070000e-02</internalNodes>
          <leafValues>
            -1.2441340088844299e-01 5.8130025863647461e-01</leafValues></_>
        <_>
          <internalNodes>
            0 -1 214 -1.5113383415155113e-04</internalNodes>
          <leafValues>
            1.9098785519599915e-01 -3.5517010092735291e-01</leafValues></_>
        <_>
          <internalNodes>
            0 -1 291 6.1758104711771011e-03</internalNodes>
          <leafValues>
            -1.5080402791500092e-01 4.9760520458221436e-01</leafValues></_>
        <_>
          <internalNodes>
            0 -1 204 1.0272989422082901e-01</internalNodes>
          <leafValues>
            -1.4062084257602692e-01 5.8287209272384644e-01</leafValues></_>
        <_>
          <internalNodes>
            0 -1 459 3.5009838640689850e-02</internalNodes>
          <leafValues>
            -1.6638550162315369e-01 4.6234381198883057e-01</leafValues></_>
        <_>
          <internalNodes>
            0 -1 118 -1.0928286937996745e-03</internalNodes>
          <leafValues>
            2.8794300556182861e-01 -2.7781382203102112e-01</leafValues></_>
        <_>
          <internalNodes>
            0 -1 169 -6.3263729214668274e-02</internalNodes>
          <leafValues>
            6.2511992454528809e-01 -1.2981748580932617e-01</leafValues></_>
        <_>
          <internalNodes>
            0 -1 276 -6.4482609741389751e-04</internalNodes>
          <leafValues>
            -3.8991063833236694e-01 2.0301003754138947e-01</leafValues></_>
        <_>
          <internalNodes>
            0 -1 489 5.2859652787446976e-03</internalNodes>
          <leafValues>
            9.6723347902297974e-02 -6.7757898569107056e-01</leafValues></_></weakClassifiers></_>
    <!-- stage 11 -->
    <_>
      <maxWeakCount>20</maxWeakCount>
      <stageThreshold>-1.0698661804199219e+00</stageThreshold>
      <weakClassifiers>
        <_>
          <internalNodes>
            0 -1 380 4.5022480189800262e-03</internalNodes>
          <leafValues>
            -2.0000000298023224e-01 4.7796609997749329e-01</leafValues></_>
        <_>
          <internalNodes>
            0 -1 166 1.5522208064794540e-02</internalNodes>
          <leafValues>
            -1.9571769237518311e-01 4.9611032009124756e-01</leafValues></_>
        <_>
          <internalNodes>
            0 -1 309 -1.3334435224533081e-01</internalNodes>
          <leafValues>
            1.5617890655994415e-01 -4.4241544604301453e-01</leafValues></_>
        <_>
          <internalNodes>
            0 -1 477 2.0488891750574112e-02</internalNodes>
          <leafValues>
            -1.7528422176837921e-01 3.9163395762443542e-01</leafValues></_>
        <_>
          <internalNodes>
            0 -1 318 -9.2571286950260401e-04</internalNodes>
          <leafValues>
            -3.4782281517982483e-01 2.3058900237083435e-01</leafValues></_>
        <_>
          <internalNodes>
            0 -1 399 8.7130457162857056e-02</internalNodes>
          <leafValues>
            -1.4565807580947876e-01 8.3537787199020386e-01</leafValues></_>
        <_>
          <internalNodes>
            0 -1 112 -4.4300731271505356e-02</internalNodes>
          <leafValues>
            6.7578434944152832e-01 -9.1365367174148560e-02</leafValues></_>
        <_>
          <internalNodes>
            0 -1 449 2.0882818847894669e-02</internalNodes>
          <leafValues>
            -1.3402391970157623e-01 4.6280807256698608e-01</leafValues></_>
        <_>
          <internalNodes>
            0 -1 230 -9.1464621946215630e-03</internalNodes>
          <leafValues>
            7.6935482025146484e-01 -8.1720694899559021e-02</leafValues></_>
        <_>
          <internalNodes>
            0 -1 108 3.7036709487438202e-02</internalNodes>
          <leafValues>
            1.2734429538249969e-01 -5.4925209283828735e-01</leafValues></_>
        <_>
          <internalNodes>
            0 -1 63 -2.0380835980176926e-02</internalNodes>
          <leafValues>
            -8.1518125534057617e-01 6.7778065800666809e-02</leafValues></_>
        <_>
          <internalNodes>
            0 -1 59 -1.4026023447513580e-02</internalNodes>
          <leafValues>
            2.9650601744651794e-01 -2.1908363699913025e-01</leafValues></_>
        <_>
          <internalNodes>
            0 -1 41 -6.9415261968970299e-03</internalNodes>
          <leafValues>
            5.4841089248657227e-01 -1.3383530080318451e-01</leafValues></_>
        <_>
          <internalNodes>
            0 -1 111 -1.8476787954568863e-03</internalNodes>
          <leafValues>
            -7.9564654827117920e-01 1.0195386409759521e-01</leafValues></_>
        <_>
          <internalNodes>
            0 -1 149 1.0915683209896088e-01</internalNodes>
          <leafValues>
            -1.8959258496761322e-01 3.8253459334373474e-01</leafValues></_>
        <_>
          <internalNodes>
            0 -1 143 -1.1889958754181862e-02</internalNodes>
          <leafValues>
            4.6971267461776733e-01 -1.4181625843048096e-01</leafValues></_>
        <_>
          <internalNodes>
            0 -1 394 -2.1080143749713898e-02</internalNodes>
          <leafValues>
            2.7007478475570679e-01 -2.8570964932441711e-01</leafValues></_>
        <_>
          <internalNodes>
            0 -1 367 -3.5394157748669386e-04</internalNodes>
          <leafValues>
            -3.6903697252273560e-01 1.8098317086696625e-01</leafValues></_>
        <_>
          <internalNodes>
            0 -1 264 -5.8671347796916962e-03</internalNodes>
          <leafValues>
            5.5526429414749146e-01 -1.2172310054302216e-01</leafValues></_>
        <_>
          <internalNodes>
            0 -1 274 8.3652237663045526e-04</internalNodes>
          <leafValues>
            1.5872994065284729e-01 -4.3310412764549255e-01</leafValues></_></weakClassifiers></_>
    <!-- stage 12 -->
    <_>
      <maxWeakCount>22</maxWeakCount>
      <stageThreshold>-7.7536565065383911e-01</stageThreshold>
      <weakClassifiers>
        <_>
          <internalNodes>
            0 -1 25 1.2337313964962959e-02</internalNodes>
          <leafValues>
            -2.5666666030883789e-01 3.8499999046325684e-01</leafValues></_>
        <_>
          <internalNodes>
            0 -1 47 -1.9383865874260664e-03</internalNodes>
          <leafValues>
            4.2747390270233154e-01 -2.3557662963867188e-01</leafValues></_>
        <_>
          <internalNodes>
            0 -1 406 -1.4181852340698242e-01</internalNodes>
          <leafValues>
            2.3406912386417389e-01 -2.9247435927391052e-01</leafValues></_>
        <_>
          <internalNodes>
            0 -1 516 3.4863329492509365e-03</internalNodes>
          <leafValues>
            -1.9964669644832611e-01 3.6701360344886780e-01</leafValues></_>
        <_>
          <internalNodes>
            0 -1 536 1.4055836945772171e-03</internalNodes>
          <leafValues>
            -1.6764348745346069e-01 3.4001347422599792e-01</leafValues></_>
        <_>
          <internalNodes>
            0 -1 273 1.0132477473234758e-04</internalNodes>
          <leafValues>
            -2.8601834177970886e-01 2.4360211193561554e-01</leafValues></_>
        <_>
          <internalNodes>
            0 -1 491 2.5130435824394226e-04</internalNodes>
          <leafValues>
            1.4024923741817474e-01 -4.5343050360679626e-01</leafValues></_>
        <_>
          <internalNodes>
            0 -1 433 5.5674668401479721e-03</internalNodes>
          <leafValues>
            -1.3487108051776886e-01 5.9929692745208740e-01</leafValues></_>
        <_>
          <internalNodes>
            0 -1 440 -1.9706434104591608e-03</internalNodes>
          <leafValues>
            2.0219556987285614e-01 -3.5036447644233704e-01</leafValues></_>
        <_>
          <internalNodes>
            0 -1 417 -4.2321393266320229e-03</internalNodes>
          <leafValues>
            5.3295302391052246e-01 -1.1218160390853882e-01</leafValues></_>
        <_>
          <internalNodes>
            0 -1 332 -1.2465820182114840e-03</internalNodes>
          <leafValues>
            -4.5024845004081726e-01 1.6124810278415680e-01</leafValues></_>
        <_>
          <internalNodes>
            0 -1 122 1.7653703689575195e-03</internalNodes>
          <leafValues>
            -2.3662622272968292e-01 2.8909099102020264e-01</leafValues></_>
        <_>
          <internalNodes>
            0 -1 240 -7.2244869079440832e-04</internalNodes>
          <leafValues>
            2.2297742962837219e-01 -3.5694447159767151e-01</leafValues></_>
        <_>
          <internalNodes>
            0 -1 427 3.3239424228668213e-02</internalNodes>
          <leafValues>
            -1.3640531897544861e-01 5.5638873577117920e-01</leafValues></_>
        <_>
          <internalNodes>
            0 -1 313 -5.7495847344398499e-02</internalNodes>
          <leafValues>
            6.4515793323516846e-01 -1.0732109844684601e-01</leafValues></_>
        <_>
          <internalNodes>
            0 -1 89 -4.4494047760963440e-02</internalNodes>
          <leafValues>
            5.3144687414169312e-01 -9.7031623125076294e-02</leafValues></_>
        <_>
          <internalNodes>
            0 -1 190 -4.0870588272809982e-03</internalNodes>
          <leafValues>
            -6.5417516231536865e-01 1.0869137197732925e-01</leafValues></_>
        <_>
          <internalNodes>
            0 -1 434 8.0861821770668030e-03</internalNodes>
          <leafValues>
            -1.3338536024093628e-01 5.6898421049118042e-01</leafValues></_>
        <_>
          <internalNodes>
            0 -1 418 5.5664540268480778e-03</internalNodes>
          <leafValues>
            8.9814029633998871e-02 -9.5256942510604858e-01</leafValues></_>
        <_>
          <internalNodes>
            0 -1 330 -1.2304033152759075e-03</internalNodes>
          <leafValues>
            -5.2441358566284180e-01 9.7390286624431610e-02</leafValues></_>
        <_>
          <internalNodes>
            0 -1 526 -4.0294108912348747e-03</internalNodes>
          <leafValues>
            3.9444619417190552e-01 -1.6246762871742249e-01</leafValues></_>
        <_>
          <internalNodes>
            0 -1 54 2.9190899804234505e-03</internalNodes>
          <leafValues>
            -1.8384252488613129e-01 3.5254353284835815e-01</leafValues></_></weakClassifiers></_>
    <!-- stage 13 -->
    <_>
      <maxWeakCount>20</maxWeakCount>
      <stageThreshold>-9.8564928770065308e-01</stageThreshold>
      <weakClassifiers>
        <_>
          <internalNodes>
            0 -1 530 -1.1443294584751129e-02</internalNodes>
          <leafValues>
            3.6720553040504456e-01 -2.8042328357696533e-01</leafValues></_>
        <_>
          <internalNodes>
            0 -1 28 1.9573204219341278e-02</internalNodes>
          <leafValues>
            -2.8338027000427246e-01 2.6014903187751770e-01</leafValues></_>
        <_>
          <internalNodes>
            0 -1 32 1.4802400022745132e-02</internalNodes>
          <leafValues>
            -1.2264550477266312e-01 5.2579116821289063e-01</leafValues></_>
        <_>
          <internalNodes>
            0 -1 517 -2.8497038874775171e-03</internalNodes>
          <leafValues>
            3.4374493360519409e-01 -2.1557252109050751e-01</leafValues></_>
        <_>
          <internalNodes>
            0 -1 407 9.6106188721023500e-05</internalNodes>
          <leafValues>
            1.8060100078582764e-01 -3.9388638734817505e-01</leafValues></_>
        <_>
          <internalNodes>
            0 -1 179 -1.4052941463887691e-02</internalNodes>
          <leafValues>
            4.3983146548271179e-01 -1.4275299012660980e-01</leafValues></_>
        <_>
          <internalNodes>
            0 -1 99 -6.1524370685219765e-03</internalNodes>
          <leafValues>
            -7.2187763452529907e-01 8.1572756171226501e-02</leafValues></_>
        <_>
          <internalNodes>
            0 -1 523 4.1111418977379799e-03</internalNodes>
          <leafValues>
            1.1947242915630341e-01 -5.8399742841720581e-01</leafValues></_>
        <_>
          <internalNodes>
            0 -1 176 1.2055142223834991e-01</internalNodes>
          <leafValues>
            -1.3496568799018860e-01 4.5975795388221741e-01</leafValues></_>
        <_>
          <internalNodes>
            0 -1 357 1.2194255366921425e-02</internalNodes>
          <leafValues>
            -1.0151290148496628e-01 7.0704019069671631e-01</leafValues></_>
        <_>
          <internalNodes>
            0 -1 377 -4.2802527546882629e-02</internalNodes>
          <leafValues>
            5.9391254186630249e-01 -1.0017722845077515e-01</leafValues></_>
        <_>
          <internalNodes>
            0 -1 522 -5.7254952844232321e-04</internalNodes>
          <leafValues>
            -3.9050671458244324e-01 1.5278534591197968e-01</leafValues></_>
        <_>
          <internalNodes>
            0 -1 359 -5.7055968791246414e-03</internalNodes>
          <leafValues>
            5.9970557689666748e-01 -9.3905083835124969e-02</leafValues></_>
        <_>
          <internalNodes>
            0 -1 284 1.2565784156322479e-02</internalNodes>
          <leafValues>
            -1.1586511880159378e-01 4.5658552646636963e-01</leafValues></_>
        <_>
          <internalNodes>
            0 -1 253 8.1550646573305130e-03</internalNodes>
          <leafValues>
            -1.3737325370311737e-01 4.1122314333915710e-01</leafValues></_>
        <_>
          <internalNodes>
            0 -1 392 -1.9825046882033348e-02</internalNodes>
          <leafValues>
            2.7631616592407227e-01 -2.7051004767417908e-01</leafValues></_>
        <_>
          <internalNodes>
            0 -1 68 2.5857243686914444e-02</internalNodes>
          <leafValues>
            9.2812530696392059e-02 -6.9903063774108887e-01</leafValues></_>
        <_>
          <internalNodes>
            0 -1 16 -1.8848115205764771e-01</internalNodes>
          <leafValues>
            -6.9547593593597412e-01 7.8701928257942200e-02</leafValues></_>
        <_>
          <internalNodes>
            0 -1 505 6.5305153839290142e-03</internalNodes>
          <leafValues>
            4.4497802853584290e-02 -8.7205910682678223e-01</leafValues></_>
        <_>
          <internalNodes>
            0 -1 165 5.4092537611722946e-03</internalNodes>
          <leafValues>
            -1.7334255576133728e-01 3.7485522031784058e-01</leafValues></_></weakClassifiers></_>
    <!-- stage 14 -->
    <_>
      <maxWeakCount>24</maxWeakCount>
      <stageThreshold>-1.0722961425781250e+00</stageThreshold>
      <weakClassifiers>
        <_>
          <internalNodes>
            0 -1 35 2.9840890318155289e-02</internalNodes>
          <leafValues>
            -2.1165643632411957e-01 3.9655172824859619e-01</leafValues></_>
        <_>
          <internalNodes>
            0 -1 189 -9.1721788048744202e-03</internalNodes>
          <leafValues>
            2.5922182202339172e-01 -2.5444343686103821e-01</leafValues></_>
        <_>
          <internalNodes>
            0 -1 256 1.6202993690967560e-02</internalNodes>
          <leafValues>
            -2.0126675069332123e-01 3.0374568700790405e-01</leafValues></_>
        <_>
          <internalNodes>
            0 -1 391 -3.4742767456918955e-03</internalNodes>
          <leafValues>
            3.5829019546508789e-01 -1.8159857392311096e-01</leafValues></_>
        <_>
          <internalNodes>
            0 -1 330 -5.1483639254001901e-05</internalNodes>
          <leafValues>
            1.5461048483848572e-01 -3.6110860109329224e-01</leafValues></_>
        <_>
          <internalNodes>
            0 -1 387 8.5482470691204071e-02</internalNodes>
          <leafValues>
            -1.2553662061691284e-01 4.2997038364410400e-01</leafValues></_>
        <_>
          <internalNodes>
            0 -1 140 -6.2253871001303196e-03</internalNodes>
          <leafValues>
            4.2849612236022949e-01 -1.8430733680725098e-01</leafValues></_>
        <_>
          <internalNodes>
            0 -1 192 5.4220883175730705e-03</internalNodes>
          <leafValues>
            -1.6465435922145844e-01 4.3144145607948303e-01</leafValues></_>
        <_>
          <internalNodes>
            0 -1 160 -2.6055362541228533e-03</internalNodes>
          <leafValues>
            -5.8482933044433594e-01 1.5915209054946899e-01</leafValues></_>
        <_>
          <internalNodes>
            0 -1 292 4.2046550661325455e-03</internalNodes>
          <leafValues>
            -1.8525296449661255e-01 4.0242075920104980e-01</leafValues></_>
        <_>
          <internalNodes>
            0 -1 220 -1.7617736011743546e-03</internalNodes>
          <leafValues>
            2.9524412751197815e-01 -2.1852949261665344e-01</leafValues></_>
        <_>
          <internalNodes>
            0 -1 104 -6.1801145784556866e-03</internalNodes>
          <leafValues>
            2.0276030898094177e-01 -3.1701385974884033e-01</leafValues></_>
        <_>
          <internalNodes>
            0 -1 285 -1.7853260040283203e-02</internalNodes>
          <leafValues>
            3.7237828969955444e-01 -2.0497611165046692e-01</leafValues></_>
        <_>
          <internalNodes>
            0 -1 130 1.9487487152218819e-02</internalNodes>
          <leafValues>
            -5.5866986513137817e-02 6.7085486650466919e-01</leafValues></_>
        <_>
          <internalNodes>
            0 -1 151 4.1977256536483765e-02</internalNodes>
          <leafValues>
            -7.7186927199363708e-02 6.8222504854202271e-01</leafValues></_>
        <_>
          <internalNodes>
            0 -1 456 4.2287032119929790e-03</internalNodes>
          <leafValues>
            1.2598063051700592e-01 -5.0687766075134277e-01</leafValues></_>
        <_>
          <internalNodes>
            0 -1 101 -3.6902250722050667e-03</internalNodes>
          <leafValues>
            -5.0205314159393311e-01 1.1047648638486862e-01</leafValues></_>
        <_>
          <internalNodes>
            0 -1 203 6.4882915467023849e-03</internalNodes>
          <leafValues>
            9.4988651573657990e-02 -6.2450820207595825e-01</leafValues></_>
        <_>
          <internalNodes>
            0 -1 423 6.7208050750195980e-03</internalNodes>
          <leafValues>
            -1.2486872076988220e-01 5.0479948520660400e-01</leafValues></_>
        <_>
          <internalNodes>
            0 -1 163 1.9738383591175079e-02</internalNodes>
          <leafValues>
            -2.2928068041801453e-01 2.7494892477989197e-01</leafValues></_>
        <_>
          <internalNodes>
            0 -1 535 -1.0886078700423241e-02</internalNodes>
          <leafValues>
            3.7844803929328918e-01 -1.5623435378074646e-01</leafValues></_>
        <_>
          <internalNodes>
            0 -1 518 -3.5286759957671165e-03</internalNodes>
          <leafValues>
            4.0615147352218628e-01 -1.6620279848575592e-01</leafValues></_>
        <_>
          <internalNodes>
            0 -1 401 -7.2926439344882965e-02</internalNodes>
          <leafValues>
            4.8972725868225098e-01 -1.2560987472534180e-01</leafValues></_>
        <_>
          <internalNodes>
            0 -1 231 8.1617292016744614e-03</internalNodes>
          <leafValues>
            -2.3948334157466888e-01 2.6438322663307190e-01</leafValues></_></weakClassifiers></_>
    <!-- stage 15 -->
    <_>
      <maxWeakCount>17</maxWeakCount>
      <stageThreshold>-9.2909133434295654e-01</stageThreshold>
      <weakClassifiers>
        <_>
          <internalNodes>
            0 -1 26 1.8562261015176773e-02</internalNodes>
          <leafValues>
            -1.9214586913585663e-01 4.7735190391540527e-01</leafValues></_>
        <_>
          <internalNodes>
            0 -1 492 1.2434067204594612e-02</internalNodes>
          <leafValues>
            -2.5553083419799805e-01 2.8186285495758057e-01</leafValues></_>
        <_>
          <internalNodes>
            0 -1 0 2.3772236891090870e-03</internalNodes>
          <leafValues>
            1.1747948080301285e-01 -5.9670150279998779e-01</leafValues></_>
        <_>
          <internalNodes>
            0 -1 13 6.7626982927322388e-02</internalNodes>
          <leafValues>
            -3.0119499564170837e-01 2.4240985512733459e-01</leafValues></_>
        <_>
          <internalNodes>
            0 -1 72 3.4356579184532166e-02</internalNodes>
          <leafValues>
            6.2236916273832321e-02 -6.4186471700668335e-01</leafValues></_>
        <_>
          <internalNodes>
            0 -1 360 8.9663311839103699e-02</internalNodes>
          <leafValues>
            -1.3107654452323914e-01 5.4785805940628052e-01</leafValues></_>
        <_>
          <internalNodes>
            0 -1 338 -3.8012833101674914e-04</internalNodes>
          <leafValues>
            -3.5808458924293518e-01 1.8844538927078247e-01</leafValues></_>
        <_>
          <internalNodes>
            0 -1 110 -1.0481838136911392e-02</internalNodes>
          <leafValues>
            5.1150202751159668e-01 -1.3466906547546387e-01</leafValues></_>
        <_>
          <internalNodes>
            0 -1 470 8.7815208826214075e-04</internalNodes>
          <leafValues>
            -1.6517233848571777e-01 3.0671542882919312e-01</leafValues></_>
        <_>
          <internalNodes>
            0 -1 446 -2.9455810785293579e-02</internalNodes>
          <leafValues>
            6.2328732013702393e-01 -1.0544317215681076e-01</leafValues></_>
        <_>
          <internalNodes>
            0 -1 443 -1.0421934723854065e-01</internalNodes>
          <leafValues>
            2.1724487841129303e-01 -3.2668057084083557e-01</leafValues></_>
        <_>
          <internalNodes>
            0 -1 243 2.3520898073911667e-02</internalNodes>
          <leafValues>
            -1.1473800987005234e-01 6.5101039409637451e-01</leafValues></_>
        <_>
          <internalNodes>
            0 -1 356 -8.5350014269351959e-03</internalNodes>
          <leafValues>
            5.1633715629577637e-01 -1.2015280127525330e-01</leafValues></_>
        <_>
          <internalNodes>
            0 -1 323 9.0271321823820472e-04</internalNodes>
          <leafValues>
            1.5814626216888428e-01 -5.3484684228897095e-01</leafValues></_>
        <_>
          <internalNodes>
            0 -1 351 -3.1365263275802135e-03</internalNodes>
          <leafValues>
            -5.9239798784255981e-01 9.6932336688041687e-02</leafValues></_>
        <_>
          <internalNodes>
            0 -1 199 -2.6757125742733479e-03</internalNodes>
          <leafValues>
            -5.8105665445327759e-01 9.2202559113502502e-02</leafValues></_>
        <_>
          <internalNodes>
            0 -1 201 1.2731634778901935e-03</internalNodes>
          <leafValues>
            -3.5957780480384827e-01 2.3556451499462128e-01</leafValues></_></weakClassifiers></_>
    <!-- stage 16 -->
    <_>
      <maxWeakCount>25</maxWeakCount>
      <stageThreshold>-9.3116664886474609e-01</stageThreshold>
      <weakClassifiers>
        <_>
          <internalNodes>
            0 -1 531 -8.4418263286352158e-03</internalNodes>
          <leafValues>
            2.8136882185935974e-01 -3.1223627924919128e-01</leafValues></_>
        <_>
          <internalNodes>
            0 -1 279 -4.3938567978329957e-04</internalNodes>
          <leafValues>
            -4.1347086429595947e-01 1.4035312831401825e-01</leafValues></_>
        <_>
          <internalNodes>
            0 -1 448 4.1730169206857681e-02</internalNodes>
          <leafValues>
            -1.2938955426216125e-01 4.7555249929428101e-01</leafValues></_>
        <_>
          <internalNodes>
            0 -1 126 -2.7451477944850922e-02</internalNodes>
          <leafValues>
            5.9532809257507324e-01 -1.2696868181228638e-01</leafValues></_>
        <_>
          <internalNodes>
            0 -1 57 -8.5511235520243645e-03</internalNodes>
          <leafValues>
            -4.4564044475555420e-01 1.9826252758502960e-01</leafValues></_>
        <_>
          <internalNodes>
            0 -1 364 2.1992936730384827e-02</internalNodes>
          <leafValues>
            -1.9229666888713837e-01 4.5192110538482666e-01</leafValues></_>
        <_>
          <internalNodes>
            0 -1 4 -7.0138871669769287e-03</internalNodes>
          <leafValues>
            -4.9556288123130798e-01 1.5736456215381622e-01</leafValues></_>
        <_>
          <internalNodes>
            0 -1 115 -6.7984089255332947e-02</internalNodes>
          <leafValues>
            5.3160184621810913e-01 -1.6656255722045898e-01</leafValues></_>
        <_>
          <internalNodes>
            0 -1 372 -9.7995367832481861e-04</internalNodes>
          <leafValues>
            -3.2209241390228271e-01 2.1328474581241608e-01</leafValues></_>
        <_>
          <internalNodes>
            0 -1 393 1.4559567207470536e-03</internalNodes>
          <leafValues>
            -1.9707886874675751e-01 3.2403516769409180e-01</leafValues></_>
        <_>
          <internalNodes>
            0 -1 393 -2.4691452272236347e-03</internalNodes>
          <leafValues>
            4.4723007082939148e-01 -1.8686337769031525e-01</leafValues></_>
        <_>
          <internalNodes>
            0 -1 50 -1.5337219834327698e-01</internalNodes>
          <leafValues>
            2.6091900467872620e-01 -2.4891342222690582e-01</leafValues></_>
        <_>
          <internalNodes>
            0 -1 58 2.8203561902046204e-02</internalNodes>
          <leafValues>
            -9.8039120435714722e-02 6.0457897186279297e-01</leafValues></_>
        <_>
          <internalNodes>
            0 -1 212 -7.4508171528577805e-03</internalNodes>
          <leafValues>
            -4.7689545154571533e-01 1.2825977802276611e-01</leafValues></_>
        <_>
          <internalNodes>
            0 -1 17 1.8883422017097473e-02</internalNodes>
          <leafValues>
            -1.1608281731605530e-01 5.5904972553253174e-01</leafValues></_>
        <_>
          <internalNodes>
            0 -1 381 3.3973883837461472e-03</internalNodes>
          <leafValues>
            -1.5856583416461945e-01 3.6019936203956604e-01</leafValues></_>
        <_>
          <internalNodes>
            0 -1 218 -1.2692850083112717e-02</internalNodes>
          <leafValues>
            5.4001933336257935e-01 -9.2329658567905426e-02</leafValues></_>
        <_>
          <internalNodes>
            0 -1 280 -4.1376167791895568e-04</internalNodes>
          <leafValues>
            -3.5426592826843262e-01 1.3687850534915924e-01</leafValues></_>
        <_>
          <internalNodes>
            0 -1 487 -1.1161303147673607e-02</internalNodes>
          <leafValues>
            5.4009020328521729e-01 -1.0436607897281647e-01</leafValues></_>
        <_>
          <internalNodes>
            0 -1 498 -9.0789403766393661e-03</internalNodes>
          <leafValues>
            -4.3794658780097961e-01 1.4155441522598267e-01</leafValues></_>
        <_>
          <internalNodes>
            0 -1 267 1.3237053528428078e-02</internalNodes>
          <leafValues>
            -1.1238683760166168e-01 5.0644940137863159e-01</leafValues></_>
        <_>
          <internalNodes>
            0 -1 450 1.1215584352612495e-02</internalNodes>
          <leafValues>
            7.0588529109954834e-02 -8.0690646171569824e-01</leafValues></_>
        <_>
          <internalNodes>
            0 -1 103 -2.1333456970751286e-03</internalNodes>
          <leafValues>
            -3.1388404965400696e-01 1.4755812287330627e-01</leafValues></_>
        <_>
          <internalNodes>
            0 -1 414 -5.4397974163293839e-03</internalNodes>
          <leafValues>
            5.5180543661117554e-01 -1.0498304665088654e-01</leafValues></_>
        <_>
          <internalNodes>
            0 -1 60 -7.7719032764434814e-02</internalNodes>
          <leafValues>
            -6.1036789417266846e-01 9.5813818275928497e-02</leafValues></_></weakClassifiers></_>
    <!-- stage 17 -->
    <_>
      <maxWeakCount>24</maxWeakCount>
      <stageThreshold>-9.3498677015304565e-01</stageThreshold>
      <weakClassifiers>
        <_>
          <internalNodes>
            0 -1 335 -2.6757978048408404e-05</internalNodes>
          <leafValues>
            1.6850829124450684e-01 -4.4202899932861328e-01</leafValues></_>
        <_>
          <internalNodes>
            0 -1 43 2.4725437164306641e-02</internalNodes>
          <leafValues>
            -2.2879576683044434e-01 3.1660744547843933e-01</leafValues></_>
        <_>
          <internalNodes>
            0 -1 315 9.8325625061988831e-02</internalNodes>
          <leafValues>
            -1.0216919332742691e-01 5.8493226766586304e-01</leafValues></_>
        <_>
          <internalNodes>
            0 -1 324 -3.0363688711076975e-04</internalNodes>
          <leafValues>
            -3.8460481166839600e-01 1.5439642965793610e-01</leafValues></_>
        <_>
          <internalNodes>
            0 -1 228 -7.8598693013191223e-02</internalNodes>
          <leafValues>
            5.3657001256942749e-01 -1.1694748699665070e-01</leafValues></_>
        <_>
          <internalNodes>
            0 -1 302 -4.9281343817710876e-03</internalNodes>
          <leafValues>
            4.0993162989616394e-01 -1.6180370748043060e-01</leafValues></_>
        <_>
          <internalNodes>
            0 -1 378 -3.0536097474396229e-03</internalNodes>
          <leafValues>
            -7.8865659236907959e-01 6.2141805887222290e-02</leafValues></_>
        <_>
          <internalNodes>
            0 -1 123 -5.4871393367648125e-03</internalNodes>
          <leafValues>
            4.0031856298446655e-01 -1.5067189931869507e-01</leafValues></_>
        <_>
          <internalNodes>
            0 -1 419 -1.5985138714313507e-02</internalNodes>
          <leafValues>
            4.8375368118286133e-01 -1.2395413219928741e-01</leafValues></_>
        <_>
          <internalNodes>
            0 -1 454 7.6307244598865509e-03</internalNodes>
          <leafValues>
            9.1979719698429108e-02 -6.3132053613662720e-01</leafValues></_>
        <_>
          <internalNodes>
            0 -1 410 -3.6933377850800753e-04</internalNodes>
          <leafValues>
            -3.1461796164512634e-01 1.7708526551723480e-01</leafValues></_>
        <_>
          <internalNodes>
            0 -1 319 -2.9326701769605279e-04</internalNodes>
          <leafValues>
            -3.8219466805458069e-01 1.6437058150768280e-01</leafValues></_>
        <_>
          <internalNodes>
            0 -1 74 1.0778100695461035e-03</internalNodes>
          <leafValues>
            2.1114200353622437e-01 -3.0803948640823364e-01</leafValues></_>
        <_>
          <internalNodes>
            0 -1 158 8.9050885289907455e-03</internalNodes>
          <leafValues>
            -1.3662283122539520e-01 4.5920360088348389e-01</leafValues></_>
        <_>
          <internalNodes>
            0 -1 486 -1.3903728686273098e-02</internalNodes>
          <leafValues>
            5.0870507955551147e-01 -1.2261229008436203e-01</leafValues></_>
        <_>
          <internalNodes>
            0 -1 233 -7.0707157254219055e-02</internalNodes>
          <leafValues>
            5.1601630449295044e-01 -1.3104258477687836e-01</leafValues></_>
        <_>
          <internalNodes>
            0 -1 375 -8.6450006347149611e-04</internalNodes>
          <leafValues>
            2.4823789298534393e-01 -2.9025480151176453e-01</leafValues></_>
        <_>
          <internalNodes>
            0 -1 411 4.4474589230958372e-05</internalNodes>
          <leafValues>
            -2.1652738749980927e-01 2.6143375039100647e-01</leafValues></_>
        <_>
          <internalNodes>
            0 -1 247 -2.0010785665363073e-03</internalNodes>
          <leafValues>
            3.4367918968200684e-01 -1.6561363637447357e-01</leafValues></_>
        <_>
          <internalNodes>
            0 -1 383 3.5577308386564255e-02</internalNodes>
          <leafValues>
            -8.8965520262718201e-02 5.6353002786636353e-01</leafValues></_>
        <_>
          <internalNodes>
            0 -1 362 -6.8565741181373596e-02</internalNodes>
          <leafValues>
            5.1644653081893921e-01 -1.2655094265937805e-01</leafValues></_>
        <_>
          <internalNodes>
            0 -1 510 -4.0528718382120132e-03</internalNodes>
          <leafValues>
            -5.9451574087142944e-01 1.1965838819742203e-01</leafValues></_>
        <_>
          <internalNodes>
            0 -1 451 -3.8122225087136030e-03</internalNodes>
          <leafValues>
            5.6447887420654297e-01 -1.1591851711273193e-01</leafValues></_>
        <_>
          <internalNodes>
            0 -1 154 1.5295424498617649e-02</internalNodes>
          <leafValues>
            -2.5209653377532959e-01 2.6269182562828064e-01</leafValues></_></weakClassifiers></_>
    <!-- stage 18 -->
    <_>
      <maxWeakCount>24</maxWeakCount>
      <stageThreshold>-9.3412113189697266e-01</stageThreshold>
      <weakClassifiers>
        <_>
          <internalNodes>
            0 -1 473 2.0927371457219124e-02</internalNodes>
          <leafValues>
            -2.4652777612209320e-01 3.3490565419197083e-01</leafValues></_>
        <_>
          <internalNodes>
            0 -1 162 9.5345471054315567e-03</internalNodes>
          <leafValues>
            -2.4818669259548187e-01 2.8758031129837036e-01</leafValues></_>
        <_>
          <internalNodes>
            0 -1 290 3.5234964452683926e-03</internalNodes>
          <leafValues>
            -1.1895345896482468e-01 4.5850563049316406e-01</leafValues></_>
        <_>
          <internalNodes>
            0 -1 88 -8.3319153636693954e-03</internalNodes>
          <leafValues>
            3.4817129373550415e-01 -1.6803686320781708e-01</leafValues></_>
        <_>
          <internalNodes>
            0 -1 212 -3.3460059203207493e-03</internalNodes>
          <leafValues>
            2.6781818270683289e-01 -2.1406100690364838e-01</leafValues></_>
        <_>
          <internalNodes>
            0 -1 180 1.2280491180717945e-02</internalNodes>
          <leafValues>
            -1.4200586080551147e-01 4.4833597540855408e-01</leafValues></_>
        <_>
          <internalNodes>
            0 -1 466 -9.7828647121787071e-03</internalNodes>
          <leafValues>
            5.1144278049468994e-01 -9.3816071748733521e-02</leafValues></_>
        <_>
          <internalNodes>
            0 -1 202 -4.8984573222696781e-03</internalNodes>
          <leafValues>
            5.6016963720321655e-01 -1.2039970606565475e-01</leafValues></_>
        <_>
          <internalNodes>
            0 -1 152 -1.7567804455757141e-01</internalNodes>
          <leafValues>
            1.4324313402175903e-01 -4.1664862632751465e-01</leafValues></_>
        <_>
          <internalNodes>
            0 -1 236 3.6947843618690968e-03</internalNodes>
          <leafValues>
            3.9209172129631042e-01 -1.6665397584438324e-01</leafValues></_>
        <_>
          <internalNodes>
            0 -1 42 -1.5500549226999283e-02</internalNodes>
          <leafValues>
            4.8190936446189880e-01 -1.5700460970401764e-01</leafValues></_>
        <_>
          <internalNodes>
            0 -1 519 1.4380575157701969e-03</internalNodes>
          <leafValues>
            -1.6933588683605194e-01 3.5793960094451904e-01</leafValues></_>
        <_>
          <internalNodes>
            0 -1 46 -5.1471389830112457e-02</internalNodes>
          <leafValues>
            1.7060613632202148e-01 -3.5137411952018738e-01</leafValues></_>
        <_>
          <internalNodes>
            0 -1 287 1.0367401875555515e-02</internalNodes>
          <leafValues>
            -1.2071675807237625e-01 4.5753717422485352e-01</leafValues></_>
        <_>
          <internalNodes>
            0 -1 287 -4.7194664366543293e-03</internalNodes>
          <leafValues>
            3.3195227384567261e-01 -1.6428789496421814e-01</leafValues></_>
        <_>
          <internalNodes>
            0 -1 416 -2.6796907186508179e-03</internalNodes>
          <leafValues>
            -8.1825298070907593e-01 5.3475543856620789e-02</leafValues></_>
        <_>
          <internalNodes>
            0 -1 388 1.0186684131622314e-01</internalNodes>
          <leafValues>
            -1.1995003372430801e-01 4.6851760149002075e-01</leafValues></_>
        <_>
          <internalNodes>
            0 -1 447 -1.5296138823032379e-02</internalNodes>
          <leafValues>
            3.7895238399505615e-01 -1.5591105818748474e-01</leafValues></_>
        <_>
          <internalNodes>
            0 -1 76 9.7656797152012587e-04</internalNodes>
          <leafValues>
            1.4809951186180115e-01 -4.9732607603073120e-01</leafValues></_>
        <_>
          <internalNodes>
            0 -1 260 -1.5293447300791740e-02</internalNodes>
          <leafValues>
            4.0771955251693726e-01 -1.5262193977832794e-01</leafValues></_>
        <_>
          <internalNodes>
            0 -1 475 -3.6523420363664627e-02</internalNodes>
          <leafValues>
            2.6077815890312195e-01 -2.4261389672756195e-01</leafValues></_>
        <_>
          <internalNodes>
            0 -1 503 1.5129668463487178e-04</internalNodes>
          <leafValues>
            1.7480862140655518e-01 -4.1774347424507141e-01</leafValues></_>
        <_>
          <internalNodes>
            0 -1 145 5.9792003594338894e-03</internalNodes>
          <leafValues>
            -2.1926787495613098e-01 3.0875989794731140e-01</leafValues></_>
        <_>
          <internalNodes>
            0 -1 337 -1.6453966498374939e-02</internalNodes>
          <leafValues>
            4.0955042839050293e-01 -1.3774767518043518e-01</leafValues></_></weakClassifiers></_>
    <!-- stage 19 -->
    <_>
      <maxWeakCount>27</maxWeakCount>
      <stageThreshold>-1.0676822662353516e+00</stageThreshold>
      <weakClassifiers>
        <_>
          <internalNodes>
            0 -1 85 8.6915157735347748e-03</internalNodes>
          <leafValues>
            -1.7699114978313446e-01 3.7267079949378967e-01</leafValues></_>
        <_>
          <internalNodes>
            0 -1 331 -1.3688182225450873e-03</internalNodes>
          <leafValues>
            1.6288565099239349e-01 -3.6045461893081665e-01</leafValues></_>
        <_>
          <internalNodes>
            0 -1 249 1.1046304134652019e-03</internalNodes>
          <leafValues>
            -1.8773685395717621e-01 3.1235954165458679e-01</leafValues></_>
        <_>
          <internalNodes>
            0 -1 361 3.5514384508132935e-02</internalNodes>
          <leafValues>
            -2.2293205559253693e-01 3.3268657326698303e-01</leafValues></_>
        <_>
          <internalNodes>
            0 -1 52 1.4708125963807106e-02</internalNodes>
          <leafValues>
            -3.9020381867885590e-02 5.4988521337509155e-01</leafValues></_>
        <_>
          <internalNodes>
            0 -1 90 5.1382428500801325e-04</internalNodes>
          <leafValues>
            -2.2609695792198181e-01 2.2308872640132904e-01</leafValues></_>
        <_>
          <internalNodes>
            0 -1 343 6.1157820746302605e-03</internalNodes>
          <leafValues>
            7.3444791138172150e-02 -8.2470637559890747e-01</leafValues></_>
        <_>
          <internalNodes>
            0 -1 131 -2.8023432940244675e-02</internalNodes>
          <leafValues>
            3.7292724847793579e-01 -1.3845257461071014e-01</leafValues></_>
        <_>
          <internalNodes>
            0 -1 518 -6.7638624459505081e-03</internalNodes>
          <leafValues>
            5.3029245138168335e-01 -1.0166525840759277e-01</leafValues></_>
        <_>
          <internalNodes>
            0 -1 277 -1.4551969943568110e-03</internalNodes>
          <leafValues>
            -5.1772278547286987e-01 1.0869428515434265e-01</leafValues></_>
        <_>
          <internalNodes>
            0 -1 6 2.5785913690924644e-02</internalNodes>
          <leafValues>
            -1.7292049527168274e-01 3.1699326634407043e-01</leafValues></_>
        <_>
          <internalNodes>
            0 -1 1 -2.0732407574541867e-04</internalNodes>
          <leafValues>
            -3.0323192477226257e-01 1.8523637950420380e-01</leafValues></_>
        <_>
          <internalNodes>
            0 -1 69 -2.5604232214391232e-03</internalNodes>
          <leafValues>
            -5.4440677165985107e-01 1.0153762251138687e-01</leafValues></_>
        <_>
          <internalNodes>
            0 -1 442 -5.3046122193336487e-03</internalNodes>
          <leafValues>
            4.2255783081054688e-01 -1.3524600863456726e-01</leafValues></_>
        <_>
          <internalNodes>
            0 -1 506 6.7852050997316837e-03</internalNodes>
          <leafValues>
            8.9236102998256683e-02 -6.2671023607254028e-01</leafValues></_>
        <_>
          <internalNodes>
            0 -1 514 5.4474726319313049e-02</internalNodes>
          <leafValues>
            -7.5309321284294128e-02 8.6849033832550049e-01</leafValues></_>
        <_>
          <internalNodes>
            0 -1 488 7.0338426157832146e-03</internalNodes>
          <leafValues>
            1.0905323177576065e-01 -6.2018048763275146e-01</leafValues></_>
        <_>
          <internalNodes>
            0 -1 234 -1.0733565315604210e-02</internalNodes>
          <leafValues>
            6.8943166732788086e-01 -9.2486195266246796e-02</leafValues></_>
        <_>
          <internalNodes>
            0 -1 452 3.1832375098019838e-03</internalNodes>
          <leafValues>
            -1.1267948895692825e-01 4.3118345737457275e-01</leafValues></_>
        <_>
          <internalNodes>
            0 -1 173 4.4223107397556305e-03</internalNodes>
          <leafValues>
            -2.8008979558944702e-01 2.0603561401367188e-01</leafValues></_>
        <_>
          <internalNodes>
            0 -1 441 -2.0842030644416809e-02</internalNodes>
          <leafValues>
            -8.6388319730758667e-01 6.1132457107305527e-02</leafValues></_>
        <_>
          <internalNodes>
            0 -1 460 2.5977432727813721e-02</internalNodes>
          <leafValues>
            -1.9099146127700806e-01 2.8884115815162659e-01</leafValues></_>
        <_>
          <internalNodes>
            0 -1 429 -1.9486114382743835e-02</internalNodes>
          <leafValues>
            4.5062991976737976e-01 -1.4800050854682922e-01</leafValues></_>
        <_>
          <internalNodes>
            0 -1 286 -5.7390229776501656e-03</internalNodes>
          <leafValues>
            3.3073094487190247e-01 -1.6907474398612976e-01</leafValues></_>
        <_>
          <internalNodes>
            0 -1 139 2.6468308642506599e-03</internalNodes>
          <leafValues>
            -2.0759829878807068e-01 2.7785828709602356e-01</leafValues></_>
        <_>
          <internalNodes>
            0 -1 30 1.4165678992867470e-02</internalNodes>
          <leafValues>
            1.1172006279230118e-01 -5.1631939411163330e-01</leafValues></_>
        <_>
          <internalNodes>
            0 -1 153 1.5080092707648873e-03</internalNodes>
          <leafValues>
            8.2884199917316437e-02 -6.0517072677612305e-01</leafValues></_></weakClassifiers></_>
    <!-- stage 20 -->
    <_>
      <maxWeakCount>26</maxWeakCount>
      <stageThreshold>-8.4019219875335693e-01</stageThreshold>
      <weakClassifiers>
        <_>
          <internalNodes>
            0 -1 39 6.5211988985538483e-03</internalNodes>
          <leafValues>
            -3.1707316637039185e-01 2.2033898532390594e-01</leafValues></_>
        <_>
          <internalNodes>
            0 -1 51 -6.2823672778904438e-03</internalNodes>
          <leafValues>
            4.6789333224296570e-01 -1.2243765592575073e-01</leafValues></_>
        <_>
          <internalNodes>
            0 -1 425 7.1406075730919838e-03</internalNodes>
          <leafValues>
            -8.0270729959011078e-02 6.0016697645187378e-01</leafValues></_>
        <_>
          <internalNodes>
            0 -1 424 2.8515947051346302e-03</internalNodes>
          <leafValues>
            -2.2647252678871155e-01 2.6977324485778809e-01</leafValues></_>
        <_>
          <internalNodes>
            0 -1 65 2.5923740118741989e-02</internalNodes>
          <leafValues>
            1.0696703940629959e-01 -5.8364027738571167e-01</leafValues></_>
        <_>
          <internalNodes>
            0 -1 238 4.6329725591931492e-05</internalNodes>
          <leafValues>
            -2.7223491668701172e-01 2.0040445029735565e-01</leafValues></_>
        <_>
          <internalNodes>
            0 -1 232 -2.4297576397657394e-02</internalNodes>
          <leafValues>
            6.6206949949264526e-01 -6.6518001258373260e-02</leafValues></_>
        <_>
          <internalNodes>
            0 -1 363 1.0434065479785204e-03</internalNodes>
          <leafValues>
            1.2039229273796082e-01 -4.2795151472091675e-01</leafValues></_>
        <_>
          <internalNodes>
            0 -1 365 -4.1095778578892350e-04</internalNodes>
          <leafValues>
            -3.8908952474594116e-01 1.3965822756290436e-01</leafValues></_>
        <_>
          <internalNodes>
            0 -1 368 -9.5528215169906616e-03</internalNodes>
          <leafValues>
            2.7753841876983643e-01 -1.9044958055019379e-01</leafValues></_>
        <_>
          <internalNodes>
            0 -1 66 -3.4394621849060059e-02</internalNodes>
          <leafValues>
            -7.2763061523437500e-01 6.9426715373992920e-02</leafValues></_>
        <_>
          <internalNodes>
            0 -1 369 1.8951684236526489e-02</internalNodes>
          <leafValues>
            -1.6814289987087250e-01 3.2394567131996155e-01</leafValues></_>
        <_>
          <internalNodes>
            0 -1 512 4.7260606661438942e-03</internalNodes>
          <leafValues>
            -2.0942842960357666e-01 2.8792157769203186e-01</leafValues></_>
        <_>
          <internalNodes>
            0 -1 205 4.4283995521254838e-05</internalNodes>
          <leafValues>
            -2.2608773410320282e-01 2.2886601090431213e-01</leafValues></_>
        <_>
          <internalNodes>
            0 -1 537 1.7068421002477407e-03</internalNodes>
          <leafValues>
            1.0672852396965027e-01 -4.8063048720359802e-01</leafValues></_>
        <_>
          <internalNodes>
            0 -1 348 3.5513078328222036e-03</internalNodes>
          <leafValues>
            -1.8249645829200745e-01 3.1142562627792358e-01</leafValues></_>
        <_>
          <internalNodes>
            0 -1 349 4.5418855734169483e-03</internalNodes>
          <leafValues>
            -1.2879936397075653e-01 4.6907982230186462e-01</leafValues></_>
        <_>
          <internalNodes>
            0 -1 164 -1.0164967738091946e-02</internalNodes>
          <leafValues>
            -4.7568133473396301e-01 1.2385278940200806e-01</leafValues></_>
        <_>
          <internalNodes>
            0 -1 107 6.5017566084861755e-03</internalNodes>
          <leafValues>
            1.2688107788562775e-01 -4.7240731120109558e-01</leafValues></_>
        <_>
          <internalNodes>
            0 -1 114 -1.3668921589851379e-01</internalNodes>
          <leafValues>
            -8.8733232021331787e-01 5.4975185543298721e-02</leafValues></_>
        <_>
          <internalNodes>
            0 -1 132 1.8778176745399833e-03</internalNodes>
          <leafValues>
            6.2908664345741272e-02 -5.8068490028381348e-01</leafValues></_>
        <_>
          <internalNodes>
            0 -1 148 5.1839537918567657e-03</internalNodes>
          <leafValues>
            -7.6468557119369507e-02 6.8695843219757080e-01</leafValues></_>
        <_>
          <internalNodes>
            0 -1 188 -1.3512658886611462e-02</internalNodes>
          <leafValues>
            -6.2171387672424316e-01 9.4970792531967163e-02</leafValues></_>
        <_>
          <internalNodes>
            0 -1 183 -6.2815919518470764e-03</internalNodes>
          <leafValues>
            5.2141624689102173e-01 -1.3671763241291046e-01</leafValues></_>
        <_>
          <internalNodes>
            0 -1 211 -3.3322898671030998e-03</internalNodes>
          <leafValues>
            2.2641174495220184e-01 -2.5046360492706299e-01</leafValues></_>
        <_>
          <internalNodes>
            0 -1 134 3.0994541011750698e-03</internalNodes>
          <leafValues>
            1.4494995772838593e-01 -3.7929436564445496e-01</leafValues></_></weakClassifiers></_>
    <!-- stage 21 -->
    <_>
      <maxWeakCount>26</maxWeakCount>
      <stageThreshold>-9.1840863227844238e-01</stageThreshold>
      <weakClassifiers>
        <_>
          <internalNodes>
            0 -1 524 -8.6389398202300072e-03</internalNodes>
          <leafValues>
            2.3992994427680969e-01 -3.1934732198715210e-01</leafValues></_>
        <_>
          <internalNodes>
            0 -1 289 -2.0518922246992588e-03</internalNodes>
          <leafValues>
            4.0498840808868408e-01 -1.6974063217639923e-01</leafValues></_>
        <_>
          <internalNodes>
            0 -1 193 6.8878699094057083e-03</internalNodes>
          <leafValues>
            1.0878004133701324e-01 -5.8896476030349731e-01</leafValues></_>
        <_>
          <internalNodes>
            0 -1 207 1.8119141459465027e-02</internalNodes>
          <leafValues>
            -1.0200145095586777e-01 4.6405562758445740e-01</leafValues></_>
        <_>
          <internalNodes>
            0 -1 208 -3.2350778579711914e-02</internalNodes>
          <leafValues>
            5.0513893365859985e-01 -1.6264244914054871e-01</leafValues></_>
        <_>
          <internalNodes>
            0 -1 320 9.5139525365084410e-04</internalNodes>
          <leafValues>
            1.5005415678024292e-01 -3.8083350658416748e-01</leafValues></_>
        <_>
          <internalNodes>
            0 -1 191 -2.9182576108723879e-03</internalNodes>
          <leafValues>
            3.4069466590881348e-01 -1.5653592348098755e-01</leafValues></_>
        <_>
          <internalNodes>
            0 -1 435 7.5711365789175034e-03</internalNodes>
          <leafValues>
            -1.3081718981266022e-01 5.3634470701217651e-01</leafValues></_>
        <_>
          <internalNodes>
            0 -1 326 -1.0130213340744376e-03</internalNodes>
          <leafValues>
            -3.4029749035835266e-01 1.6252732276916504e-01</leafValues></_>
        <_>
          <internalNodes>
            0 -1 384 -6.9514228962361813e-03</internalNodes>
          <leafValues>
            3.4553742408752441e-01 -1.5726882219314575e-01</leafValues></_>
        <_>
          <internalNodes>
            0 -1 7 2.4052094668149948e-02</internalNodes>
          <leafValues>
            -4.3876856565475464e-01 1.3718938827514648e-01</leafValues></_>
        <_>
          <internalNodes>
            0 -1 23 1.0571269318461418e-02</internalNodes>
          <leafValues>
            -1.1244323104619980e-01 4.5716968178749084e-01</leafValues></_>
        <_>
          <internalNodes>
            0 -1 507 -7.2506032884120941e-03</internalNodes>
          <leafValues>
            5.9516996145248413e-01 -1.0957098007202148e-01</leafValues></_>
        <_>
          <internalNodes>
            0 -1 307 -4.0598519146442413e-02</internalNodes>
          <leafValues>
            6.3539868593215942e-01 -7.9182133078575134e-02</leafValues></_>
        <_>
          <internalNodes>
            0 -1 250 -1.0171866044402122e-02</internalNodes>
          <leafValues>
            4.8759216070175171e-01 -9.4780236482620239e-02</leafValues></_>
        <_>
          <internalNodes>
            0 -1 155 -5.0668248150032014e-05</internalNodes>
          <leafValues>
            2.2058962285518646e-01 -2.5644737482070923e-01</leafValues></_>
        <_>
          <internalNodes>
            0 -1 187 7.5425894465297461e-04</internalNodes>
          <leafValues>
            -1.6314207017421722e-01 3.2720428705215454e-01</leafValues></_>
        <_>
          <internalNodes>
            0 -1 296 -1.6268122941255569e-02</internalNodes>
          <leafValues>
            -9.1165125370025635e-01 8.7199576199054718e-02</leafValues></_>
        <_>
          <internalNodes>
            0 -1 458 7.9933851957321167e-03</internalNodes>
          <leafValues>
            5.6127008050680161e-02 -5.6804007291793823e-01</leafValues></_>
        <_>
          <internalNodes>
            0 -1 302 -4.5396271161735058e-03</internalNodes>
          <leafValues>
            3.6127787828445435e-01 -1.7165398597717285e-01</leafValues></_>
        <_>
          <internalNodes>
            0 -1 422 -5.0476595060899854e-04</internalNodes>
          <leafValues>
            -3.4388467669487000e-01 1.6005286574363708e-01</leafValues></_>
        <_>
          <internalNodes>
            0 -1 137 1.2518564239144325e-02</internalNodes>
          <leafValues>
            -1.6117238998413086e-01 3.3696433901786804e-01</leafValues></_>
        <_>
          <internalNodes>
            0 -1 317 -3.7880006711930037e-03</internalNodes>
          <leafValues>
            5.7736921310424805e-01 -9.4186410307884216e-02</leafValues></_>
        <_>
          <internalNodes>
            0 -1 135 3.7477770820260048e-03</internalNodes>
          <leafValues>
            9.1332040727138519e-02 -6.6236752271652222e-01</leafValues></_>
        <_>
          <internalNodes>
            0 -1 248 -4.5402862131595612e-02</internalNodes>
          <leafValues>
            -7.9772019386291504e-01 5.3991202265024185e-02</leafValues></_>
        <_>
          <internalNodes>
            0 -1 342 3.4432897809892893e-03</internalNodes>
          <leafValues>
            -1.6562256217002869e-01 3.0842992663383484e-01</leafValues></_></weakClassifiers></_>
    <!-- stage 22 -->
    <_>
      <maxWeakCount>31</maxWeakCount>
      <stageThreshold>-1.0648078918457031e+00</stageThreshold>
      <weakClassifiers>
        <_>
          <internalNodes>
            0 -1 159 -8.5907112807035446e-03</internalNodes>
          <leafValues>
            2.8473803400993347e-01 -2.2281639277935028e-01</leafValues></_>
        <_>
          <internalNodes>
            0 -1 533 -4.9219056963920593e-03</internalNodes>
          <leafValues>
            2.1920576691627502e-01 -2.4385330080986023e-01</leafValues></_>
        <_>
          <internalNodes>
            0 -1 120 3.9382288232445717e-03</internalNodes>
          <leafValues>
            6.0003511607646942e-02 -8.5735917091369629e-01</leafValues></_>
        <_>
          <internalNodes>
            0 -1 245 7.0948591455817223e-03</internalNodes>
          <leafValues>
            7.8301437199115753e-02 -7.3654121160507202e-01</leafValues></_>
        <_>
          <internalNodes>
            0 -1 73 1.1385049670934677e-02</internalNodes>
          <leafValues>
            -8.9881010353565216e-02 5.2786618471145630e-01</leafValues></_>
        <_>
          <internalNodes>
            0 -1 106 1.4868875965476036e-02</internalNodes>
          <leafValues>
            1.0265146940946579e-01 -5.5464905500411987e-01</leafValues></_>
        <_>
          <internalNodes>
            0 -1 431 -8.5084773600101471e-03</internalNodes>
          <leafValues>
            -6.7759639024734497e-01 8.7126344442367554e-02</leafValues></_>
        <_>
          <internalNodes>
            0 -1 465 -1.8181379139423370e-01</internalNodes>
          <leafValues>
            -9.4265109300613403e-01 3.6324255168437958e-02</leafValues></_>
        <_>
          <internalNodes>
            0 -1 251 6.6350270062685013e-03</internalNodes>
          <leafValues>
            -1.4272858202457428e-01 3.6890697479248047e-01</leafValues></_>
        <_>
          <internalNodes>
            0 -1 200 6.8436274304986000e-03</internalNodes>
          <leafValues>
            8.0847479403018951e-02 -5.6611013412475586e-01</leafValues></_>
        <_>
          <internalNodes>
            0 -1 312 7.2544813156127930e-02</internalNodes>
          <leafValues>
            -1.0962610691785812e-01 6.1414718627929688e-01</leafValues></_>
        <_>
          <internalNodes>
            0 -1 226 2.8629938140511513e-02</internalNodes>
          <leafValues>
            -1.6746707260608673e-01 3.1487292051315308e-01</leafValues></_>
        <_>
          <internalNodes>
            0 -1 398 4.9652859568595886e-02</internalNodes>
          <leafValues>
            -9.2395029962062836e-02 6.1104106903076172e-01</leafValues></_>
        <_>
          <internalNodes>
            0 -1 277 -1.8757532234303653e-04</internalNodes>
          <leafValues>
            1.5223331749439240e-01 -3.4561187028884888e-01</leafValues></_>
        <_>
          <internalNodes>
            0 -1 175 2.1155944466590881e-01</internalNodes>
          <leafValues>
            8.9330948889255524e-02 -6.2039595842361450e-01</leafValues></_>
        <_>
          <internalNodes>
            0 -1 461 -1.3921100180596113e-03</internalNodes>
          <leafValues>
            -4.8952311277389526e-01 1.0778988897800446e-01</leafValues></_>
        <_>
          <internalNodes>
            0 -1 534 -2.2334004752337933e-03</internalNodes>
          <leafValues>
            3.4596574306488037e-01 -1.4781937003135681e-01</leafValues></_>
        <_>
          <internalNodes>
            0 -1 61 -1.5864439308643341e-02</internalNodes>
          <leafValues>
            2.9192045331001282e-01 -1.8975648283958435e-01</leafValues></_>
        <_>
          <internalNodes>
            0 -1 352 -4.7178314998745918e-03</internalNodes>
          <leafValues>
            -7.4227839708328247e-01 8.1586271524429321e-02</leafValues></_>
        <_>
          <internalNodes>
            0 -1 210 -2.7264814823865891e-02</internalNodes>
          <leafValues>
            3.4884968400001526e-01 -1.5630125999450684e-01</leafValues></_>
        <_>
          <internalNodes>
            0 -1 515 2.4555725976824760e-03</internalNodes>
          <leafValues>
            -1.4902800321578979e-01 3.7779524922370911e-01</leafValues></_>
        <_>
          <internalNodes>
            0 -1 121 -4.8241117037832737e-03</internalNodes>
          <leafValues>
            3.7047547101974487e-01 -1.7515632510185242e-01</leafValues></_>
        <_>
          <internalNodes>
            0 -1 97 7.6886015012860298e-03</internalNodes>
          <leafValues>
            -1.1419348418712616e-01 4.4234076142311096e-01</leafValues></_>
        <_>
          <internalNodes>
            0 -1 520 -8.8449325412511826e-03</internalNodes>
          <leafValues>
            -4.1216245293617249e-01 1.3882446289062500e-01</leafValues></_>
        <_>
          <internalNodes>
            0 -1 499 -9.0347195509821177e-05</internalNodes>
          <leafValues>
            -2.6367446780204773e-01 2.1036830544471741e-01</leafValues></_>
        <_>
          <internalNodes>
            0 -1 294 1.7651654779911041e-03</internalNodes>
          <leafValues>
            -1.1405331641435623e-01 4.6266385912895203e-01</leafValues></_>
        <_>
          <internalNodes>
            0 -1 8 7.4853883124887943e-03</internalNodes>
          <leafValues>
            -1.3799877464771271e-01 3.4404987096786499e-01</leafValues></_>
        <_>
          <internalNodes>
            0 -1 304 3.1555138994008303e-03</internalNodes>
          <leafValues>
            8.8413916528224945e-02 -6.9277155399322510e-01</leafValues></_>
        <_>
          <internalNodes>
            0 -1 109 -3.5804651677608490e-02</internalNodes>
          <leafValues>
            5.6499308347702026e-01 -9.6363179385662079e-02</leafValues></_>
        <_>
          <internalNodes>
            0 -1 227 3.5716516431421041e-03</internalNodes>
          <leafValues>
            -1.7637433111667633e-01 3.1589534878730774e-01</leafValues></_>
        <_>
          <internalNodes>
            0 -1 100 -1.3041395694017410e-02</internalNodes>
          <leafValues>
            -6.4164048433303833e-01 8.4712818264961243e-02</leafValues></_></weakClassifiers></_>
    <!-- stage 23 -->
    <_>
      <maxWeakCount>23</maxWeakCount>
      <stageThreshold>-8.8225656747817993e-01</stageThreshold>
      <weakClassifiers>
        <_>
          <internalNodes>
            0 -1 464 -7.0444587618112564e-03</internalNodes>
          <leafValues>
            2.4100719392299652e-01 -3.0180180072784424e-01</leafValues></_>
        <_>
          <internalNodes>
            0 -1 62 -3.4712772816419601e-02</internalNodes>
          <leafValues>
            2.8538802266120911e-01 -1.9233351945877075e-01</leafValues></_>
        <_>
          <internalNodes>
            0 -1 336 -4.2864121496677399e-04</internalNodes>
          <leafValues>
            -3.4284639358520508e-01 1.4959648251533508e-01</leafValues></_>
        <_>
          <internalNodes>
            0 -1 322 8.9005660265684128e-04</internalNodes>
          <leafValues>
            -1.5476293861865997e-01 3.3781144022941589e-01</leafValues></_>
        <_>
          <internalNodes>
            0 -1 209 -2.9321584850549698e-02</internalNodes>
          <leafValues>
            9.3658518791198730e-01 -1.2666940689086914e-01</leafValues></_>
        <_>
          <internalNodes>
            0 -1 127 4.9288803711533546e-03</internalNodes>
          <leafValues>
            1.3436520099639893e-01 -6.9720834493637085e-01</leafValues></_>
        <_>
          <internalNodes>
            0 -1 445 3.3804862760007381e-03</internalNodes>
          <leafValues>
            -2.4435038864612579e-01 2.4055893719196320e-01</leafValues></_>
        <_>
          <internalNodes>
            0 -1 397 -3.1911492347717285e-02</internalNodes>
          <leafValues>
            5.6211531162261963e-01 -6.9328911602497101e-02</leafValues></_>
        <_>
          <internalNodes>
            0 -1 213 -2.6376405730843544e-04</internalNodes>
          <leafValues>
            2.2314497828483582e-01 -2.5479188561439514e-01</leafValues></_>
        <_>
          <internalNodes>
            0 -1 389 -2.0321162883192301e-03</internalNodes>
          <leafValues>
            -5.3312253952026367e-01 1.2864513695240021e-01</leafValues></_>
        <_>
          <internalNodes>
            0 -1 246 -1.9680630415678024e-02</internalNodes>
          <leafValues>
            -7.0961272716522217e-01 5.0150685012340546e-02</leafValues></_>
        <_>
          <internalNodes>
            0 -1 382 -2.5098065380007029e-03</internalNodes>
          <leafValues>
            4.2178624868392944e-01 -1.4399851858615875e-01</leafValues></_>
        <_>
          <internalNodes>
            0 -1 252 5.5391262285411358e-03</internalNodes>
          <leafValues>
            -1.0729518532752991e-01 5.5769145488739014e-01</leafValues></_>
        <_>
          <internalNodes>
            0 -1 457 -6.9098509848117828e-02</internalNodes>
          <leafValues>
            4.8064360022544861e-01 -1.2371034175157547e-01</leafValues></_>
        <_>
          <internalNodes>
            0 -1 67 -3.1608282588422298e-03</internalNodes>
          <leafValues>
            -4.6525132656097412e-01 1.3566145300865173e-01</leafValues></_>
        <_>
          <internalNodes>
            0 -1 215 -3.1837751157581806e-04</internalNodes>
          <leafValues>
            -3.4168577194213867e-01 1.6333809494972229e-01</leafValues></_>
        <_>
          <internalNodes>
            0 -1 49 -6.6225426271557808e-03</internalNodes>
          <leafValues>
            -8.0697184801101685e-01 7.2183698415756226e-02</leafValues></_>
        <_>
          <internalNodes>
            0 -1 513 -1.2333933264017105e-02</internalNodes>
          <leafValues>
            -7.1591472625732422e-01 6.3590347766876221e-02</leafValues></_>
        <_>
          <internalNodes>
            0 -1 138 -2.0311523228883743e-02</internalNodes>
          <leafValues>
            5.1490062475204468e-01 -1.1807802319526672e-01</leafValues></_>
        <_>
          <internalNodes>
            0 -1 142 -3.0691651627421379e-03</internalNodes>
          <leafValues>
            2.6258701086044312e-01 -2.3861956596374512e-01</leafValues></_>
        <_>
          <internalNodes>
            0 -1 182 -4.1921634692698717e-04</internalNodes>
          <leafValues>
            -3.1488743424415588e-01 2.1748851239681244e-01</leafValues></_>
        <_>
          <internalNodes>
            0 -1 14 3.0820611119270325e-01</internalNodes>
          <leafValues>
            6.3725598156452179e-02 -9.2962396144866943e-01</leafValues></_>
        <_>
          <internalNodes>
            0 -1 174 -1.7590913921594620e-02</internalNodes>
          <leafValues>
            7.0582586526870728e-01 -9.5024414360523224e-02</leafValues></_></weakClassifiers></_>
    <!-- stage 24 -->
    <_>
      <maxWeakCount>23</maxWeakCount>
      <stageThreshold>-8.7412095069885254e-01</stageThreshold>
      <weakClassifiers>
        <_>
          <internalNodes>
            0 -1 64 -5.3583262488245964e-03</internalNodes>
          <leafValues>
            3.4693878889083862e-01 -1.8112632632255554e-01</leafValues></_>
        <_>
          <internalNodes>
            0 -1 9 5.7458028197288513e-02</internalNodes>
          <leafValues>
            -1.9188886880874634e-01 3.0743795633316040e-01</leafValues></_>
        <_>
          <internalNodes>
            0 -1 15 2.0234122872352600e-01</internalNodes>
          <leafValues>
            9.0817078948020935e-02 -5.5580675601959229e-01</leafValues></_>
        <_>
          <internalNodes>
            0 -1 266 3.0995897948741913e-02</internalNodes>
          <leafValues>
            -1.2923301756381989e-01 4.2146676778793335e-01</leafValues></_>
        <_>
          <internalNodes>
            0 -1 80 -2.9477099888026714e-03</internalNodes>
          <leafValues>
            3.0815795063972473e-01 -2.0457850396633148e-01</leafValues></_>
        <_>
          <internalNodes>
            0 -1 87 -1.4469849411398172e-03</internalNodes>
          <leafValues>
            4.3344387412071228e-01 -1.3715587556362152e-01</leafValues></_>
        <_>
          <internalNodes>
            0 -1 2 9.4463834539055824e-03</internalNodes>
          <leafValues>
            1.3586454093456268e-01 -5.0291597843170166e-01</leafValues></_>
        <_>
          <internalNodes>
            0 -1 71 -2.0762691274285316e-02</internalNodes>
          <leafValues>
            -7.2400593757629395e-01 3.7051934748888016e-02</leafValues></_>
        <_>
          <internalNodes>
            0 -1 484 6.8512223660945892e-03</internalNodes>
          <leafValues>
            7.5144626200199127e-02 -7.1329987049102783e-01</leafValues></_>
        <_>
          <internalNodes>
            0 -1 288 3.1063649803400040e-03</internalNodes>
          <leafValues>
            9.2828743159770966e-02 -5.8739763498306274e-01</leafValues></_>
        <_>
          <internalNodes>
            0 -1 371 -2.2528131958097219e-03</internalNodes>
          <leafValues>
            -3.8883939385414124e-01 1.3214963674545288e-01</leafValues></_>
        <_>
          <internalNodes>
            0 -1 237 6.8458005785942078e-02</internalNodes>
          <leafValues>
            -1.2351298332214355e-01 5.5756700038909912e-01</leafValues></_>
        <_>
          <internalNodes>
            0 -1 455 -7.6809027232229710e-03</internalNodes>
          <leafValues>
            5.5635577440261841e-01 -8.0156780779361725e-02</leafValues></_>
        <_>
          <internalNodes>
            0 -1 420 2.5091599673032761e-03</internalNodes>
          <leafValues>
            -1.8866223096847534e-01 3.2505562901496887e-01</leafValues></_>
        <_>
          <internalNodes>
            0 -1 346 -1.5884013846516609e-03</internalNodes>
          <leafValues>
            3.5799741744995117e-01 -1.7348207533359528e-01</leafValues></_>
        <_>
          <internalNodes>
            0 -1 482 4.3530012480914593e-03</internalNodes>
          <leafValues>
            -1.3498084247112274e-01 3.7942150235176086e-01</leafValues></_>
        <_>
          <internalNodes>
            0 -1 93 -6.2455926090478897e-03</internalNodes>
          <leafValues>
            4.3599405884742737e-01 -1.3360729813575745e-01</leafValues></_>
        <_>
          <internalNodes>
            0 -1 339 5.9006698429584503e-03</internalNodes>
          <leafValues>
            7.0417873561382294e-02 -6.7442268133163452e-01</leafValues></_>
        <_>
          <internalNodes>
            0 -1 146 2.1208778489381075e-03</internalNodes>
          <leafValues>
            -1.0223497450351715e-01 6.3096296787261963e-01</leafValues></_>
        <_>
          <internalNodes>
            0 -1 244 -3.5698607098311186e-04</internalNodes>
          <leafValues>
            2.2705464065074921e-01 -2.8370153903961182e-01</leafValues></_>
        <_>
          <internalNodes>
            0 -1 133 -4.1522737592458725e-03</internalNodes>
          <leafValues>
            -6.8189108371734619e-01 9.0447992086410522e-02</leafValues></_>
        <_>
          <internalNodes>
            0 -1 347 7.5921509414911270e-03</internalNodes>
          <leafValues>
            -1.2909997999668121e-01 4.3387028574943542e-01</leafValues></_>
        <_>
          <internalNodes>
            0 -1 379 -3.0511270742863417e-03</internalNodes>
          <leafValues>
            4.5302018523216248e-01 -1.4351394772529602e-01</leafValues></_></weakClassifiers></_>
    <!-- stage 25 -->
    <_>
      <maxWeakCount>20</maxWeakCount>
      <stageThreshold>-8.7990778684616089e-01</stageThreshold>
      <weakClassifiers>
        <_>
          <internalNodes>
            0 -1 98 3.3492480870336294e-03</internalNodes>
          <leafValues>
