<?xml version="1.0"?>
<opencv_storage>
<cascade>
  <stageType>BOOST</stageType>
  <featureType>HAAR</featureType>
  <height>20</height>
  <width>20</width>
  <stageParams>
    <boostType>GAB</boostType>
    <minHitRate>9.9500000476837158e-01</minHitRate>
    <maxFalseAlarm>5.0000000000000000e-01</maxFalseAlarm>
    <weightTrimRate>9.4999999999999996e-01</weightTrimRate>
    <maxDepth>1</maxDepth>
    <maxWeakCount>100</maxWeakCount></stageParams>
  <featureParams>
    <maxCatCount>0</maxCatCount>
    <featSize>1</featSize>
    <mode>BASIC</mode></featureParams>
  <stageNum>10</stageNum>
  <stages>
    <!-- stage 0 -->
    <_>
      <maxWeakCount>10</maxWeakCount>
      <stageThreshold>-8.9414256811141968e-01</stageThreshold>
      <weakClassifiers>
        <_>
          <internalNodes>
            0 -1 7 1.2185019254684448e-01</internalNodes>
          <leafValues>
            -4.9180328845977783e-02 8.3900928497314453e-01</leafValues></_>
        <_>
          <internalNodes>
            0 -1 186 -1.3633804395794868e-02</internalNodes>
          <leafValues>
            7.6573663949966431e-01 -2.4372501671314240e-01</leafValues></_>
        <_>
          <internalNodes>
            0 -1 33 -5.8057643473148346e-02</internalNodes>
          <leafValues>
            7.4990773200988770e-01 -2.6568752527236938e-01</leafValues></_>
        <_>
          <internalNodes>
            0 -1 22 3.5017199814319611e-02</internalNodes>
          <leafValues>
            -2.0918609201908112e-01 6.8321043252944946e-01</leafValues></_>
        <_>
          <internalNodes>
            0 -1 66 1.5509010851383209e-01</internalNodes>
          <leafValues>
            -1.4570590853691101e-01 9.7781240940093994e-01</leafValues></_>
        <_>
          <internalNodes>
            0 -1 12 1.4463294297456741e-02</internalNodes>
          <leafValues>
            -2.8270113468170166e-01 7.5856280326843262e-01</leafValues></_>
        <_>
          <internalNodes>
            0 -1 6 2.0044589042663574e-01</internalNodes>
          <leafValues>
            -8.0125190317630768e-02 9.1851651668548584e-01</leafValues></_>
        <_>
          <internalNodes>
            0 -1 32 -3.4020200371742249e-02</internalNodes>
          <leafValues>
            8.2224476337432861e-01 -1.9558562338352203e-01</leafValues></_>
        <_>
          <internalNodes>
            0 -1 179 1.2170400004833937e-03</internalNodes>
          <leafValues>
            2.4281743168830872e-01 -7.6648879051208496e-01</leafValues></_>
        <_>
          <internalNodes>
            0 -1 106 -5.6523405015468597e-02</internalNodes>
          <leafValues>
            3.3493682742118835e-01 -4.2399224638938904e-01</leafValues></_></weakClassifiers></_>
    <!-- stage 1 -->
    <_>
      <maxWeakCount>14</maxWeakCount>
      <stageThreshold>-7.4315124750137329e-01</stageThreshold>
      <weakClassifiers>
        <_>
          <internalNodes>
            0 -1 74 3.0515534803271294e-02</internalNodes>
          <leafValues>
            3.8288287818431854e-02 7.6143789291381836e-01</leafValues></_>
        <_>
          <internalNodes>
            0 -1 10 2.7320933341979980e-01</internalNodes>
          <leafValues>
            -1.6260519623756409e-01 7.4989646673202515e-01</leafValues></_>
        <_>
          <internalNodes>
            0 -1 88 -1.9427539780735970e-02</internalNodes>
          <leafValues>
            7.7004146575927734e-01 -2.1428614854812622e-01</leafValues></_>
        <_>
          <internalNodes>
            0 -1 54 2.0405112206935883e-01</internalNodes>
          <leafValues>
            -8.6495853960514069e-02 8.9680337905883789e-01</leafValues></_>
        <_>
          <internalNodes>
            0 -1 123 -2.8321884572505951e-02</internalNodes>
          <leafValues>
            4.0051227807998657e-01 -3.7798020243644714e-01</leafValues></_>
        <_>
          <internalNodes>
            0 -1 178 1.6479716869071126e-03</internalNodes>
          <leafValues>
            2.0083056390285492e-01 -6.3670754432678223e-01</leafValues></_>
        <_>
          <internalNodes>
            0 -1 89 1.1104129999876022e-01</internalNodes>
          <leafValues>
            -2.6451119780540466e-01 5.3933608531951904e-01</leafValues></_>
        <_>
          <internalNodes>
            0 -1 35 -6.2875643372535706e-02</internalNodes>
          <leafValues>
            7.2576177120208740e-01 -1.5365642309188843e-01</leafValues></_>
        <_>
          <internalNodes>
            0 -1 119 -3.9775762706995010e-02</internalNodes>
          <leafValues>
            5.0145298242568970e-01 -1.6332313418388367e-01</leafValues></_>
        <_>
          <internalNodes>
            0 -1 130 -1.3643341138958931e-02</internalNodes>
          <leafValues>
            8.1121450662612915e-01 -1.1535159498453140e-01</leafValues></_>
        <_>
          <internalNodes>
            0 -1 61 2.1615445613861084e-02</internalNodes>
          <leafValues>
            -2.0723715424537659e-01 4.2247122526168823e-01</leafValues></_>
        <_>
          <internalNodes>
            0 -1 80 -9.4585213810205460e-03</internalNodes>
          <leafValues>
            -7.6949286460876465e-01 1.3666497170925140e-01</leafValues></_>
        <_>
          <internalNodes>
            0 -1 187 -1.5568201430141926e-02</internalNodes>
          <leafValues>
            5.9242093563079834e-01 -1.6366574168205261e-01</leafValues></_>
        <_>
          <internalNodes>
            0 -1 176 -1.2294431217014790e-03</internalNodes>
          <leafValues>
            -6.2870585918426514e-01 1.6046915948390961e-01</leafValues></_></weakClassifiers></_>
    <!-- stage 2 -->
    <_>
      <maxWeakCount>13</maxWeakCount>
      <stageThreshold>-1.0578303337097168e+00</stageThreshold>
      <weakClassifiers>
        <_>
          <internalNodes>
            0 -1 185 -1.3789394870400429e-02</internalNodes>
          <leafValues>
            8.3612662553787231e-01 5.2959501743316650e-02</leafValues></_>
        <_>
          <internalNodes>
            0 -1 27 4.8619233071804047e-02</internalNodes>
          <leafValues>
            -2.1535475552082062e-01 5.1702243089675903e-01</leafValues></_>
        <_>
          <internalNodes>
            0 -1 16 -3.6275453865528107e-02</internalNodes>
          <leafValues>
            5.3364115953445435e-01 -2.3759819567203522e-01</leafValues></_>
        <_>
          <internalNodes>
            0 -1 87 -9.2300940304994583e-03</internalNodes>
          <leafValues>
            5.1083117723464966e-01 -2.3998211324214935e-01</leafValues></_>
        <_>
          <internalNodes>
            0 -1 55 8.6791642010211945e-02</internalNodes>
          <leafValues>
            -2.1669995784759521e-01 6.2030035257339478e-01</leafValues></_>
        <_>
          <internalNodes>
            0 -1 164 -4.2670806869864464e-03</internalNodes>
          <leafValues>
            3.7186419963836670e-01 -3.3389133214950562e-01</leafValues></_>
        <_>
          <internalNodes>
            0 -1 141 4.2672269046306610e-03</internalNodes>
          <leafValues>
            -1.8418101966381073e-01 4.8909264802932739e-01</leafValues></_>
        <_>
          <internalNodes>
            0 -1 68 -9.0271551162004471e-03</internalNodes>
          <leafValues>
            5.4815578460693359e-01 -1.6346226632595062e-01</leafValues></_>
        <_>
          <internalNodes>
            0 -1 114 5.9375241398811340e-03</internalNodes>
          <leafValues>
            -1.3832841813564301e-01 6.7315036058425903e-01</leafValues></_>
        <_>
          <internalNodes>
            0 -1 70 -4.5851939357817173e-03</internalNodes>
          <leafValues>
            4.7794833779335022e-01 -2.4517676234245300e-01</leafValues></_>
        <_>
          <internalNodes>
            0 -1 144 -7.1145877242088318e-02</internalNodes>
          <leafValues>
            3.8989382982254028e-01 -2.2570003569126129e-01</leafValues></_>
        <_>
          <internalNodes>
            0 -1 15 7.8766141086816788e-03</internalNodes>
          <leafValues>
            -2.0562739670276642e-01 4.4577637314796448e-01</leafValues></_>
        <_>
          <internalNodes>
            0 -1 9 2.8871085494756699e-02</internalNodes>
          <leafValues>
            -1.8178242444992065e-01 5.6187957525253296e-01</leafValues></_></weakClassifiers></_>
    <!-- stage 3 -->
    <_>
      <maxWeakCount>18</maxWeakCount>
      <stageThreshold>-7.3069375753402710e-01</stageThreshold>
      <weakClassifiers>
        <_>
          <internalNodes>
            0 -1 8 4.5336626470088959e-02</internalNodes>
          <leafValues>
            1.3468635082244873e-01 8.5096156597137451e-01</leafValues></_>
        <_>
          <internalNodes>
            0 -1 31 2.9385137557983398e-01</internalNodes>
          <leafValues>
            -1.0976557433605194e-01 7.0725160837173462e-01</leafValues></_>
        <_>
          <internalNodes>
            0 -1 183 -1.4367231167852879e-02</internalNodes>
          <leafValues>
            5.3599888086318970e-01 -2.1679311990737915e-01</leafValues></_>
        <_>
          <internalNodes>
            0 -1 21 -4.0967546403408051e-02</internalNodes>
          <leafValues>
            5.1995384693145752e-01 -1.6895015537738800e-01</leafValues></_>
        <_>
          <internalNodes>
            0 -1 128 -2.9946519061923027e-02</internalNodes>
          <leafValues>
            6.5697348117828369e-01 -1.5575496852397919e-01</leafValues></_>
        <_>
          <internalNodes>
            0 -1 50 -1.9868571311235428e-02</internalNodes>
          <leafValues>
            3.3926171064376831e-01 -2.6722821593284607e-01</leafValues></_>
        <_>
          <internalNodes>
            0 -1 131 3.3303357660770416e-02</internalNodes>
          <leafValues>
            -1.6853863000869751e-01 5.6150954961776733e-01</leafValues></_>
        <_>
          <internalNodes>
            0 -1 2 -1.8942852038890123e-03</internalNodes>
          <leafValues>
            -7.9638260602951050e-01 1.1805324256420135e-01</leafValues></_>
        <_>
          <internalNodes>
            0 -1 94 -7.7534466981887817e-02</internalNodes>
          <leafValues>
            7.3240506649017334e-01 -1.2138157337903976e-01</leafValues></_>
        <_>
          <internalNodes>
            0 -1 14 9.9423825740814209e-03</internalNodes>
          <leafValues>
            -1.7101284861564636e-01 5.2323389053344727e-01</leafValues></_>
        <_>
          <internalNodes>
            0 -1 81 1.9427819643169641e-03</internalNodes>
          <leafValues>
            1.4633129537105560e-01 -6.3796460628509521e-01</leafValues></_>
        <_>
          <internalNodes>
            0 -1 116 -3.3985169138759375e-03</internalNodes>
          <leafValues>
            -7.9514491558074951e-01 8.2596637308597565e-02</leafValues></_>
        <_>
          <internalNodes>
            0 -1 23 1.0652821511030197e-01</internalNodes>
          <leafValues>
            -1.7163164913654327e-01 4.5745456218719482e-01</leafValues></_>
        <_>
          <internalNodes>
            0 -1 59 -2.0695984363555908e-02</internalNodes>
          <leafValues>
            4.5916435122489929e-01 -1.8823526799678802e-01</leafValues></_>
        <_>
          <internalNodes>
            0 -1 129 -3.9986730553209782e-03</internalNodes>
          <leafValues>
            -7.9014247655868530e-01 9.7512885928153992e-02</leafValues></_>
        <_>
          <internalNodes>
            0 -1 125 1.9090269925072789e-03</internalNodes>
          <leafValues>
            1.2879554927349091e-01 -5.5985146760940552e-01</leafValues></_>
        <_>
          <internalNodes>
            0 -1 148 3.3705711364746094e-02</internalNodes>
          <leafValues>
            -1.1680688709020615e-01 7.0510566234588623e-01</leafValues></_>
        <_>
          <internalNodes>
            0 -1 104 -2.2533331066370010e-02</internalNodes>
          <leafValues>
            4.8316755890846252e-01 -1.9846653938293457e-01</leafValues></_></weakClassifiers></_>
    <!-- stage 4 -->
    <_>
      <maxWeakCount>19</maxWeakCount>
      <stageThreshold>-8.5683280229568481e-01</stageThreshold>
      <weakClassifiers>
        <_>
          <internalNodes>
            0 -1 26 1.7033368349075317e-01</internalNodes>
          <leafValues>
            4.3296703696250916e-01 -6.7407405376434326e-01</leafValues></_>
        <_>
          <internalNodes>
            0 -1 71 -1.6082447022199631e-02</internalNodes>
          <leafValues>
            5.5297523736953735e-01 -1.6635712981224060e-01</leafValues></_>
        <_>
          <internalNodes>
            0 -1 52 -9.3570873141288757e-03</internalNodes>
          <leafValues>
            2.8779393434524536e-01 -3.2214140892028809e-01</leafValues></_>
        <_>
          <internalNodes>
            0 -1 101 3.7104915827512741e-02</internalNodes>
          <leafValues>
            -2.2121681272983551e-01 4.8392853140830994e-01</leafValues></_>
        <_>
          <internalNodes>
            0 -1 189 -1.5459856018424034e-02</internalNodes>
          <leafValues>
            5.1720887422561646e-01 -1.5331532061100006e-01</leafValues></_>
        <_>
          <internalNodes>
            0 -1 51 9.3350954353809357e-02</internalNodes>
          <leafValues>
            -2.3673838376998901e-01 4.4198578596115112e-01</leafValues></_>
        <_>
          <internalNodes>
            0 -1 135 -1.4617566019296646e-02</internalNodes>
          <leafValues>
            4.2098185420036316e-01 -1.6248530149459839e-01</leafValues></_>
        <_>
          <internalNodes>
            0 -1 149 -1.0099991224706173e-02</internalNodes>
          <leafValues>
            3.1446054577827454e-01 -2.9054129123687744e-01</leafValues></_>
        <_>
          <internalNodes>
            0 -1 147 4.4001728296279907e-02</internalNodes>
          <leafValues>
            -2.1969367563724518e-01 4.1544204950332642e-01</leafValues></_>
        <_>
          <internalNodes>
            0 -1 165 1.5569493174552917e-02</internalNodes>
          <leafValues>
            -1.3828243315219879e-01 6.6350096464157104e-01</leafValues></_>
        <_>
          <internalNodes>
            0 -1 156 -1.1666068807244301e-02</internalNodes>
          <leafValues>
            5.1521760225296021e-01 -1.1897585541009903e-01</leafValues></_>
        <_>
          <internalNodes>
            0 -1 75 -4.7536764293909073e-02</internalNodes>
          <leafValues>
            4.4165939092636108e-01 -1.6100600361824036e-01</leafValues></_>
        <_>
          <internalNodes>
            0 -1 78 2.8129795566201210e-02</internalNodes>
          <leafValues>
            -5.9257589280605316e-02 8.7168639898300171e-01</leafValues></_>
        <_>
          <internalNodes>
            0 -1 97 -1.9232450053095818e-02</internalNodes>
          <leafValues>
            4.0300574898719788e-01 -1.6506300866603851e-01</leafValues></_>
        <_>
          <internalNodes>
            0 -1 184 1.1072130873799324e-03</internalNodes>
          <leafValues>
            1.5245418250560760e-01 -4.4473844766616821e-01</leafValues></_>
        <_>
          <internalNodes>
            0 -1 127 -1.7960423603653908e-02</internalNodes>
          <leafValues>
            6.5318632125854492e-01 -1.3093040883541107e-01</leafValues></_>
        <_>
          <internalNodes>
            0 -1 46 -2.9993029311299324e-03</internalNodes>
          <leafValues>
            -6.0819673538208008e-01 1.3254447281360626e-01</leafValues></_>
        <_>
          <internalNodes>
            0 -1 84 -5.4592758417129517e-02</internalNodes>
          <leafValues>
            -5.2808439731597900e-01 1.1531851440668106e-01</leafValues></_>
        <_>
          <internalNodes>
            0 -1 191 -1.1293560964986682e-03</internalNodes>
          <leafValues>
            -4.2762544751167297e-01 1.5429353713989258e-01</leafValues></_></weakClassifiers></_>
    <!-- stage 5 -->
    <_>
      <maxWeakCount>23</maxWeakCount>
      <stageThreshold>-7.7664583921432495e-01</stageThreshold>
      <weakClassifiers>
        <_>
          <internalNodes>
            0 -1 153 7.3277754709124565e-03</internalNodes>
          <leafValues>
            4.2857143282890320e-01 -4.4785276055335999e-01</leafValues></_>
        <_>
          <internalNodes>
            0 -1 103 1.0022031143307686e-02</internalNodes>
          <leafValues>
            -1.6371691226959229e-01 5.6415128707885742e-01</leafValues></_>
        <_>
          <internalNodes>
            0 -1 67 -2.6669859886169434e-02</internalNodes>
          <leafValues>
            4.5780184864997864e-01 -1.7652118206024170e-01</leafValues></_>
        <_>
          <internalNodes>
            0 -1 169 -1.1123202741146088e-02</internalNodes>
          <leafValues>
            7.2787165641784668e-01 -1.4864371716976166e-01</leafValues></_>
        <_>
          <internalNodes>
            0 -1 62 1.7829786986112595e-02</internalNodes>
          <leafValues>
            -1.6521455347537994e-01 5.2274048328399658e-01</leafValues></_>
        <_>
          <internalNodes>
            0 -1 10 2.3441764712333679e-01</internalNodes>
          <leafValues>
            -1.7769534885883331e-01 4.1456380486488342e-01</leafValues></_>
        <_>
          <internalNodes>
            0 -1 99 -1.6358444467186928e-02</internalNodes>
          <leafValues>
            6.0200554132461548e-01 -1.7981092631816864e-01</leafValues></_>
        <_>
          <internalNodes>
            0 -1 86 6.3414992764592171e-03</internalNodes>
          <leafValues>
            1.6456177830696106e-01 -4.7614637017250061e-01</leafValues></_>
        <_>
          <internalNodes>
            0 -1 40 4.3866941705346107e-03</internalNodes>
          <leafValues>
            -1.3681538403034210e-01 5.9433704614639282e-01</leafValues></_>
        <_>
          <internalNodes>
            0 -1 152 -4.8921843990683556e-03</internalNodes>
          <leafValues>
            -6.1500704288482666e-01 1.1142615228891373e-01</leafValues></_>
        <_>
          <internalNodes>
            0 -1 163 -2.2506963461637497e-02</internalNodes>
          <leafValues>
            4.2903715372085571e-01 -1.4582236111164093e-01</leafValues></_>
        <_>
          <internalNodes>
            0 -1 56 1.6394475102424622e-01</internalNodes>
          <leafValues>
            -7.6387874782085419e-02 6.9610780477523804e-01</leafValues></_>
        <_>
          <internalNodes>
            0 -1 39 -2.8480578213930130e-02</internalNodes>
          <leafValues>
            4.4971114397048950e-01 -1.9148845970630646e-01</leafValues></_>
        <_>
          <internalNodes>
            0 -1 182 7.1705668233335018e-04</internalNodes>
          <leafValues>
            1.2980486452579498e-01 -5.5213004350662231e-01</leafValues></_>
        <_>
          <internalNodes>
            0 -1 177 2.0910855382680893e-03</internalNodes>
          <leafValues>
            9.9759511649608612e-02 -6.1287033557891846e-01</leafValues></_>
        <_>
          <internalNodes>
            0 -1 107 1.2769211083650589e-02</internalNodes>
          <leafValues>
            -1.5996982157230377e-01 4.0662035346031189e-01</leafValues></_>
        <_>
          <internalNodes>
            0 -1 5 1.0609857738018036e-01</internalNodes>
          <leafValues>
            -2.7102434635162354e-01 2.3104518651962280e-01</leafValues></_>
        <_>
          <internalNodes>
            0 -1 13 1.4904307201504707e-02</internalNodes>
          <leafValues>
            -1.5411841869354248e-01 4.1429504752159119e-01</leafValues></_>
        <_>
          <internalNodes>
            0 -1 137 -3.8038357160985470e-03</internalNodes>
          <leafValues>
            -8.2869327068328857e-01 7.0231437683105469e-02</leafValues></_>
        <_>
          <internalNodes>
            0 -1 44 6.0103915631771088e-02</internalNodes>
          <leafValues>
            -7.7122814953327179e-02 8.9816123247146606e-01</leafValues></_>
        <_>
          <internalNodes>
            0 -1 146 3.9539646357297897e-02</internalNodes>
          <leafValues>
            -1.7832854390144348e-01 3.4481513500213623e-01</leafValues></_>
        <_>
          <internalNodes>
            0 -1 170 2.4574778974056244e-02</internalNodes>
          <leafValues>
            1.5806363523006439e-01 -4.4408261775970459e-01</leafValues></_>
        <_>
          <internalNodes>
            0 -1 174 2.1316437050700188e-03</internalNodes>
          <leafValues>
            1.7967317998409271e-01 -4.1159135103225708e-01</leafValues></_></weakClassifiers></_>
    <!-- stage 6 -->
    <_>
      <maxWeakCount>20</maxWeakCount>
      <stageThreshold>-7.7278184890747070e-01</stageThreshold>
      <weakClassifiers>
        <_>
          <internalNodes>
            0 -1 187 -7.5437184423208237e-03</internalNodes>
          <leafValues>
            7.2380954027175903e-01 5.0574712455272675e-02</leafValues></_>
        <_>
          <internalNodes>
            0 -1 12 1.9388096407055855e-02</internalNodes>
          <leafValues>
            -7.4473217129707336e-02 6.4988213777542114e-01</leafValues></_>
        <_>
          <internalNodes>
            0 -1 30 2.9886403679847717e-01</internalNodes>
          <leafValues>
            -1.3054893910884857e-01 7.5187438726425171e-01</leafValues></_>
        <_>
          <internalNodes>
            0 -1 42 9.2607634142041206e-03</internalNodes>
          <leafValues>
            -8.6630344390869141e-02 6.8087452650070190e-01</leafValues></_>
        <_>
          <internalNodes>
            0 -1 63 8.1247966736555099e-03</internalNodes>
          <leafValues>
            -1.9635313749313354e-01 4.1868400573730469e-01</leafValues></_>
        <_>
          <internalNodes>
            0 -1 162 -1.7068244516849518e-02</internalNodes>
          <leafValues>
            4.8766577243804932e-01 -1.2528496980667114e-01</leafValues></_>
        <_>
          <internalNodes>
            0 -1 4 2.4391341954469681e-02</internalNodes>
          <leafValues>
            -1.5172962844371796e-01 4.6525722742080688e-01</leafValues></_>
        <_>
          <internalNodes>
            0 -1 69 5.4823473095893860e-02</internalNodes>
          <leafValues>
            -8.3617247641086578e-02 8.9424937963485718e-01</leafValues></_>
        <_>
          <internalNodes>
            0 -1 82 5.1502324640750885e-03</internalNodes>
          <leafValues>
            1.3913731276988983e-01 -5.7375013828277588e-01</leafValues></_>
        <_>
          <internalNodes>
            0 -1 60 2.1736092865467072e-02</internalNodes>
          <leafValues>
            -1.2901572883129120e-01 5.0180387496948242e-01</leafValues></_>
        <_>
          <internalNodes>
            0 -1 48 -3.1784411519765854e-02</internalNodes>
          <leafValues>
            5.5853503942489624e-01 -1.0709459334611893e-01</leafValues></_>
        <_>
          <internalNodes>
            0 -1 133 -6.5678022801876068e-03</internalNodes>
          <leafValues>
            2.5998875498771667e-01 -3.5308378934860229e-01</leafValues></_>
        <_>
          <internalNodes>
            0 -1 108 3.4925650805234909e-02</internalNodes>
          <leafValues>
            -1.1472744494676590e-01 6.2778460979461670e-01</leafValues></_>
        <_>
          <internalNodes>
            0 -1 43 1.1738127470016479e-01</internalNodes>
          <leafValues>
            -7.1472667157649994e-02 8.0118149518966675e-01</leafValues></_>
        <_>
          <internalNodes>
            0 -1 112 2.2490419447422028e-02</internalNodes>
          <leafValues>
            -1.1483962088823318e-01 5.4113548994064331e-01</leafValues></_>
        <_>
          <internalNodes>
            0 -1 134 -3.9950557053089142e-02</internalNodes>
          <leafValues>
            2.4876201152801514e-01 -3.3227068185806274e-01</leafValues></_>
        <_>
          <internalNodes>
            0 -1 93 -3.2500654458999634e-02</internalNodes>
          <leafValues>
            -7.0143347978591919e-01 9.7339466214179993e-02</leafValues></_>
        <_>
          <internalNodes>
            0 -1 76 1.6726688481867313e-03</internalNodes>
          <leafValues>
            -2.7711531519889832e-01 2.2357252240180969e-01</leafValues></_>
        <_>
          <internalNodes>
            0 -1 145 2.1772142499685287e-02</internalNodes>
          <leafValues>
            -9.9086813628673553e-02 7.0333480834960938e-01</leafValues></_>
        <_>
          <internalNodes>
            0 -1 180 -5.4596997797489166e-03</internalNodes>
          <leafValues>
            5.6256401538848877e-01 -1.0798503458499908e-01</leafValues></_></weakClassifiers></_>
    <!-- stage 7 -->
    <_>
      <maxWeakCount>27</maxWeakCount>
      <stageThreshold>-7.3480737209320068e-01</stageThreshold>
      <weakClassifiers>
        <_>
          <internalNodes>
            0 -1 11 1.1142790317535400e-02</internalNodes>
          <leafValues>
            1.1060947924852371e-01 6.5472310781478882e-01</leafValues></_>
        <_>
          <internalNodes>
            0 -1 138 8.9032305404543877e-03</internalNodes>
          <leafValues>
            -7.3798373341560364e-02 5.8509480953216553e-01</leafValues></_>
        <_>
          <internalNodes>
            0 -1 20 2.1986591815948486e-01</internalNodes>
          <leafValues>
            -1.2757113575935364e-01 9.0466308593750000e-01</leafValues></_>
        <_>
          <internalNodes>
            0 -1 90 1.3960058800876141e-02</internalNodes>
          <leafValues>
            -5.5315975099802017e-02 5.3847050666809082e-01</leafValues></_>
        <_>
          <internalNodes>
            0 -1 64 2.2039808391127735e-04</internalNodes>
          <leafValues>
            1.6651344299316406e-01 -3.1693500280380249e-01</leafValues></_>
        <_>
          <internalNodes>
            0 -1 121 -7.0142438635230064e-03</internalNodes>
          <leafValues>
            2.6235342025756836e-01 -2.3719698190689087e-01</leafValues></_>
        <_>
          <internalNodes>
            0 -1 105 3.3673748373985291e-02</internalNodes>
          <leafValues>
            -8.3516255021095276e-02 6.9905990362167358e-01</leafValues></_>
        <_>
          <internalNodes>
            0 -1 167 -1.8003799486905336e-03</internalNodes>
          <leafValues>
            -5.1654398441314697e-01 1.2572143971920013e-01</leafValues></_>
        <_>
          <internalNodes>
            0 -1 72 1.1631868779659271e-02</internalNodes>
          <leafValues>
            1.0533649474382401e-01 -5.1224893331527710e-01</leafValues></_>
        <_>
          <internalNodes>
            0 -1 150 3.4284344874322414e-03</internalNodes>
          <leafValues>
            -1.7747533321380615e-01 3.4117576479911804e-01</leafValues></_>
        <_>
          <internalNodes>
            0 -1 18 -7.5261652469635010e-02</internalNodes>
          <leafValues>
            2.6542115211486816e-01 -2.3457938432693481e-01</leafValues></_>
        <_>
          <internalNodes>
            0 -1 102 3.2501413952559233e-03</internalNodes>
          <leafValues>
            1.0975905507802963e-01 -5.0590628385543823e-01</leafValues></_>
        <_>
          <internalNodes>
            0 -1 171 -3.2467246055603027e-03</internalNodes>
          <leafValues>
            -4.9057805538177490e-01 1.1782677471637726e-01</leafValues></_>
        <_>
          <internalNodes>
            0 -1 36 7.3333039879798889e-02</internalNodes>
          <leafValues>
            -1.5571355819702148e-01 3.4421500563621521e-01</leafValues></_>
        <_>
          <internalNodes>
            0 -1 38 8.2843555137515068e-03</internalNodes>
          <leafValues>
            -1.0747908055782318e-01 6.4237874746322632e-01</leafValues></_>
        <_>
          <internalNodes>
            0 -1 91 5.1492385566234589e-02</internalNodes>
          <leafValues>
            -1.1520458757877350e-01 5.0625568628311157e-01</leafValues></_>
        <_>
          <internalNodes>
            0 -1 157 -3.0211214907467365e-03</internalNodes>
          <leafValues>
            3.8680952787399292e-01 -1.4779256284236908e-01</leafValues></_>
        <_>
          <internalNodes>
            0 -1 98 -4.1415549814701080e-02</internalNodes>
          <leafValues>
            4.7627651691436768e-01 -1.2070782482624054e-01</leafValues></_>
        <_>
          <internalNodes>
            0 -1 77 -7.0882146246731281e-03</internalNodes>
          <leafValues>
            -7.1940082311630249e-01 9.0594701468944550e-02</leafValues></_>
        <_>
          <internalNodes>
            0 -1 114 -6.5965871326625347e-03</internalNodes>
          <leafValues>
            5.3144717216491699e-01 -1.2529747188091278e-01</leafValues></_>
        <_>
          <internalNodes>
            0 -1 113 1.0964763350784779e-02</internalNodes>
          <leafValues>
            7.7891133725643158e-02 -8.0930507183074951e-01</leafValues></_>
        <_>
          <internalNodes>
            0 -1 17 2.4833846837282181e-02</internalNodes>
          <leafValues>
            1.1252278834581375e-01 -4.6800208091735840e-01</leafValues></_>
        <_>
          <internalNodes>
            0 -1 120 1.8229739367961884e-01</internalNodes>
          <leafValues>
            -1.1747153103351593e-01 4.9531888961791992e-01</leafValues></_>
        <_>
          <internalNodes>
            0 -1 65 -1.6306098550558090e-03</internalNodes>
          <leafValues>
            2.3845650255680084e-01 -2.4907994270324707e-01</leafValues></_>
        <_>
          <internalNodes>
            0 -1 79 3.9817532524466515e-03</internalNodes>
          <leafValues>
            -1.1649704724550247e-01 4.5705285668373108e-01</leafValues></_>
        <_>
          <internalNodes>
            0 -1 100 -5.9206853620707989e-04</internalNodes>
          <leafValues>
            -2.5770950317382813e-01 2.0526507496833801e-01</leafValues></_>
        <_>
          <internalNodes>
            0 -1 173 7.3758058715611696e-04</internalNodes>
          <leafValues>
            -2.1749758720397949e-01 2.4643775820732117e-01</leafValues></_></weakClassifiers></_>
    <!-- stage 8 -->
    <_>
      <maxWeakCount>26</maxWeakCount>
      <stageThreshold>-7.5682133436203003e-01</stageThreshold>
      <weakClassifiers>
        <_>
          <internalNodes>
            0 -1 190 -1.2921110726892948e-02</internalNodes>
          <leafValues>
            6.7557930946350098e-01 1.2886048853397369e-01</leafValues></_>
        <_>
          <internalNodes>
            0 -1 172 1.3135393150150776e-02</internalNodes>
          <leafValues>
            -4.9905497580766678e-02 7.3640495538711548e-01</leafValues></_>
        <_>
          <internalNodes>
            0 -1 96 -3.2028026878833771e-02</internalNodes>
          <leafValues>
            6.5162414312362671e-01 -1.4265029132366180e-01</leafValues></_>
        <_>
          <internalNodes>
            0 -1 136 -2.8603626415133476e-03</internalNodes>
          <leafValues>
            -5.0535672903060913e-01 1.1935544013977051e-01</leafValues></_>
        <_>
          <internalNodes>
            0 -1 132 1.2149713002145290e-02</internalNodes>
          <leafValues>
            -1.6965217888355255e-01 3.6267009377479553e-01</leafValues></_>
        <_>
          <internalNodes>
            0 -1 49 1.7035208642482758e-01</internalNodes>
          <leafValues>
            8.0062270164489746e-02 -7.9968130588531494e-01</leafValues></_>
        <_>
          <internalNodes>
            0 -1 47 -1.8383824825286865e-01</internalNodes>
          <leafValues>
            -5.8356696367263794e-01 8.3145320415496826e-02</leafValues></_>
        <_>
          <internalNodes>
            0 -1 122 2.9367499519139528e-03</internalNodes>
          <leafValues>
            7.5032912194728851e-02 -6.9638311862945557e-01</leafValues></_>
        <_>
          <internalNodes>
            0 -1 28 -2.8100933879613876e-02</internalNodes>
          <leafValues>
            6.8425834178924561e-01 -9.5352590084075928e-02</leafValues></_>
        <_>
          <internalNodes>
            0 -1 117 -2.2270029410719872e-02</internalNodes>
          <leafValues>
            8.6556071043014526e-01 -4.4255178421735764e-02</leafValues></_>
        <_>
          <internalNodes>
            0 -1 118 2.8015956282615662e-02</internalNodes>
          <leafValues>
            -8.3324179053306580e-02 5.1827704906463623e-01</leafValues></_>
        <_>
          <internalNodes>
            0 -1 25 -3.0852630734443665e-02</internalNodes>
          <leafValues>
            3.6941516399383545e-01 -1.8618193268775940e-01</leafValues></_>
        <_>
          <internalNodes>
            0 -1 45 8.4399506449699402e-02</internalNodes>
          <leafValues>
            -8.4219492971897125e-02 6.7119985818862915e-01</leafValues></_>
        <_>
          <internalNodes>
            0 -1 124 -1.3235652819275856e-02</internalNodes>
          <leafValues>
            2.0835550129413605e-01 -3.0749785900115967e-01</leafValues></_>
        <_>
          <internalNodes>
            0 -1 115 -9.4003267586231232e-03</internalNodes>
          <leafValues>
            4.1382771730422974e-01 -1.3242727518081665e-01</leafValues></_>
        <_>
          <internalNodes>
            0 -1 188 2.5893822312355042e-03</internalNodes>
          <leafValues>
            1.0236230492591858e-01 -6.1654633283615112e-01</leafValues></_>
        <_>
          <internalNodes>
            0 -1 95 9.5790848135948181e-02</internalNodes>
          <leafValues>
            -8.2365885376930237e-02 8.5038977861404419e-01</leafValues></_>
        <_>
          <internalNodes>
            0 -1 181 -2.5276336818933487e-03</internalNodes>
          <leafValues>
            -7.9029393196105957e-01 9.6239931881427765e-02</leafValues></_>
        <_>
          <internalNodes>
            0 -1 19 6.5418437123298645e-02</internalNodes>
          <leafValues>
            -1.1060912162065506e-01 5.6824249029159546e-01</leafValues></_>
        <_>
          <internalNodes>
            0 -1 53 2.1648830175399780e-01</internalNodes>
          <leafValues>
            -1.2982797622680664e-01 4.6815150976181030e-01</leafValues></_>
        <_>
          <internalNodes>
            0 -1 1 -8.8713550940155983e-04</internalNodes>
          <leafValues>
            -3.9929321408271790e-01 1.5204550325870514e-01</leafValues></_>
        <_>
          <internalNodes>
            0 -1 143 -7.2481734678149223e-03</internalNodes>
          <leafValues>
            -7.0006370544433594e-01 6.8647906184196472e-02</leafValues></_>
        <_>
          <internalNodes>
            0 -1 34 -1.9132822751998901e-02</internalNodes>
          <leafValues>
            5.1735872030258179e-01 -1.0983510315418243e-01</leafValues></_>
        <_>
          <internalNodes>
            0 -1 109 -2.1864568814635277e-02</internalNodes>
          <leafValues>
            3.4548795223236084e-01 -1.4676226675510406e-01</leafValues></_>
        <_>
          <internalNodes>
            0 -1 85 -6.9056011736392975e-02</internalNodes>
          <leafValues>
            3.6287701129913330e-01 -1.8343488872051239e-01</leafValues></_>
        <_>
          <internalNodes>
            0 -1 151 4.2644813656806946e-03</internalNodes>
          <leafValues>
            9.7707770764827728e-02 -6.2424045801162720e-01</leafValues></_></weakClassifiers></_>
    <!-- stage 9 -->
    <_>
      <maxWeakCount>27</maxWeakCount>
      <stageThreshold>-6.4747679233551025e-01</stageThreshold>
      <weakClassifiers>
        <_>
          <internalNodes>
            0 -1 37 3.9507066830992699e-03</internalNodes>
          <leafValues>
            1.4587737619876862e-01 6.5342962741851807e-01</leafValues></_>
        <_>
          <internalNodes>
            0 -1 73 1.0724967345595360e-02</internalNodes>
          <leafValues>
            -1.1249569058418274e-01 4.3691682815551758e-01</leafValues></_>
        <_>
          <internalNodes>
            0 -1 175 5.2989064715802670e-03</internalNodes>
          <leafValues>
            1.0187640786170959e-01 -5.9091246128082275e-01</leafValues></_>
        <_>
          <internalNodes>
            0 -1 0 6.7323946859687567e-04</internalNodes>
          <leafValues>
            1.3186959922313690e-01 -4.0060299634933472e-01</leafValues></_>
        <_>
          <internalNodes>
            0 -1 57 -5.1693871617317200e-02</internalNodes>
          <leafValues>
            4.9446246027946472e-01 -1.4217551052570343e-01</leafValues></_>
        <_>
          <internalNodes>
            0 -1 24 3.1736448407173157e-02</internalNodes>
          <leafValues>
            -1.0579904168844223e-01 4.8109760880470276e-01</leafValues></_>
        <_>
          <internalNodes>
            0 -1 159 -8.5985912010073662e-03</internalNodes>
          <leafValues>
            4.0839672088623047e-01 -1.4413966238498688e-01</leafValues></_>
        <_>
          <internalNodes>
            0 -1 126 4.3815165758132935e-02</internalNodes>
          <leafValues>
            -8.4578283131122589e-02 6.2677025794982910e-01</leafValues></_>
        <_>
          <internalNodes>
            0 -1 158 6.6830166615545750e-03</internalNodes>
          <leafValues>
            8.7297089397907257e-02 -7.5950646400451660e-01</leafValues></_>
        <_>
          <internalNodes>
            0 -1 83 -6.4566633664071560e-03</internalNodes>
          <leafValues>
            2.9366394877433777e-01 -1.9630895555019379e-01</leafValues></_>
        <_>
          <internalNodes>
            0 -1 111 -7.5526431202888489e-02</internalNodes>
          <leafValues>
            4.4607210159301758e-01 -1.2006990611553192e-01</leafValues></_>
        <_>
          <internalNodes>
            0 -1 139 5.2742008119821548e-03</internalNodes>
          <leafValues>
            -1.1922232806682587e-01 4.9442470073699951e-01</leafValues></_>
        <_>
          <internalNodes>
            0 -1 58 1.3906927779316902e-02</internalNodes>
          <leafValues>
            7.4044175446033478e-02 -7.8364241123199463e-01</leafValues></_>
        <_>
          <internalNodes>
            0 -1 99 -2.4621054530143738e-02</internalNodes>
          <leafValues>
            5.7205939292907715e-01 -1.0030188411474228e-01</leafValues></_>
        <_>
          <internalNodes>
            0 -1 92 -1.1729693412780762e-01</internalNodes>
          <leafValues>
            6.2788444757461548e-01 -8.5351362824440002e-02</leafValues></_>
        <_>
          <internalNodes>
            0 -1 155 -7.9611539840698242e-02</internalNodes>
          <leafValues>
            3.2206246256828308e-01 -1.7446519434452057e-01</leafValues></_>
        <_>
          <internalNodes>
            0 -1 110 3.0841159168630838e-03</internalNodes>
          <leafValues>
            -1.6668649017810822e-01 3.8337466120719910e-01</leafValues></_>
        <_>
          <internalNodes>
            0 -1 3 -2.9236238915473223e-03</internalNodes>
          <leafValues>
            -5.2411735057830811e-01 1.2173186242580414e-01</leafValues></_>
        <_>
          <internalNodes>
            0 -1 166 -6.2156063504517078e-03</internalNodes>
          <leafValues>
            7.0821487903594971e-01 -7.6916456222534180e-02</leafValues></_>
        <_>
          <internalNodes>
            0 -1 41 6.3645660877227783e-02</internalNodes>
          <leafValues>
            -1.5118059515953064e-01 3.4565946459770203e-01</leafValues></_>
        <_>
          <internalNodes>
            0 -1 154 5.8351485058665276e-03</internalNodes>
          <leafValues>
            9.8921425640583038e-02 -6.0463291406631470e-01</leafValues></_>
        <_>
          <internalNodes>
            0 -1 168 2.3261658847332001e-02</internalNodes>
          <leafValues>
            -1.2354070693254471e-01 4.7657886147499084e-01</leafValues></_>
        <_>
          <internalNodes>
            0 -1 142 -4.2704930528998375e-03</internalNodes>
          <leafValues>
            5.9074449539184570e-01 -8.1450358033180237e-02</leafValues></_>
        <_>
          <internalNodes>
            0 -1 140 2.5935205630958080e-03</internalNodes>
          <leafValues>
            8.7639890611171722e-02 -6.8504482507705688e-01</leafValues></_>
        <_>
          <internalNodes>
            0 -1 29 9.6081286668777466e-02</internalNodes>
          <leafValues>
            -1.9983378052711487e-01 2.7965208888053894e-01</leafValues></_>
        <_>
          <internalNodes>
            0 -1 161 3.7026733160018921e-02</internalNodes>
          <leafValues>
            -8.2784436643123627e-02 6.6046756505966187e-01</leafValues></_>
        <_>
          <internalNodes>
            0 -1 160 2.6024307589977980e-04</internalNodes>
          <leafValues>
            -2.1593455970287323e-01 2.4145060777664185e-01</leafValues></_></weakClassifiers></_></stages>
  <features>
    <_>
      <rects>
        <_>
          0 0 2 1 -1.</_>
        <_>
          1 0 1 1 2.</_></rects>
      <tilted>0</tilted></_>
    <_>
      <rects>
        <_>
          0 0 3 1 -1.</_>
        <_>
          1 0 1 1 3.</_></rects>
      <tilted>0</tilted></_>
    <_>
      <rects>
        <_>
          0 0 2 2 -1.</_>
        <_>
          0 0 1 1 2.</_>
        <_>
          1 1 1 1 2.</_></rects>
      <tilted>0</tilted></_>
    <_>
      <rects>
        <_>
          0 0 6 1 -1.</_>
        <_>
          2 0 2 1 3.</_></rects>
      <tilted>0</tilted></_>
    <_>
      <rects>
        <_>
          0 0 12 4 -1.</_>
        <_>
          0 0 6 2 2.</_>
        <_>
          6 2 6 2 2.</_></rects>
      <tilted>0</tilted></_>
    <_>
      <rects>
        <_>
          0 0 18 19 -1.</_>
        <_>
          6 0 6 19 3.</_></rects>
      <tilted>0</tilted></_>
    <_>
      <rects>
        <_>
          0 2 18 12 -1.</_>
        <_>
          6 2 6 12 3.</_></rects>
      <tilted>0</tilted></_>
    <_>
      <rects>
        <_>
          0 2 18 17 -1.</_>
        <_>
          6 2 6 17 3.</_></rects>
      <tilted>0</tilted></_>
    <_>
      <rects>
        <_>
          0 3 4 14 -1.</_>
        <_>
          2 3 2 14 2.</_></rects>
      <tilted>0</tilted></_>
    <_>
      <rects>
        <_>
          0 3 10 6 -1.</_>
        <_>
          0 3 5 3 2.</_>
        <_>
          5 6 5 3 2.</_></rects>
      <tilted>0</tilted></_>
    <_>
      <rects>
        <_>
          0 3 18 16 -1.</_>
        <_>
          6 3 6 16 3.</_></rects>
      <tilted>0</tilted></_>
    <_>
      <rects>
        <_>
          0 4 2 11 -1.</_>
        <_>
          1 4 1 11 2.</_></rects>
      <tilted>0</tilted></_>
    <_>
      <rects>
        <_>
          0 4 2 12 -1.</_>
        <_>
          1 4 1 12 2.</_></rects>
      <tilted>0</tilted></_>
    <_>
      <rects>
        <_>
          0 4 2 14 -1.</_>
        <_>
          1 4 1 14 2.</_></rects>
      <tilted>0</tilted></_>
    <_>
      <rects>
        <_>
          0 5 2 9 -1.</_>
        <_>
          1 5 1 9 2.</_></rects>
      <tilted>0</tilted></_>
    <_>
      <rects>
        <_>
          0 5 2 12 -1.</_>
        <_>
          1 5 1 12 2.</_></rects>
      <tilted>0</tilted></_>
    <_>
      <rects>
        <_>
          0 5 9 7 -1.</_>
        <_>
          3 5 3 7 3.</_></rects>
      <tilted>0</tilted></_>
    <_>
      <rects>
        <_>
          0 5 20 4 -1.</_>
        <_>
          0 5 10 2 2.</_>
        <_>
          10 7 10 2 2.</_></rects>
      <tilted>0</tilted></_>
    <_>
      <rects>
        <_>
          0 5 15 10 -1.</_>
        <_>
          0 10 15 5 2.</_></rects>
      <tilted>0</tilted></_>
    <_>
      <rects>
        <_>
          0 6 6 9 -1.</_>
        <_>
          2 6 2 9 3.</_></rects>
      <tilted>0</tilted></_>
    <_>
      <rects>
        <_>
          0 7 18 4 -1.</_>
        <_>
          6 7 6 4 3.</_></rects>
      <tilted>0</tilted></_>
    <_>
      <rects>
        <_>
          0 8 10 8 -1.</_>
        <_>
          0 8 5 4 2.</_>
        <_>
          5 12 5 4 2.</_></rects>
      <tilted>0</tilted></_>
    <_>
      <rects>
        <_>
          0 10 10 10 -1.</_>
        <_>
          0 10 5 5 2.</_>
        <_>
          5 15 5 5 2.</_></rects>
      <tilted>0</tilted></_>
    <_>
      <rects>
        <_>
          0 10 15 9 -1.</_>
        <_>
          5 10 5 9 3.</_></rects>
      <tilted>0</tilted></_>
    <_>
      <rects>
        <_>
          0 11 8 8 -1.</_>
        <_>
          0 11 4 4 2.</_>
        <_>
          4 15 4 4 2.</_></rects>
      <tilted>0</tilted></_>
    <_>
      <rects>
        <_>
          0 11 12 6 -1.</_>
        <_>
          0 11 6 3 2.</_>
        <_>
          6 14 6 3 2.</_></rects>
      <tilted>0</tilted></_>
    <_>
      <rects>
        <_>
          0 11 20 9 -1.</_>
        <_>
          10 11 10 9 2.</_></rects>
      <tilted>0</tilted></_>
    <_>
      <rects>
        <_>
          1 0 18 8 -1.</_>
        <_>
          1 4 18 4 2.</_></rects>
      <tilted>0</tilted></_>
    <_>
      <rects>
        <_>
          1 1 4 8 -1.</_>
        <_>
          1 1 2 4 2.</_>
        <_>
          3 5 2 4 2.</_></rects>
      <tilted>0</tilted></_>
    <_>
      <rects>
        <_>
          1 2 18 12 -1.</_>
        <_>
          1 6 18 4 3.</_></rects>
      <tilted>0</tilted></_>
    <_>
      <rects>
        <_>
          1 4 18 8 -1.</_>
        <_>
          7 4 6 8 3.</_></rects>
      <tilted>0</tilted></_>
    <_>
      <rects>
        <_>
          1 4 18 12 -1.</_>
        <_>
          7 4 6 12 3.</_></rects>
      <tilted>0</tilted></_>
    <_>
      <rects>
        <_>
          1 5 6 10 -1.</_>
        <_>
          4 5 3 10 2.</_></rects>
      <tilted>0</tilted></_>
    <_>
      <rects>
        <_>
          1 5 10 14 -1.</_>
        <_>
          1 5 5 7 2.</_>
        <_>
          6 12 5 7 2.</_></rects>
      <tilted>0</tilted></_>
    <_>
      <rects>
        <_>
          1 7 4 8 -1.</_>
        <_>
          1 7 2 4 2.</_>
        <_>
          3 11 2 4 2.</_></rects>
      <tilted>0</tilted></_>
    <_>
      <rects>
        <_>
          1 8 8 9 -1.</_>
        <_>
          5 8 4 9 2.</_></rects>
      <tilted>0</tilted></_>
    <_>
      <rects>
        <_>
          1 8 10 7 -1.</_>
        <_>
          6 8 5 7 2.</_></rects>
      <tilted>0</tilted></_>
    <_>
      <rects>
        <_>
          1 9 3 2 -1.</_>
        <_>
          2 9 1 2 3.</_></rects>
      <tilted>0</tilted></_>
    <_>
      <rects>
        <_>
          1 9 2 3 -1.</_>
        <_>
          2 9 1 3 2.</_></rects>
      <tilted>0</tilted></_>
    <_>
      <rects>
        <_>
          1 9 8 7 -1.</_>
        <_>
          5 9 4 7 2.</_></rects>
      <tilted>0</tilted></_>
    <_>
      <rects>
        <_>
          1 10 3 1 -1.</_>
        <_>
          2 10 1 1 3.</_></rects>
      <tilted>0</tilted></_>
    <_>
      <rects>
        <_>
          1 10 12 10 -1.</_>
        <_>
          5 10 4 10 3.</_></rects>
      <tilted>0</tilted></_>
    <_>
      <rects>
        <_>
          1 15 6 1 -1.</_>
        <_>
          4 15 3 1 2.</_></rects>
      <tilted>0</tilted></_>
    <_>
      <rects>
        <_>
          1 15 18 3 -1.</_>
        <_>
          7 15 6 3 3.</_></rects>
      <tilted>0</tilted></_>
    <_>
      <rects>
        <_>
          1 16 18 1 -1.</_>
        <_>
          7 16 6 1 3.</_></rects>
      <tilted>0</tilted></_>
    <_>
      <rects>
        <_>
          1 16 18 2 -1.</_>
        <_>
          7 16 6 2 3.</_></rects>
      <tilted>0</tilted></_>
    <_>
      <rects>
        <_>
          1 18 4 1 -1.</_>
        <_>
          3 18 2 1 2.</_></rects>
      <tilted>0</tilted></_>
    <_>
      <rects>
        <_>
          2 0 18 20 -1.</_>
        <_>
          2 0 9 10 2.</_>
        <_>
          11 10 9 10 2.</_></rects>
      <tilted>0</tilted></_>
    <_>
      <rects>
        <_>
          2 1 15 4 -1.</_>
        <_>
          7 1 5 4 3.</_></rects>
      <tilted>0</tilted></_>
    <_>
      <rects>
        <_>
          2 1 18 16 -1.</_>
        <_>
          2 1 9 8 2.</_>
        <_>
          11 9 9 8 2.</_></rects>
      <tilted>0</tilted></_>
    <_>
      <rects>
        <_>
          2 4 6 11 -1.</_>
        <_>
          4 4 2 11 3.</_></rects>
      <tilted>0</tilted></_>
    <_>
      <rects>
        <_>
          2 4 8 12 -1.</_>
        <_>
          6 4 4 12 2.</_></rects>
      <tilted>0</tilted></_>
    <_>
      <rects>
        <_>
          2 5 6 9 -1.</_>
        <_>
          4 5 2 9 3.</_></rects>
      <tilted>0</tilted></_>
    <_>
      <rects>
        <_>
          2 5 18 6 -1.</_>
        <_>
          8 5 6 6 3.</_></rects>
      <tilted>0</tilted></_>
    <_>
      <rects>
        <_>
          2 5 18 7 -1.</_>
        <_>
          8 5 6 7 3.</_></rects>
      <tilted>0</tilted></_>
    <_>
      <rects>
        <_>
          2 6 18 3 -1.</_>
        <_>
          8 6 6 3 3.</_></rects>
      <tilted>0</tilted></_>
    <_>
      <rects>
        <_>
          2 7 12 8 -1.</_>
        <_>
          6 7 4 8 3.</_></rects>
      <tilted>0</tilted></_>
    <_>
      <rects>
        <_>
          2 9 6 10 -1.</_>
        <_>
          2 9 3 5 2.</_>
        <_>
          5 14 3 5 2.</_></rects>
      <tilted>0</tilted></_>
    <_>
      <rects>
        <_>
          2 10 8 3 -1.</_>
        <_>
          2 11 8 1 3.</_></rects>
      <tilted>0</tilted></_>
    <_>
      <rects>
        <_>
          2 12 12 4 -1.</_>
        <_>
          6 12 4 4 3.</_></rects>
      <tilted>0</tilted></_>
    <_>
      <rects>
        <_>
          2 13 6 6 -1.</_>
        <_>
          2 13 3 3 2.</_>
        <_>
          5 16 3 3 2.</_></rects>
      <tilted>0</tilted></_>
    <_>
      <rects>
        <_>
          3 0 6 12 -1.</_>
        <_>
          3 0 3 6 2.</_>
        <_>
          6 6 3 6 2.</_></rects>
      <tilted>0</tilted></_>
    <_>
      <rects>
        <_>
          3 2 8 4 -1.</_>
        <_>
          3 2 4 2 2.</_>
        <_>
          7 4 4 2 2.</_></rects>
      <tilted>0</tilted></_>
    <_>
      <rects>
        <_>
          3 3 4 6 -1.</_>
        <_>
          3 3 2 3 2.</_>
        <_>
          5 6 2 3 2.</_></rects>
      <tilted>0</tilted></_>
    <_>
      <rects>
        <_>
          3 4 12 12 -1.</_>
        <_>
          3 4 6 6 2.</_>
        <_>
          9 10 6 6 2.</_></rects>
      <tilted>0</tilted></_>
    <_>
      <rects>
        <_>
          3 5 5 4 -1.</_>
        <_>
          3 7 5 2 2.</_></rects>
      <tilted>0</tilted></_>
    <_>
      <rects>
        <_>
          3 5 15 12 -1.</_>
        <_>
          8 5 5 12 3.</_></rects>
      <tilted>0</tilted></_>
    <_>
      <rects>
        <_>
          3 9 6 10 -1.</_>
        <_>
          3 9 3 5 2.</_>
        <_>
          6 14 3 5 2.</_></rects>
      <tilted>0</tilted></_>
    <_>
      <rects>
        <_>
          3 11 4 6 -1.</_>
        <_>
          3 11 2 3 2.</_>
        <_>
          5 14 2 3 2.</_></rects>
      <tilted>0</tilted></_>
    <_>
      <rects>
        <_>
          3 11 9 3 -1.</_>
        <_>
          6 11 3 3 3.</_></rects>
      <tilted>0</tilted></_>
    <_>
      <rects>
        <_>
          3 15 8 3 -1.</_>
        <_>
          3 16 8 1 3.</_></rects>
      <tilted>0</tilted></_>
    <_>
      <rects>
        <_>
          3 18 15 2 -1.</_>
        <_>
          3 19 15 1 2.</_></rects>
      <tilted>0</tilted></_>
    <_>
      <rects>
        <_>
          3 19 15 1 -1.</_>
        <_>
          8 19 5 1 3.</_></rects>
      <tilted>0</tilted></_>
    <_>
      <rects>
        <_>
          4 0 10 2 -1.</_>
        <_>
          4 1 10 1 2.</_></rects>
      <tilted>0</tilted></_>
    <_>
      <rects>
        <_>
          4 0 13 4 -1.</_>
        <_>
          4 2 13 2 2.</_></rects>
      <tilted>0</tilted></_>
    <_>
      <rects>
        <_>
          4 6 15 9 -1.</_>
        <_>
          9 6 5 9 3.</_></rects>
      <tilted>0</tilted></_>
    <_>
      <rects>
        <_>
          4 9 6 1 -1.</_>
        <_>
          7 9 3 1 2.</_></rects>
      <tilted>0</tilted></_>
    <_>
      <rects>
        <_>
          4 10 4 3 -1.</_>
        <_>
          4 11 4 1 3.</_></rects>
      <tilted>0</tilted></_>
    <_>
      <rects>
        <_>
          4 17 12 1 -1.</_>
        <_>
          8 17 4 1 3.</_></rects>
      <tilted>0</tilted></_>
    <_>
      <rects>
        <_>
          5 0 4 3 -1.</_>
        <_>
          5 1 4 1 3.</_></rects>
      <tilted>0</tilted></_>
    <_>
      <rects>
        <_>
          5 1 3 5 -1.</_>
        <_>
          6 1 1 5 3.</_></rects>
      <tilted>0</tilted></_>
    <_>
      <rects>
        <_>
          5 2 3 1 -1.</_>
        <_>
          6 2 1 1 3.</_></rects>
      <tilted>0</tilted></_>
    <_>
      <rects>
        <_>
          5 3 3 3 -1.</_>
        <_>
          6 3 1 3 3.</_></rects>
      <tilted>0</tilted></_>
    <_>
      <rects>
        <_>
          5 4 6 6 -1.</_>
        <_>
          5 4 3 3 2.</_>
        <_>
          8 7 3 3 2.</_></rects>
      <tilted>0</tilted></_>
    <_>
      <rects>
        <_>
          5 4 12 12 -1.</_>
        <_>
          5 4 6 6 2.</_>
        <_>
          11 10 6 6 2.</_></rects>
      <tilted>0</tilted></_>
    <_>
      <rects>
        <_>
          5 9 9 8 -1.</_>
        <_>
          5 13 9 4 2.</_></rects>
      <tilted>0</tilted></_>
    <_>
      <rects>
        <_>
          5 18 6 2 -1.</_>
        <_>
          8 18 3 2 2.</_></rects>
      <tilted>0</tilted></_>
    <_>
      <rects>
        <_>
          5 18 9 2 -1.</_>
        <_>
          5 19 9 1 2.</_></rects>
      <tilted>0</tilted></_>
    <_>
      <rects>
        <_>
          5 18 11 2 -1.</_>
        <_>
          5 19 11 1 2.</_></rects>
      <tilted>0</tilted></_>
    <_>
      <rects>
        <_>
          6 0 8 15 -1.</_>
        <_>
          6 5 8 5 3.</_></rects>
      <tilted>0</tilted></_>
    <_>
      <rects>
        <_>
          6 1 8 3 -1.</_>
        <_>
          6 2 8 1 3.</_></rects>
      <tilted>0</tilted></_>
    <_>
      <rects>
        <_>
          6 3 10 12 -1.</_>
        <_>
          11 3 5 12 2.</_></rects>
      <tilted>0</tilted></_>
    <_>
      <rects>
        <_>
          6 4 8 12 -1.</_>
        <_>
          10 4 4 12 2.</_></rects>
      <tilted>0</tilted></_>
    <_>
      <rects>
        <_>
          6 7 8 8 -1.</_>
        <_>
          6 7 4 4 2.</_>
        <_>
          10 11 4 4 2.</_></rects>
      <tilted>0</tilted></_>
    <_>
      <rects>
        <_>
          6 8 4 10 -1.</_>
        <_>
          6 13 4 5 2.</_></rects>
      <tilted>0</tilted></_>
    <_>
      <rects>
        <_>
          6 8 8 8 -1.</_>
        <_>
          6 12 8 4 2.</_></rects>
      <tilted>0</tilted></_>
    <_>
      <rects>
        <_>
          6 10 2 8 -1.</_>
        <_>
          6 14 2 4 2.</_></rects>
      <tilted>0</tilted></_>
    <_>
      <rects>
        <_>
          6 13 11 6 -1.</_>
        <_>
          6 15 11 2 3.</_></rects>
      <tilted>0</tilted></_>
    <_>
      <rects>
        <_>
          6 16 9 4 -1.</_>
        <_>
          6 18 9 2 2.</_></rects>
      <tilted>0</tilted></_>
    <_>
      <rects>
        <_>
          6 18 9 2 -1.</_>
        <_>
          6 19 9 1 2.</_></rects>
      <tilted>0</tilted></_>
    <_>
      <rects>
        <_>
          7 0 6 1 -1.</_>
        <_>
          9 0 2 1 3.</_></rects>
      <tilted>0</tilted></_>
    <_>
      <rects>
        <_>
          7 0 5 6 -1.</_>
        <_>
          7 3 5 3 2.</_></rects>
      <tilted>0</tilted></_>
    <_>
      <rects>
        <_>
          7 1 6 1 -1.</_>
        <_>
          9 1 2 1 3.</_></rects>
      <tilted>0</tilted></_>
    <_>
      <rects>
        <_>
          7 1 6 2 -1.</_>
        <_>
          7 2 6 1 2.</_></rects>
      <tilted>0</tilted></_>
    <_>
      <rects>
        <_>
          7 3 12 5 -1.</_>
        <_>
          11 3 4 5 3.</_></rects>
      <tilted>0</tilted></_>
    <_>
      <rects>
        <_>
          7 3 12 4 -1.</_>
        <_>
          7 3 6 2 2.</_>
        <_>
          13 5 6 2 2.</_></rects>
      <tilted>0</tilted></_>
    <_>
      <rects>
        <_>
          7 3 9 14 -1.</_>
        <_>
          7 10 9 7 2.</_></rects>
      <tilted>0</tilted></_>
    <_>
      <rects>
        <_>
          7 4 10 4 -1.</_>
        <_>
          7 4 5 2 2.</_>
        <_>
          12 6 5 2 2.</_></rects>
      <tilted>0</tilted></_>
    <_>
      <rects>
        <_>
          7 5 8 6 -1.</_>
        <_>
          11 5 4 6 2.</_></rects>
      <tilted>0</tilted></_>
    <_>
      <rects>
        <_>
          7 5 7 9 -1.</_>
        <_>
          7 8 7 3 3.</_></rects>
      <tilted>0</tilted></_>
    <_>
      <rects>
        <_>
          7 6 10 2 -1.</_>
        <_>
          12 6 5 2 2.</_></rects>
      <tilted>0</tilted></_>
    <_>
      <rects>
        <_>
          7 8 4 10 -1.</_>
        <_>
          7 13 4 5 2.</_></rects>
      <tilted>0</tilted></_>
    <_>
      <rects>
        <_>
          7 13 8 6 -1.</_>
        <_>
          7 13 4 3 2.</_>
        <_>
          11 16 4 3 2.</_></rects>
      <tilted>0</tilted></_>
    <_>
      <rects>
        <_>
          7 15 3 5 -1.</_>
        <_>
          8 15 1 5 3.</_></rects>
      <tilted>0</tilted></_>
    <_>
      <rects>
        <_>
          7 15 3 3 -1.</_>
        <_>
          7 16 3 1 3.</_></rects>
      <tilted>0</tilted></_>
    <_>
      <rects>
        <_>
          7 15 11 3 -1.</_>
        <_>
          7 16 11 1 3.</_></rects>
      <tilted>0</tilted></_>
    <_>
      <rects>
        <_>
          7 16 3 1 -1.</_>
        <_>
          8 16 1 1 3.</_></rects>
      <tilted>0</tilted></_>
    <_>
      <rects>
        <_>
          7 16 9 2 -1.</_>
        <_>
          7 17 9 1 2.</_></rects>
      <tilted>0</tilted></_>
    <_>
      <rects>
        <_>
          8 0 4 4 -1.</_>
        <_>
          8 2 4 2 2.</_></rects>
      <tilted>0</tilted></_>
    <_>
      <rects>
        <_>
          8 1 12 6 -1.</_>
        <_>
          14 1 6 6 2.</_></rects>
      <tilted>0</tilted></_>
    <_>
      <rects>
        <_>
          8 1 7 15 -1.</_>
        <_>
          8 6 7 5 3.</_></rects>
      <tilted>0</tilted></_>
    <_>
      <rects>
        <_>
          8 2 8 4 -1.</_>
        <_>
          8 2 4 2 2.</_>
        <_>
          12 4 4 2 2.</_></rects>
      <tilted>0</tilted></_>
    <_>
      <rects>
        <_>
          8 3 3 1 -1.</_>
        <_>
          9 3 1 1 3.</_></rects>
      <tilted>0</tilted></_>
    <_>
      <rects>
        <_>
          8 4 9 12 -1.</_>
        <_>
          8 8 9 4 3.</_></rects>
      <tilted>0</tilted></_>
    <_>
      <rects>
        <_>
          8 6 6 8 -1.</_>
        <_>
          8 10 6 4 2.</_></rects>
      <tilted>0</tilted></_>
    <_>
      <rects>
        <_>
          8 8 2 4 -1.</_>
        <_>
          8 8 1 2 2.</_>
        <_>
          9 10 1 2 2.</_></rects>
      <tilted>0</tilted></_>
    <_>
      <rects>
        <_>
          8 12 7 6 -1.</_>
        <_>
          8 14 7 2 3.</_></rects>
      <tilted>0</tilted></_>
    <_>
      <rects>
        <_>
          8 15 3 4 -1.</_>
        <_>
          8 17 3 2 2.</_></rects>
      <tilted>0</tilted></_>
    <_>
      <rects>
        <_>
          8 16 5 4 -1.</_>
        <_>
          8 18 5 2 2.</_></rects>
      <tilted>0</tilted></_>
    <_>
      <rects>
        <_>
          8 17 3 1 -1.</_>
        <_>
          9 17 1 1 3.</_></rects>
      <tilted>0</tilted></_>
    <_>
      <rects>
        <_>
          8 17 5 2 -1.</_>
        <_>
          8 18 5 1 2.</_></rects>
      <tilted>0</tilted></_>
    <_>
      <rects>
        <_>
          9 0 3 9 -1.</_>
        <_>
          9 3 3 3 3.</_></rects>
      <tilted>0</tilted></_>
    <_>
      <rects>
        <_>
          9 2 3 6 -1.</_>
        <_>
          9 4 3 2 3.</_></rects>
      <tilted>0</tilted></_>
    <_>
      <rects>
        <_>
          9 2 6 7 -1.</_>
        <_>
          12 2 3 7 2.</_></rects>
      <tilted>0</tilted></_>
    <_>
      <rects>
        <_>
          9 2 5 14 -1.</_>
        <_>
          9 9 5 7 2.</_></rects>
      <tilted>0</tilted></_>
    <_>
      <rects>
        <_>
          9 5 4 9 -1.</_>
        <_>
          9 8 4 3 3.</_></rects>
      <tilted>0</tilted></_>
    <_>
      <rects>
        <_>
          9 7 3 2 -1.</_>
        <_>
          10 7 1 2 3.</_></rects>
      <tilted>0</tilted></_>
    <_>
      <rects>
        <_>
          9 15 3 1 -1.</_>
        <_>
          10 15 1 1 3.</_></rects>
      <tilted>0</tilted></_>
    <_>
      <rects>
        <_>
          9 16 3 3 -1.</_>
        <_>
          9 17 3 1 3.</_></rects>
      <tilted>0</tilted></_>
    <_>
      <rects>
        <_>
          9 17 6 2 -1.</_>
        <_>
          9 17 3 1 2.</_>
        <_>
          12 18 3 1 2.</_></rects>
      <tilted>0</tilted></_>
    <_>
      <rects>
        <_>
          10 1 3 1 -1.</_>
        <_>
          11 1 1 1 3.</_></rects>
      <tilted>0</tilted></_>
    <_>
      <rects>
        <_>
          10 1 5 3 -1.</_>
        <_>
          10 2 5 1 3.</_></rects>
      <tilted>0</tilted></_>
    <_>
      <rects>
        <_>
          10 2 3 2 -1.</_>
        <_>
          10 3 3 1 2.</_></rects>
      <tilted>0</tilted></_>
    <_>
      <rects>
        <_>
          10 3 3 4 -1.</_>
        <_>
          11 3 1 4 3.</_></rects>
      <tilted>0</tilted></_>
    <_>
      <rects>
        <_>
          10 3 10 16 -1.</_>
        <_>
          15 3 5 16 2.</_></rects>
      <tilted>0</tilted></_>
    <_>
      <rects>
        <_>
          10 4 8 4 -1.</_>
        <_>
          14 4 4 4 2.</_></rects>
      <tilted>0</tilted></_>
    <_>
      <rects>
        <_>
          10 6 10 10 -1.</_>
        <_>
          10 6 5 5 2.</_>
        <_>
          15 11 5 5 2.</_></rects>
      <tilted>0</tilted></_>
    <_>
      <rects>
        <_>
          10 6 10 12 -1.</_>
        <_>
          10 6 5 6 2.</_>
        <_>
          15 12 5 6 2.</_></rects>
      <tilted>0</tilted></_>
    <_>
      <rects>
        <_>
          10 7 9 4 -1.</_>
        <_>
          13 7 3 4 3.</_></rects>
      <tilted>0</tilted></_>
    <_>
      <rects>
        <_>
          10 8 6 9 -1.</_>
        <_>
          10 11 6 3 3.</_></rects>
      <tilted>0</tilted></_>
    <_>
      <rects>
        <_>
          10 9 3 4 -1.</_>
        <_>
          10 11 3 2 2.</_></rects>
      <tilted>0</tilted></_>
    <_>
      <rects>
        <_>
          10 14 3 2 -1.</_>
        <_>
          11 14 1 2 3.</_></rects>
      <tilted>0</tilted></_>
    <_>
      <rects>
        <_>
          10 14 3 3 -1.</_>
        <_>
          11 14 1 3 3.</_></rects>
      <tilted>0</tilted></_>
    <_>
      <rects>
        <_>
          10 14 3 5 -1.</_>
        <_>
          11 14 1 5 3.</_></rects>
      <tilted>0</tilted></_>
    <_>
      <rects>
        <_>
          10 16 3 4 -1.</_>
        <_>
          11 16 1 4 3.</_></rects>
      <tilted>0</tilted></_>
    <_>
      <rects>
        <_>
          11 0 8 20 -1.</_>
        <_>
          15 0 4 20 2.</_></rects>
      <tilted>0</tilted></_>
    <_>
      <rects>
        <_>
          11 1 3 6 -1.</_>
        <_>
          11 3 3 2 3.</_></rects>
      <tilted>0</tilted></_>
    <_>
      <rects>
        <_>
          11 2 3 3 -1.</_>
        <_>
          11 3 3 1 3.</_></rects>
      <tilted>0</tilted></_>
    <_>
      <rects>
        <_>
          11 16 3 3 -1.</_>
        <_>
          12 16 1 3 3.</_></rects>
      <tilted>0</tilted></_>
    <_>
      <rects>
        <_>
          12 3 4 4 -1.</_>
        <_>
          12 3 2 2 2.</_>
        <_>
          14 5 2 2 2.</_></rects>
      <tilted>0</tilted></_>
    <_>
      <rects>
        <_>
          12 11 3 2 -1.</_>
        <_>
          13 11 1 2 3.</_></rects>
      <tilted>0</tilted></_>
    <_>
      <rects>
        <_>
          13 1 6 8 -1.</_>
        <_>
          16 1 3 8 2.</_></rects>
      <tilted>0</tilted></_>
    <_>
      <rects>
        <_>
          13 7 6 4 -1.</_>
        <_>
          15 7 2 4 3.</_></rects>
      <tilted>0</tilted></_>
    <_>
      <rects>
        <_>
          13 7 4 9 -1.</_>
        <_>
          15 7 2 9 2.</_></rects>
      <tilted>0</tilted></_>
    <_>
      <rects>
        <_>
          13 7 3 9 -1.</_>
        <_>
          13 10 3 3 3.</_></rects>
      <tilted>0</tilted></_>
    <_>
      <rects>
        <_>
          13 12 6 3 -1.</_>
        <_>
          15 12 2 3 3.</_></rects>
      <tilted>0</tilted></_>
    <_>
      <rects>
        <_>
          13 15 4 2 -1.</_>
        <_>
          13 15 2 1 2.</_>
        <_>
          15 16 2 1 2.</_></rects>
      <tilted>0</tilted></_>
    <_>
      <rects>
        <_>
          14 8 1 2 -1.</_>
        <_>
          14 9 1 1 2.</_></rects>
      <tilted>0</tilted></_>
    <_>
      <rects>
        <_>
          14 8 4 10 -1.</_>
        <_>
          14 8 2 5 2.</_>
        <_>
          16 13 2 5 2.</_></rects>
      <tilted>0</tilted></_>
    <_>
      <rects>
        <_>
          14 13 4 4 -1.</_>
        <_>
          14 13 2 2 2.</_>
        <_>
          16 15 2 2 2.</_></rects>
      <tilted>0</tilted></_>
    <_>
      <rects>
        <_>
          16 0 2 20 -1.</_>
        <_>
          16 10 2 10 2.</_></rects>
      <tilted>0</tilted></_>
    <_>
      <rects>
        <_>
          16 9 1 4 -1.</_>
        <_>
          16 11 1 2 2.</_></rects>
      <tilted>0</tilted></_>
    <_>
      <rects>
        <_>
          16 9 3 4 -1.</_>
        <_>
          17 9 1 4 3.</_></rects>
      <tilted>0</tilted></_>
    <_>
      <rects>
        <_>
          16 12 2 6 -1.</_>
        <_>
          16 12 1 3 2.</_>
        <_>
          17 15 1 3 2.</_></rects>
      <tilted>0</tilted></_>
    <_>
      <rects>
        <_>
          16 17 4 3 -1.</_>
        <_>
          18 17 2 3 2.</_></rects>
      <tilted>0</tilted></_>
    <_>
      <rects>
        <_>
          16 18 4 2 -1.</_>
        <_>
          18 18 2 2 2.</_></rects>
      <tilted>0</tilted></_>
    <_>
      <rects>
        <_>
          17 0 2 1 -1.</_>
        <_>
          18 0 1 1 2.</_></rects>
      <tilted>0</tilted></_>
    <_>
      <rects>
        <_>
          17 0 3 1 -1.</_>
        <_>
          18 0 1 1 3.</_></rects>
      <tilted>0</tilted></_>
    <_>
      <rects>
        <_>
          17 0 2 2 -1.</_>
        <_>
          18 0 1 2 2.</_></rects>
      <tilted>0</tilted></_>
    <_>
      <rects>
        <_>
          17 1 2 2 -1.</_>
        <_>
          17 1 1 1 2.</_>
        <_>
          18 2 1 1 2.</_></rects>
      <tilted>0</tilted></_>
    <_>
      <rects>
        <_>
          17 8 2 3 -1.</_>
        <_>
          18 8 1 3 2.</_></rects>
      <tilted>0</tilted></_>
    <_>
      <rects>
        <_>
          17 17 2 2 -1.</_>
        <_>
          17 17 1 1 2.</_>
        <_>
          18 18 1 1 2.</_></rects>
      <tilted>0</tilted></_>
    <_>
      <rects>
        <_>
          18 0 2 1 -1.</_>
        <_>
          19 0 1 1 2.</_></rects>
      <tilted>0</tilted></_>
    <_>
      <rects>
        <_>
          18 0 2 16 -1.</_>
        <_>
          19 0 1 16 2.</_></rects>
      <tilted>0</tilted></_>
    <_>
      <rects>
        <_>
          18 1 2 3 -1.</_>
        <_>
          19 1 1 3 2.</_></rects>
      <tilted>0</tilted></_>
    <_>
      <rects>
        <_>
          18 2 2 16 -1.</_>
        <_>
          19 2 1 16 2.</_></rects>
      <tilted>0</tilted></_>
    <_>
      <rects>
        <_>
          18 4 2 13 -1.</_>
        <_>
          19 4 1 13 2.</_></rects>
      <tilted>0</tilted></_>
    <_>
      <rects>
        <_>
          18 5 2 9 -1.</_>
        <_>
          19 5 1 9 2.</_></rects>
      <tilted>0</tilted></_>
    <_>
      <rects>
        <_>
          18 6 1 3 -1.</_>
        <_>
          18 7 1 1 3.</_></rects>
      <tilted>0</tilted></_>
    <_>
      <rects>
        <_>
          18 6 2 9 -1.</_>
        <_>
          19 6 1 9 2.</_></rects>
      <tilted>0</tilted></_>
    <_>
      <rects>
        <_>
          18 6 2 10 -1.</_>
        <_>
          19 6 1 10 2.</_></rects>
      <tilted>0</tilted></_>
    <_>
      <rects>
        <_>
          18 18 1 2 -1.</_>
        <_>
          18 19 1 1 2.</_></rects>
      <tilted>0</tilted></_></features></cascade>
</opencv_storage>
