<?xml version="1.0"?>
<opencv_storage>
<cascade>
  <stageType>BOOST</stageType>
  <featureType>HAAR</featureType>
  <height>20</height>
  <width>20</width>
  <stageParams>
    <boostType>GAB</boostType>
    <minHitRate>9.9500000476837158e-01</minHitRate>
    <maxFalseAlarm>5.0000000000000000e-01</maxFalseAlarm>
    <weightTrimRate>9.4999999999999996e-01</weightTrimRate>
    <maxDepth>1</maxDepth>
    <maxWeakCount>100</maxWeakCount></stageParams>
  <featureParams>
    <maxCatCount>0</maxCatCount>
    <featSize>1</featSize>
    <mode>BASIC</mode></featureParams>
  <stageNum>18</stageNum>
  <stages>
    <!-- stage 0 -->
    <_>
      <maxWeakCount>8</maxWeakCount>
      <stageThreshold>-1.8285045623779297e+00</stageThreshold>
      <weakClassifiers>
        <_>
          <internalNodes>
            0 -1 87 -1.1583320051431656e-01</internalNodes>
          <leafValues>
            3.8898862898349762e-02 -8.8664662837982178e-01</leafValues></_>
        <_>
          <internalNodes>
            0 -1 38 1.0171091184020042e-02</internalNodes>
          <leafValues>
            -4.5425385236740112e-01 2.5129473209381104e-01</leafValues></_>
        <_>
          <internalNodes>
            0 -1 110 -2.6480596512556076e-02</internalNodes>
          <leafValues>
            1.6350288689136505e-01 -6.0467815399169922e-01</leafValues></_>
        <_>
          <internalNodes>
            0 -1 398 -8.8919419795274734e-03</internalNodes>
          <leafValues>
            4.1906481981277466e-01 -2.5137114524841309e-01</leafValues></_>
        <_>
          <internalNodes>
            0 -1 437 1.0789446241687983e-04</internalNodes>
          <leafValues>
            2.5707054138183594e-01 -4.6561858057975769e-01</leafValues></_>
        <_>
          <internalNodes>
            0 -1 194 9.6975389169529080e-05</internalNodes>
          <leafValues>
            1.6293416917324066e-01 -4.9439930915832520e-01</leafValues></_>
        <_>
          <internalNodes>
            0 -1 67 8.9754268527030945e-02</internalNodes>
          <leafValues>
            -1.4855849742889404e-01 5.9041965007781982e-01</leafValues></_>
        <_>
          <internalNodes>
            0 -1 330 7.2176801040768623e-03</internalNodes>
          <leafValues>
            -2.1670497953891754e-01 4.6098873019218445e-01</leafValues></_></weakClassifiers></_>
    <!-- stage 1 -->
    <_>
      <maxWeakCount>15</maxWeakCount>
      <stageThreshold>-1.6140373945236206e+00</stageThreshold>
      <weakClassifiers>
        <_>
          <internalNodes>
            0 -1 422 -3.2995179295539856e-02</internalNodes>
          <leafValues>
            1.8168812990188599e-01 -6.4435017108917236e-01</leafValues></_>
        <_>
          <internalNodes>
            0 -1 37 1.0114261880517006e-02</internalNodes>
          <leafValues>
            -3.5910412669181824e-01 4.0842032432556152e-01</leafValues></_>
        <_>
          <internalNodes>
            0 -1 179 7.0015415549278259e-02</internalNodes>
          <leafValues>
            -1.9835269451141357e-01 5.5773258209228516e-01</leafValues></_>
        <_>
          <internalNodes>
            0 -1 84 7.2215721011161804e-02</internalNodes>
          <leafValues>
            -1.6944867372512817e-01 5.9152203798294067e-01</leafValues></_>
        <_>
          <internalNodes>
            0 -1 251 4.2986921966075897e-02</internalNodes>
          <leafValues>
            -1.4810268580913544e-01 5.8464747667312622e-01</leafValues></_>
        <_>
          <internalNodes>
            0 -1 245 4.5924418373033404e-05</internalNodes>
          <leafValues>
            1.9204285740852356e-01 -4.9539312720298767e-01</leafValues></_>
        <_>
          <internalNodes>
            0 -1 245 -5.5769691243767738e-04</internalNodes>
          <leafValues>
            -4.3288150429725647e-01 2.5059372186660767e-01</leafValues></_>
        <_>
          <internalNodes>
            0 -1 46 3.7626333534717560e-02</internalNodes>
          <leafValues>
            -1.8630160391330719e-01 4.7061628103256226e-01</leafValues></_>
        <_>
          <internalNodes>
            0 -1 208 6.2503904104232788e-02</internalNodes>
          <leafValues>
            -1.5530280768871307e-01 5.9036141633987427e-01</leafValues></_>
        <_>
          <internalNodes>
            0 -1 321 -3.2317111617885530e-04</internalNodes>
          <leafValues>
            -5.2073925733566284e-01 1.8534381687641144e-01</leafValues></_>
        <_>
          <internalNodes>
            0 -1 65 -8.0392315983772278e-02</internalNodes>
          <leafValues>
            1.8188916146755219e-01 -4.7636482119560242e-01</leafValues></_>
        <_>
          <internalNodes>
            0 -1 334 4.0221765637397766e-02</internalNodes>
          <leafValues>
            -1.9473758339881897e-01 4.6851363778114319e-01</leafValues></_>
        <_>
          <internalNodes>
            0 -1 52 -8.1326492130756378e-02</internalNodes>
          <leafValues>
            -7.9480159282684326e-01 1.2127367407083511e-01</leafValues></_>
        <_>
          <internalNodes>
            0 -1 2 -1.7294967174530029e-01</internalNodes>
          <leafValues>
            -7.5955533981323242e-01 9.6127912402153015e-02</leafValues></_>
        <_>
          <internalNodes>
            0 -1 359 2.0108946773689240e-04</internalNodes>
          <leafValues>
            1.6735841333866119e-01 -5.0997674465179443e-01</leafValues></_></weakClassifiers></_>
    <!-- stage 2 -->
    <_>
      <maxWeakCount>20</maxWeakCount>
      <stageThreshold>-1.8658730983734131e+00</stageThreshold>
      <weakClassifiers>
        <_>
          <internalNodes>
            0 -1 394 2.9026580974459648e-02</internalNodes>
          <leafValues>
            -6.2102103233337402e-01 1.0149253904819489e-01</leafValues></_>
        <_>
          <internalNodes>
            0 -1 21 6.7508928477764130e-03</internalNodes>
          <leafValues>
            -3.0937567353248596e-01 3.4212797880172729e-01</leafValues></_>
        <_>
          <internalNodes>
            0 -1 303 6.3661229796707630e-03</internalNodes>
          <leafValues>
            2.1885718405246735e-01 -4.5087453722953796e-01</leafValues></_>
        <_>
          <internalNodes>
            0 -1 323 5.5629709095228463e-05</internalNodes>
          <leafValues>
            1.4559443295001984e-01 -5.1617294549942017e-01</leafValues></_>
        <_>
          <internalNodes>
            0 -1 223 -8.9007794857025146e-02</internalNodes>
          <leafValues>
            6.2431496381759644e-01 -1.0968729108572006e-01</leafValues></_>
        <_>
          <internalNodes>
            0 -1 281 5.5386982858181000e-02</internalNodes>
          <leafValues>
            -2.2311121225357056e-01 4.3482330441474915e-01</leafValues></_>
        <_>
          <internalNodes>
            0 -1 271 2.1545402705669403e-02</internalNodes>
          <leafValues>
            -1.7011453211307526e-01 4.4280108809471130e-01</leafValues></_>
        <_>
          <internalNodes>
            0 -1 293 5.5684038670733571e-05</internalNodes>
          <leafValues>
            1.5162441134452820e-01 -4.6345511078834534e-01</leafValues></_>
        <_>
          <internalNodes>
            0 -1 290 1.9409522414207458e-02</internalNodes>
          <leafValues>
            -1.4351294934749603e-01 4.8507487773895264e-01</leafValues></_>
        <_>
          <internalNodes>
            0 -1 105 -1.7736405134201050e-01</internalNodes>
          <leafValues>
            2.1207824349403381e-01 -3.6961978673934937e-01</leafValues></_>
        <_>
          <internalNodes>
            0 -1 50 -1.3096870854496956e-02</internalNodes>
          <leafValues>
            3.0955293774604797e-01 -2.2373159229755402e-01</leafValues></_>
        <_>
          <internalNodes>
            0 -1 280 1.8724344670772552e-02</internalNodes>
          <leafValues>
            -1.6837477684020996e-01 3.8653838634490967e-01</leafValues></_>
        <_>
          <internalNodes>
            0 -1 175 -6.2759238062426448e-05</internalNodes>
          <leafValues>
            -3.8203811645507812e-01 1.8189790844917297e-01</leafValues></_>
        <_>
          <internalNodes>
            0 -1 169 -2.5249198079109192e-02</internalNodes>
          <leafValues>
            4.9301457405090332e-01 -1.7046232521533966e-01</leafValues></_>
        <_>
          <internalNodes>
            0 -1 233 -6.3469812273979187e-02</internalNodes>
          <leafValues>
            6.4326840639114380e-01 -1.1145918816328049e-01</leafValues></_>
        <_>
          <internalNodes>
            0 -1 244 -1.2937691644765437e-04</internalNodes>
          <leafValues>
            -4.3153101205825806e-01 1.9392184913158417e-01</leafValues></_>
        <_>
          <internalNodes>
            0 -1 149 1.2026160955429077e-02</internalNodes>
          <leafValues>
            -1.8323919177055359e-01 4.1451713442802429e-01</leafValues></_>
        <_>
          <internalNodes>
            0 -1 295 -1.6916816821321845e-04</internalNodes>
          <leafValues>
            -3.4830668568611145e-01 1.9591759145259857e-01</leafValues></_>
        <_>
          <internalNodes>
            0 -1 198 -5.6495722383260727e-03</internalNodes>
          <leafValues>
            3.8262340426445007e-01 -1.7009465396404266e-01</leafValues></_>
        <_>
          <internalNodes>
            0 -1 313 -3.7149041891098022e-02</internalNodes>
          <leafValues>
            4.3476331233978271e-01 -1.4801043272018433e-01</leafValues></_></weakClassifiers></_>
    <!-- stage 3 -->
    <_>
      <maxWeakCount>20</maxWeakCount>
      <stageThreshold>-1.7255855798721313e+00</stageThreshold>
      <weakClassifiers>
        <_>
          <internalNodes>
            0 -1 193 9.0064361691474915e-02</internalNodes>
          <leafValues>
            -5.5304026603698730e-01 5.0248754024505615e-01</leafValues></_>
        <_>
          <internalNodes>
            0 -1 178 5.6027089158305898e-05</internalNodes>
          <leafValues>
            1.1048746854066849e-01 -5.1276642084121704e-01</leafValues></_>
        <_>
          <internalNodes>
            0 -1 178 -6.6247093491256237e-04</internalNodes>
          <leafValues>
            -5.0826543569564819e-01 1.5858159959316254e-01</leafValues></_>
        <_>
          <internalNodes>
            0 -1 30 3.3622011542320251e-02</internalNodes>
          <leafValues>
            -1.8197986483573914e-01 4.2516654729843140e-01</leafValues></_>
        <_>
          <internalNodes>
            0 -1 445 -1.0867587290704250e-02</internalNodes>
          <leafValues>
            4.2845785617828369e-01 -1.6584731638431549e-01</leafValues></_>
        <_>
          <internalNodes>
            0 -1 382 8.8877184316515923e-04</internalNodes>
          <leafValues>
            1.1849099397659302e-01 -6.5124434232711792e-01</leafValues></_>
        <_>
          <internalNodes>
            0 -1 382 -8.2147633656859398e-04</internalNodes>
          <leafValues>
            -5.8279967308044434e-01 1.7443488538265228e-01</leafValues></_>
        <_>
          <internalNodes>
            0 -1 32 -3.9956972002983093e-01</internalNodes>
          <leafValues>
            -8.9405274391174316e-01 5.8559507131576538e-02</leafValues></_>
        <_>
          <internalNodes>
            0 -1 68 -1.5330195426940918e-01</internalNodes>
          <leafValues>
            2.4217495322227478e-01 -3.0325329303741455e-01</leafValues></_>
        <_>
          <internalNodes>
            0 -1 29 1.7941165715456009e-02</internalNodes>
          <leafValues>
            1.1136959493160248e-01 -6.0970306396484375e-01</leafValues></_>
        <_>
          <internalNodes>
            0 -1 279 7.0211542770266533e-03</internalNodes>
          <leafValues>
            -1.5164127945899963e-01 4.4849029183387756e-01</leafValues></_>
        <_>
          <internalNodes>
            0 -1 324 4.6588008990511298e-04</internalNodes>
          <leafValues>
            1.3919709622859955e-01 -4.3810355663299561e-01</leafValues></_>
        <_>
          <internalNodes>
            0 -1 241 -1.5564791858196259e-02</internalNodes>
          <leafValues>
            4.4011169672012329e-01 -1.5781684219837189e-01</leafValues></_>
        <_>
          <internalNodes>
            0 -1 276 -1.6154134937096387e-04</internalNodes>
          <leafValues>
            -4.6170654892921448e-01 1.7908670008182526e-01</leafValues></_>
        <_>
          <internalNodes>
            0 -1 58 7.0463819429278374e-03</internalNodes>
          <leafValues>
            -1.9828487932682037e-01 3.5362511873245239e-01</leafValues></_>
        <_>
          <internalNodes>
            0 -1 165 1.2467376887798309e-02</internalNodes>
          <leafValues>
            -1.2562264502048492e-01 5.0107556581497192e-01</leafValues></_>
        <_>
          <internalNodes>
            0 -1 141 -4.5550812035799026e-02</internalNodes>
          <leafValues>
            6.2150490283966064e-01 -1.0129614919424057e-01</leafValues></_>
        <_>
          <internalNodes>
            0 -1 341 -5.4644705960527062e-04</internalNodes>
          <leafValues>
            -4.3537962436676025e-01 1.8372786045074463e-01</leafValues></_>
        <_>
          <internalNodes>
            0 -1 341 9.7649390227161348e-05</internalNodes>
          <leafValues>
            1.7253857851028442e-01 -5.7090830802917480e-01</leafValues></_>
        <_>
          <internalNodes>
            0 -1 386 1.0398981394246221e-03</internalNodes>
          <leafValues>
            -2.8683382272720337e-01 2.4039143323898315e-01</leafValues></_></weakClassifiers></_>
    <!-- stage 4 -->
    <_>
      <maxWeakCount>21</maxWeakCount>
      <stageThreshold>-1.5769068002700806e+00</stageThreshold>
      <weakClassifiers>
        <_>
          <internalNodes>
            0 -1 63 -8.9856758713722229e-03</internalNodes>
          <leafValues>
            -4.9132946878671646e-02 -5.9431678056716919e-01</leafValues></_>
        <_>
          <internalNodes>
            0 -1 214 -1.2959263403899968e-04</internalNodes>
          <leafValues>
            -5.1275074481964111e-01 1.0030560195446014e-01</leafValues></_>
        <_>
          <internalNodes>
            0 -1 40 1.4939060434699059e-02</internalNodes>
          <leafValues>
            -1.9259342551231384e-01 3.8205718994140625e-01</leafValues></_>
        <_>
          <internalNodes>
            0 -1 340 -4.3717221706174314e-04</internalNodes>
          <leafValues>
            -5.2919650077819824e-01 1.3885568082332611e-01</leafValues></_>
        <_>
          <internalNodes>
            0 -1 370 1.1081738397479057e-02</internalNodes>
          <leafValues>
            -1.6192741692066193e-01 3.8574588298797607e-01</leafValues></_>
        <_>
          <internalNodes>
            0 -1 60 2.3427978157997131e-02</internalNodes>
          <leafValues>
            -1.6035546362400055e-01 3.6794978380203247e-01</leafValues></_>
        <_>
          <internalNodes>
            0 -1 331 -7.7972994185984135e-03</internalNodes>
          <leafValues>
            2.3095917701721191e-01 -2.6262664794921875e-01</leafValues></_>
        <_>
          <internalNodes>
            0 -1 214 4.0971982525661588e-04</internalNodes>
          <leafValues>
            1.5521453320980072e-01 -4.0181973576545715e-01</leafValues></_>
        <_>
          <internalNodes>
            0 -1 207 6.0443878173828125e-02</internalNodes>
          <leafValues>
            -1.4123582839965820e-01 5.0614756345748901e-01</leafValues></_>
        <_>
          <internalNodes>
            0 -1 368 -4.0586187969893217e-04</internalNodes>
          <leafValues>
            -4.5194631814956665e-01 1.5015859901905060e-01</leafValues></_>
        <_>
          <internalNodes>
            0 -1 377 -4.9058124423027039e-02</internalNodes>
          <leafValues>
            2.7957981824874878e-01 -2.2360749542713165e-01</leafValues></_>
        <_>
          <internalNodes>
            0 -1 137 -3.2328259199857712e-02</internalNodes>
          <leafValues>
            5.3071880340576172e-01 -1.1429256945848465e-01</leafValues></_>
        <_>
          <internalNodes>
            0 -1 170 5.2328403398860246e-05</internalNodes>
          <leafValues>
            1.8023872375488281e-01 -4.0441575646400452e-01</leafValues></_>
        <_>
          <internalNodes>
            0 -1 424 4.3079485185444355e-03</internalNodes>
          <leafValues>
            -1.2597772479057312e-01 5.3347206115722656e-01</leafValues></_>
        <_>
          <internalNodes>
            0 -1 387 -7.7612414024770260e-03</internalNodes>
          <leafValues>
            3.1472012400627136e-01 -1.9676980376243591e-01</leafValues></_>
        <_>
          <internalNodes>
            0 -1 256 -7.2735846042633057e-02</internalNodes>
          <leafValues>
            6.3372039794921875e-01 -9.8753258585929871e-02</leafValues></_>
        <_>
          <internalNodes>
            0 -1 136 3.7838872522115707e-02</internalNodes>
          <leafValues>
            -1.7581355571746826e-01 4.2196017503738403e-01</leafValues></_>
        <_>
          <internalNodes>
            0 -1 259 1.2411113129928708e-04</internalNodes>
          <leafValues>
            1.6558016836643219e-01 -4.1148874163627625e-01</leafValues></_>
        <_>
          <internalNodes>
            0 -1 182 1.7932537011802197e-03</internalNodes>
          <leafValues>
            -2.5035718083381653e-01 2.5458624958992004e-01</leafValues></_>
        <_>
          <internalNodes>
            0 -1 229 4.3415039777755737e-02</internalNodes>
          <leafValues>
            -1.3263511657714844e-01 4.1477307677268982e-01</leafValues></_>
        <_>
          <internalNodes>
            0 -1 88 8.4391787648200989e-02</internalNodes>
          <leafValues>
            -1.2958361208438873e-01 6.0831832885742188e-01</leafValues></_></weakClassifiers></_>
    <!-- stage 5 -->
    <_>
      <maxWeakCount>26</maxWeakCount>
      <stageThreshold>-1.5089904069900513e+00</stageThreshold>
      <weakClassifiers>
        <_>
          <internalNodes>
            0 -1 311 -2.1332193166017532e-02</internalNodes>
          <leafValues>
            3.9906102418899536e-01 -5.5056774616241455e-01</leafValues></_>
        <_>
          <internalNodes>
            0 -1 116 -6.1110332608222961e-02</internalNodes>
          <leafValues>
            1.3896977901458740e-01 -4.0716743469238281e-01</leafValues></_>
        <_>
          <internalNodes>
            0 -1 174 -7.8077137470245361e-02</internalNodes>
          <leafValues>
            5.4071742296218872e-01 -1.1525645107030869e-01</leafValues></_>
        <_>
          <internalNodes>
            0 -1 339 -5.7814287720248103e-04</internalNodes>
          <leafValues>
            -4.6134594082832336e-01 1.4161160588264465e-01</leafValues></_>
        <_>
          <internalNodes>
            0 -1 339 5.3774907428305596e-05</internalNodes>
          <leafValues>
            1.6938510537147522e-01 -3.6973065137863159e-01</leafValues></_>
        <_>
          <internalNodes>
            0 -1 54 6.5369745716452599e-03</internalNodes>
          <leafValues>
            -2.3922248184680939e-01 2.8609797358512878e-01</leafValues></_>
        <_>
          <internalNodes>
            0 -1 183 2.6477754116058350e-01</internalNodes>
          <leafValues>
            7.5699344277381897e-02 -9.1646873950958252e-01</leafValues></_>
        <_>
          <internalNodes>
            0 -1 6 -7.8235581517219543e-02</internalNodes>
          <leafValues>
            -5.2038186788558960e-01 9.1313369572162628e-02</leafValues></_>
        <_>
          <internalNodes>
            0 -1 16 4.1344560682773590e-02</internalNodes>
          <leafValues>
            6.4898356795310974e-02 -6.6426390409469604e-01</leafValues></_>
        <_>
          <internalNodes>
            0 -1 142 2.1508108824491501e-02</internalNodes>
          <leafValues>
            -1.2912560999393463e-01 4.9055793881416321e-01</leafValues></_>
        <_>
          <internalNodes>
            0 -1 161 -2.6712171733379364e-02</internalNodes>
          <leafValues>
            4.4421541690826416e-01 -1.2656757235527039e-01</leafValues></_>
        <_>
          <internalNodes>
            0 -1 22 2.2282857447862625e-02</internalNodes>
          <leafValues>
            -2.1562501788139343e-01 2.5701290369033813e-01</leafValues></_>
        <_>
          <internalNodes>
            0 -1 403 2.8496154118329287e-04</internalNodes>
          <leafValues>
            1.1754472553730011e-01 -4.4373604655265808e-01</leafValues></_>
        <_>
          <internalNodes>
            0 -1 353 -4.4995169155299664e-03</internalNodes>
          <leafValues>
            2.7828583121299744e-01 -1.9160151481628418e-01</leafValues></_>
        <_>
          <internalNodes>
            0 -1 416 -3.3689173869788647e-03</internalNodes>
          <leafValues>
            4.9041065573692322e-01 -1.1246664077043533e-01</leafValues></_>
        <_>
          <internalNodes>
            0 -1 178 5.6315948313567787e-05</internalNodes>
          <leafValues>
            1.3126303255558014e-01 -4.3068751692771912e-01</leafValues></_>
        <_>
          <internalNodes>
            0 -1 184 -5.4917791858315468e-03</internalNodes>
          <leafValues>
            3.5273945331573486e-01 -1.5615418553352356e-01</leafValues></_>
        <_>
          <internalNodes>
            0 -1 178 -1.0680458508431911e-03</internalNodes>
          <leafValues>
            -4.7978460788726807e-01 1.0661835968494415e-01</leafValues></_>
        <_>
          <internalNodes>
            0 -1 225 -1.1732231825590134e-01</internalNodes>
          <leafValues>
            5.4800295829772949e-01 -9.8453313112258911e-02</leafValues></_>
        <_>
          <internalNodes>
            0 -1 324 -4.8902112757787108e-04</internalNodes>
          <leafValues>
            -4.5326042175292969e-01 1.2248539924621582e-01</leafValues></_>
        <_>
          <internalNodes>
            0 -1 122 6.7447517067193985e-03</internalNodes>
          <leafValues>
            -1.7591151595115662e-01 2.9716807603836060e-01</leafValues></_>
        <_>
          <internalNodes>
            0 -1 415 2.1345983259379864e-03</internalNodes>
          <leafValues>
            -1.1068824678659439e-01 4.7031137347221375e-01</leafValues></_>
        <_>
          <internalNodes>
            0 -1 268 -4.4148623943328857e-02</internalNodes>
          <leafValues>
            5.9081172943115234e-01 -7.7650792896747589e-02</leafValues></_>
        <_>
          <internalNodes>
            0 -1 282 3.1000489369034767e-02</internalNodes>
          <leafValues>
            -8.2186855375766754e-02 5.8737790584564209e-01</leafValues></_>
        <_>
          <internalNodes>
            0 -1 139 -2.6631645858287811e-02</internalNodes>
          <leafValues>
            4.5074641704559326e-01 -1.0884427279233932e-01</leafValues></_>
        <_>
          <internalNodes>
            0 -1 166 -1.9945953041315079e-02</internalNodes>
          <leafValues>
            7.1849763393402100e-01 -7.1693480014801025e-02</leafValues></_></weakClassifiers></_>
    <!-- stage 6 -->
    <_>
      <maxWeakCount>27</maxWeakCount>
      <stageThreshold>-1.6222456693649292e+00</stageThreshold>
      <weakClassifiers>
        <_>
          <internalNodes>
            0 -1 312 -4.5927911996841431e-02</internalNodes>
          <leafValues>
            1.1977715790271759e-01 -5.6110960245132446e-01</leafValues></_>
        <_>
          <internalNodes>
            0 -1 97 1.5958089381456375e-02</internalNodes>
          <leafValues>
            -2.9735010862350464e-01 1.7259673774242401e-01</leafValues></_>
        <_>
          <internalNodes>
            0 -1 399 -1.6391027718782425e-02</internalNodes>
          <leafValues>
            3.4656968712806702e-01 -1.8143099546432495e-01</leafValues></_>
        <_>
          <internalNodes>
            0 -1 378 4.8589630750939250e-05</internalNodes>
          <leafValues>
            1.3626901805400848e-01 -4.5336899161338806e-01</leafValues></_>
        <_>
          <internalNodes>
            0 -1 426 -1.0940020438283682e-03</internalNodes>
          <leafValues>
            2.5576394796371460e-01 -2.1593068540096283e-01</leafValues></_>
        <_>
          <internalNodes>
            0 -1 92 -1.0523676872253418e-01</internalNodes>
          <leafValues>
            -9.1238254308700562e-01 7.2926692664623260e-02</leafValues></_>
        <_>
          <internalNodes>
            0 -1 340 7.2917900979518890e-04</internalNodes>
          <leafValues>
            9.1975666582584381e-02 -4.8585280776023865e-01</leafValues></_>
        <_>
          <internalNodes>
            0 -1 242 -3.0385712161660194e-02</internalNodes>
          <leafValues>
            5.6700009107589722e-01 -1.1449624598026276e-01</leafValues></_>
        <_>
          <internalNodes>
            0 -1 45 3.2346686348319054e-03</internalNodes>
          <leafValues>
            -2.4322497844696045e-01 2.4095167219638824e-01</leafValues></_>
        <_>
          <internalNodes>
            0 -1 204 -1.2790327309630811e-04</internalNodes>
          <leafValues>
            -3.7767100334167480e-01 1.4630964398384094e-01</leafValues></_>
        <_>
          <internalNodes>
            0 -1 418 5.5947225540876389e-02</internalNodes>
          <leafValues>
            7.8046597540378571e-02 -6.4995294809341431e-01</leafValues></_>
        <_>
          <internalNodes>
            0 -1 8 6.6486805677413940e-02</internalNodes>
          <leafValues>
            8.4322802722454071e-02 -5.5706435441970825e-01</leafValues></_>
        <_>
          <internalNodes>
            0 -1 33 -4.7344619035720825e-01</internalNodes>
          <leafValues>
            -8.2889300584793091e-01 5.7296734303236008e-02</leafValues></_>
        <_>
          <internalNodes>
            0 -1 246 -1.0501397628104314e-04</internalNodes>
          <leafValues>
            -3.7517851591110229e-01 1.2609370052814484e-01</leafValues></_>
        <_>
          <internalNodes>
            0 -1 51 -4.1418528417125344e-04</internalNodes>
          <leafValues>
            2.6433685421943665e-01 -1.9333671033382416e-01</leafValues></_>
        <_>
          <internalNodes>
            0 -1 433 4.2176624992862344e-04</internalNodes>
          <leafValues>
            1.1112010478973389e-01 -4.9650713801383972e-01</leafValues></_>
        <_>
          <internalNodes>
            0 -1 144 -4.2521588504314423e-02</internalNodes>
          <leafValues>
            4.1504091024398804e-01 -1.2291520088911057e-01</leafValues></_>
        <_>
          <internalNodes>
            0 -1 211 -5.9253646759316325e-04</internalNodes>
          <leafValues>
            -4.0428173542022705e-01 1.3610538840293884e-01</leafValues></_>
        <_>
          <internalNodes>
            0 -1 133 -2.2806638851761818e-02</internalNodes>
          <leafValues>
            6.0511314868927002e-01 -9.6978150308132172e-02</leafValues></_>
        <_>
          <internalNodes>
            0 -1 273 5.3901901992503554e-05</internalNodes>
          <leafValues>
            1.3958713412284851e-01 -3.8848939538002014e-01</leafValues></_>
        <_>
          <internalNodes>
            0 -1 266 -1.1959418654441833e-02</internalNodes>
          <leafValues>
            3.5483023524284363e-01 -1.6716989874839783e-01</leafValues></_>
        <_>
          <internalNodes>
            0 -1 190 -6.9256082177162170e-02</internalNodes>
          <leafValues>
            4.6703404188156128e-01 -1.0756858438253403e-01</leafValues></_>
        <_>
          <internalNodes>
            0 -1 395 4.4072948396205902e-02</internalNodes>
          <leafValues>
            -1.2792350351810455e-01 4.3788203597068787e-01</leafValues></_>
        <_>
          <internalNodes>
            0 -1 411 5.4439537052530795e-05</internalNodes>
          <leafValues>
            1.5918469429016113e-01 -3.4409230947494507e-01</leafValues></_>
        <_>
          <internalNodes>
            0 -1 327 -3.4934845753014088e-03</internalNodes>
          <leafValues>
            3.6651059985160828e-01 -1.4122714102268219e-01</leafValues></_>
        <_>
          <internalNodes>
            0 -1 163 3.1567197293043137e-02</internalNodes>
          <leafValues>
            -1.2662956118583679e-01 4.0996897220611572e-01</leafValues></_>
        <_>
          <internalNodes>
            0 -1 206 5.0668688490986824e-03</internalNodes>
          <leafValues>
            -8.7618440389633179e-02 5.3695619106292725e-01</leafValues></_></weakClassifiers></_>
    <!-- stage 7 -->
    <_>
      <maxWeakCount>27</maxWeakCount>
      <stageThreshold>-1.4208278656005859e+00</stageThreshold>
      <weakClassifiers>
        <_>
          <internalNodes>
            0 -1 69 -4.6094711869955063e-02</internalNodes>
          <leafValues>
            4.4285714626312256e-01 -5.3419691324234009e-01</leafValues></_>
        <_>
          <internalNodes>
            0 -1 342 4.9947717343457043e-05</internalNodes>
          <leafValues>
            5.8510527014732361e-02 -4.8540744185447693e-01</leafValues></_>
        <_>
          <internalNodes>
            0 -1 47 6.7063188180327415e-03</internalNodes>
          <leafValues>
            -2.0808649063110352e-01 2.3647625744342804e-01</leafValues></_>
        <_>
          <internalNodes>
            0 -1 211 9.7923715657088906e-05</internalNodes>
          <leafValues>
            1.6930274665355682e-01 -4.0239173173904419e-01</leafValues></_>
        <_>
          <internalNodes>
            0 -1 243 1.7075181007385254e-02</internalNodes>
          <leafValues>
            -1.6242609918117523e-01 3.7538167834281921e-01</leafValues></_>
        <_>
          <internalNodes>
            0 -1 91 -2.1629136055707932e-02</internalNodes>
          <leafValues>
            6.3133668899536133e-01 -7.5723692774772644e-02</leafValues></_>
        <_>
          <internalNodes>
            0 -1 55 1.0122044943273067e-02</internalNodes>
          <leafValues>
            -2.6876339316368103e-01 2.0063596963882446e-01</leafValues></_>
        <_>
          <internalNodes>
            0 -1 4 2.1744790673255920e-01</internalNodes>
          <leafValues>
            7.8744120895862579e-02 -8.1242293119430542e-01</leafValues></_>
        <_>
          <internalNodes>
            0 -1 172 7.1630284190177917e-02</internalNodes>
          <leafValues>
            -1.3745892047882080e-01 4.4916367530822754e-01</leafValues></_>
        <_>
          <internalNodes>
            0 -1 231 1.7550089978612959e-04</internalNodes>
          <leafValues>
            1.2423931062221527e-01 -4.3015071749687195e-01</leafValues></_>
        <_>
          <internalNodes>
            0 -1 160 -5.0156377255916595e-02</internalNodes>
          <leafValues>
            4.0233984589576721e-01 -1.1612676829099655e-01</leafValues></_>
        <_>
          <internalNodes>
            0 -1 103 4.1192665696144104e-02</internalNodes>
          <leafValues>
            -1.3210269808769226e-01 3.9037558436393738e-01</leafValues></_>
        <_>
          <internalNodes>
            0 -1 140 9.3690268695354462e-02</internalNodes>
          <leafValues>
            -9.9969990551471710e-02 4.8682138323783875e-01</leafValues></_>
        <_>
          <internalNodes>
            0 -1 86 6.3168792985379696e-03</internalNodes>
          <leafValues>
            -1.1279705911874771e-01 3.7475866079330444e-01</leafValues></_>
        <_>
          <internalNodes>
            0 -1 230 -2.2773328237235546e-04</internalNodes>
          <leafValues>
            -4.0313157439231873e-01 1.1969021707773209e-01</leafValues></_>
        <_>
          <internalNodes>
            0 -1 34 9.4540184363722801e-04</internalNodes>
          <leafValues>
            -1.5462189912796021e-01 3.0204564332962036e-01</leafValues></_>
        <_>
          <internalNodes>
            0 -1 120 1.8416014499962330e-03</internalNodes>
          <leafValues>
            6.4418755471706390e-02 -7.1434873342514038e-01</leafValues></_>
        <_>
          <internalNodes>
            0 -1 429 -5.8793253265321255e-03</internalNodes>
          <leafValues>
            2.9474616050720215e-01 -1.6482308506965637e-01</leafValues></_>
        <_>
          <internalNodes>
            0 -1 383 -3.4838914871215820e-03</internalNodes>
          <leafValues>
            4.8820829391479492e-01 -8.9436173439025879e-02</leafValues></_>
        <_>
          <internalNodes>
            0 -1 196 -6.8658612668514252e-02</internalNodes>
          <leafValues>
            5.2331787347793579e-01 -8.0445118248462677e-02</leafValues></_>
        <_>
          <internalNodes>
            0 -1 228 5.0193973584100604e-04</internalNodes>
          <leafValues>
            1.1586964875459671e-01 -3.8258168101310730e-01</leafValues></_>
        <_>
          <internalNodes>
            0 -1 126 4.0064235217869282e-03</internalNodes>
          <leafValues>
            -1.0551395267248154e-01 4.3286073207855225e-01</leafValues></_>
        <_>
          <internalNodes>
            0 -1 112 -4.6805031597614288e-02</internalNodes>
          <leafValues>
            9.6890375018119812e-02 -4.7285827994346619e-01</leafValues></_>
        <_>
          <internalNodes>
            0 -1 392 1.9034615252166986e-04</internalNodes>
          <leafValues>
            1.1268655210733414e-01 -3.5687103867530823e-01</leafValues></_>
        <_>
          <internalNodes>
            0 -1 419 -2.7380031533539295e-03</internalNodes>
          <leafValues>
            2.1828976273536682e-01 -2.0246517658233643e-01</leafValues></_>
        <_>
          <internalNodes>
            0 -1 219 5.3249567747116089e-02</internalNodes>
          <leafValues>
            -1.1562182754278183e-01 3.9346617460250854e-01</leafValues></_>
        <_>
          <internalNodes>
            0 -1 263 2.4127154028974473e-04</internalNodes>
          <leafValues>
            1.1949145048856735e-01 -4.0027773380279541e-01</leafValues></_></weakClassifiers></_>
    <!-- stage 8 -->
    <_>
      <maxWeakCount>31</maxWeakCount>
      <stageThreshold>-1.4835376739501953e+00</stageThreshold>
      <weakClassifiers>
        <_>
          <internalNodes>
            0 -1 168 -1.9717261195182800e-02</internalNodes>
          <leafValues>
            2.5862067937850952e-01 -5.4670912027359009e-01</leafValues></_>
        <_>
          <internalNodes>
            0 -1 227 2.5575816631317139e-02</internalNodes>
          <leafValues>
            -2.3758356273174286e-01 2.9007685184478760e-01</leafValues></_>
        <_>
          <internalNodes>
            0 -1 239 4.5302458107471466e-02</internalNodes>
          <leafValues>
            -1.4152917265892029e-01 3.5110080242156982e-01</leafValues></_>
        <_>
          <internalNodes>
            0 -1 53 8.9403241872787476e-02</internalNodes>
          <leafValues>
            6.1621956527233124e-02 -7.9122537374496460e-01</leafValues></_>
        <_>
          <internalNodes>
            0 -1 218 7.2530348552390933e-04</internalNodes>
          <leafValues>
            -1.4206150174140930e-01 2.8528749942779541e-01</leafValues></_>
        <_>
          <internalNodes>
            0 -1 361 -7.0965295890346169e-04</internalNodes>
          <leafValues>
            -4.3401280045509338e-01 9.2567034065723419e-02</leafValues></_>
        <_>
          <internalNodes>
            0 -1 332 -2.6557866483926773e-02</internalNodes>
          <leafValues>
            4.0072903037071228e-01 -1.0136163979768753e-01</leafValues></_>
        <_>
          <internalNodes>
            0 -1 283 6.4692273736000061e-02</internalNodes>
          <leafValues>
            -1.5270906686782837e-01 3.1289258599281311e-01</leafValues></_>
        <_>
          <internalNodes>
            0 -1 71 1.1114415246993303e-03</internalNodes>
          <leafValues>
            -1.1599591374397278e-01 3.8011613488197327e-01</leafValues></_>
        <_>
          <internalNodes>
            0 -1 5 4.0596596896648407e-02</internalNodes>
          <leafValues>
            -2.8839120268821716e-01 1.6581837832927704e-01</leafValues></_>
        <_>
          <internalNodes>
            0 -1 150 -1.2164575979113579e-02</internalNodes>
          <leafValues>
            5.3934907913208008e-01 -8.9970730245113373e-02</leafValues></_>
        <_>
          <internalNodes>
            0 -1 94 1.5763465315103531e-02</internalNodes>
          <leafValues>
            6.7576132714748383e-02 -7.3285567760467529e-01</leafValues></_>
        <_>
          <internalNodes>
            0 -1 403 -8.0816412810236216e-04</internalNodes>
          <leafValues>
            -4.7526919841766357e-01 7.9945802688598633e-02</leafValues></_>
        <_>
          <internalNodes>
            0 -1 415 -2.0704963244497776e-03</internalNodes>
          <leafValues>
            4.4347688555717468e-01 -9.9399171769618988e-02</leafValues></_>
        <_>
          <internalNodes>
            0 -1 415 1.1235547717660666e-03</internalNodes>
          <leafValues>
            -1.3025183975696564e-01 3.2501402497291565e-01</leafValues></_>
        <_>
          <internalNodes>
            0 -1 325 1.6170264279935509e-04</internalNodes>
          <leafValues>
            1.0518753528594971e-01 -4.2870631814002991e-01</leafValues></_>
        <_>
          <internalNodes>
            0 -1 102 2.1103955805301666e-03</internalNodes>
          <leafValues>
            -1.6660624742507935e-01 2.6284015178680420e-01</leafValues></_>
        <_>
          <internalNodes>
            0 -1 325 -6.6029303707182407e-04</internalNodes>
          <leafValues>
            -3.4039896726608276e-01 1.2472959607839584e-01</leafValues></_>
        <_>
          <internalNodes>
            0 -1 18 3.6903885193169117e-03</internalNodes>
          <leafValues>
            -2.0644998550415039e-01 2.1895977854728699e-01</leafValues></_>
        <_>
          <internalNodes>
            0 -1 274 -2.3225992918014526e-02</internalNodes>
          <leafValues>
            5.4517787694931030e-01 -8.4373287856578827e-02</leafValues></_>
        <_>
          <internalNodes>
            0 -1 443 2.5423383340239525e-03</internalNodes>
          <leafValues>
            9.9232152104377747e-02 -5.1276743412017822e-01</leafValues></_>
        <_>
          <internalNodes>
            0 -1 238 2.1555215120315552e-02</internalNodes>
          <leafValues>
            -1.5250703692436218e-01 2.8213116526603699e-01</leafValues></_>
        <_>
          <internalNodes>
            0 -1 285 -1.6408745199441910e-02</internalNodes>
          <leafValues>
            3.1718069314956665e-01 -1.5661922097206116e-01</leafValues></_>
        <_>
          <internalNodes>
            0 -1 222 3.2415505498647690e-02</internalNodes>
          <leafValues>
            -1.1408587545156479e-01 4.0107133984565735e-01</leafValues></_>
        <_>
          <internalNodes>
            0 -1 292 -6.3363127410411835e-03</internalNodes>
          <leafValues>
            8.4281241893768311e-01 -4.7779772430658340e-02</leafValues></_>
        <_>
          <internalNodes>
            0 -1 178 -1.5388015526696108e-05</internalNodes>
          <leafValues>
            1.9075994193553925e-01 -2.1273389458656311e-01</leafValues></_>
        <_>
          <internalNodes>
            0 -1 128 -4.9603179097175598e-02</internalNodes>
          <leafValues>
            8.0887478590011597e-01 -7.1130022406578064e-02</leafValues></_>
        <_>
          <internalNodes>
            0 -1 420 -2.0356588065624237e-03</internalNodes>
          <leafValues>
            4.3988069891929626e-01 -8.5557095706462860e-02</leafValues></_>
        <_>
          <internalNodes>
            0 -1 397 -5.0177879165858030e-04</internalNodes>
          <leafValues>
            -3.7871471047401428e-01 1.1635553091764450e-01</leafValues></_>
        <_>
          <internalNodes>
            0 -1 364 -1.1463488044682890e-04</internalNodes>
          <leafValues>
            -3.0387628078460693e-01 1.3427807390689850e-01</leafValues></_>
        <_>
          <internalNodes>
            0 -1 363 6.8631547037512064e-04</internalNodes>
          <leafValues>
            1.3964112102985382e-01 -3.3544591069221497e-01</leafValues></_></weakClassifiers></_>
    <!-- stage 9 -->
    <_>
      <maxWeakCount>27</maxWeakCount>
      <stageThreshold>-1.3973364830017090e+00</stageThreshold>
      <weakClassifiers>
        <_>
          <internalNodes>
            0 -1 409 7.8117502853274345e-03</internalNodes>
          <leafValues>
            -5.8452010154724121e-01 -1.4545454084873199e-01</leafValues></_>
        <_>
          <internalNodes>
            0 -1 74 1.6615960747003555e-02</internalNodes>
          <leafValues>
            -2.3048366606235504e-01 1.9916093349456787e-01</leafValues></_>
        <_>
          <internalNodes>
            0 -1 201 -5.9936597943305969e-02</internalNodes>
          <leafValues>
            4.4144299626350403e-01 -1.0582188516855240e-01</leafValues></_>
        <_>
          <internalNodes>
            0 -1 13 1.5371091649285518e-05</internalNodes>
          <leafValues>
            -2.1812364459037781e-01 2.0306022465229034e-01</leafValues></_>
        <_>
          <internalNodes>
            0 -1 371 2.1493339445441961e-03</internalNodes>
          <leafValues>
            8.2021832466125488e-02 -5.2869772911071777e-01</leafValues></_>
        <_>
          <internalNodes>
            0 -1 237 1.0558927897363901e-03</internalNodes>
          <leafValues>
            -2.1538093686103821e-01 2.2114609181880951e-01</leafValues></_>
        <_>
          <internalNodes>
            0 -1 248 -2.6748383045196533e-01</internalNodes>
          <leafValues>
            -6.8098616600036621e-01 5.0702206790447235e-02</leafValues></_>
        <_>
          <internalNodes>
            0 -1 267 7.4659101665019989e-04</internalNodes>
          <leafValues>
            1.0451615601778030e-01 -4.4631534814834595e-01</leafValues></_>
        <_>
          <internalNodes>
            0 -1 267 -2.3024232359603047e-04</internalNodes>
          <leafValues>
            -4.1259634494781494e-01 1.2919445335865021e-01</leafValues></_>
        <_>
          <internalNodes>
            0 -1 185 -5.4156752303242683e-03</internalNodes>
          <leafValues>
            2.0780783891677856e-01 -2.2117955982685089e-01</leafValues></_>
        <_>
          <internalNodes>
            0 -1 95 2.8995091561228037e-03</internalNodes>
          <leafValues>
            5.4878067225217819e-02 -6.9318413734436035e-01</leafValues></_>
        <_>
          <internalNodes>
            0 -1 449 -2.7220454066991806e-03</internalNodes>
          <leafValues>
            3.0540126562118530e-01 -1.4444988965988159e-01</leafValues></_>
        <_>
          <internalNodes>
            0 -1 209 3.2781995832920074e-02</internalNodes>
          <leafValues>
            -8.5885621607303619e-02 4.8891115188598633e-01</leafValues></_>
        <_>
          <internalNodes>
            0 -1 173 -8.5676312446594238e-02</internalNodes>
          <leafValues>
            5.1856541633605957e-01 -7.3662683367729187e-02</leafValues></_>
        <_>
          <internalNodes>
            0 -1 298 4.1935862100217491e-05</internalNodes>
          <leafValues>
            1.0736662894487381e-01 -3.9460238814353943e-01</leafValues></_>
        <_>
          <internalNodes>
            0 -1 14 2.5338348932564259e-03</internalNodes>
          <leafValues>
            -1.8849182128906250e-01 2.5783354043960571e-01</leafValues></_>
        <_>
          <internalNodes>
            0 -1 221 1.7203599214553833e-02</internalNodes>
          <leafValues>
            -9.2526741325855255e-02 4.9825495481491089e-01</leafValues></_>
        <_>
          <internalNodes>
            0 -1 348 -4.3398182606324553e-04</internalNodes>
          <leafValues>
            2.9381677508354187e-01 -1.4217640459537506e-01</leafValues></_>
        <_>
          <internalNodes>
            0 -1 451 -4.1688852943480015e-03</internalNodes>
          <leafValues>
            -4.9845269322395325e-01 8.2533515989780426e-02</leafValues></_>
        <_>
          <internalNodes>
            0 -1 180 -3.4667733311653137e-01</internalNodes>
          <leafValues>
            -9.2824894189834595e-01 3.6113765090703964e-02</leafValues></_>
        <_>
          <internalNodes>
            0 -1 171 2.3217674344778061e-02</internalNodes>
          <leafValues>
            -1.6705538332462311e-01 2.5563275814056396e-01</leafValues></_>
        <_>
          <internalNodes>
            0 -1 365 5.2011906518600881e-05</internalNodes>
          <leafValues>
            1.1103495955467224e-01 -4.3968626856803894e-01</leafValues></_>
        <_>
          <internalNodes>
            0 -1 425 6.3745258376002312e-03</internalNodes>
          <leafValues>
            -1.3417339324951172e-01 3.0839946866035461e-01</leafValues></_>
        <_>
          <internalNodes>
            0 -1 141 4.6707503497600555e-02</internalNodes>
          <leafValues>
            -9.2485181987285614e-02 4.3927311897277832e-01</leafValues></_>
        <_>
          <internalNodes>
            0 -1 15 2.2824110463261604e-02</internalNodes>
          <leafValues>
            7.5887195765972137e-02 -5.9255558252334595e-01</leafValues></_>
        <_>
          <internalNodes>
            0 -1 35 1.4608520359615795e-05</internalNodes>
          <leafValues>
            -1.7951115965843201e-01 2.3679892718791962e-01</leafValues></_>
        <_>
          <internalNodes>
            0 -1 337 2.4319151998497546e-04</internalNodes>
          <leafValues>
            1.0127969831228256e-01 -3.9666256308555603e-01</leafValues></_></weakClassifiers></_>
    <!-- stage 10 -->
    <_>
      <maxWeakCount>34</maxWeakCount>
      <stageThreshold>-1.4586355686187744e+00</stageThreshold>
      <weakClassifiers>
        <_>
          <internalNodes>
            0 -1 134 8.6388193070888519e-02</internalNodes>
          <leafValues>
            -5.5997759103775024e-01 -4.6296296641230583e-03</leafValues></_>
        <_>
          <internalNodes>
            0 -1 96 3.0768474971409887e-05</internalNodes>
          <leafValues>
            -2.8322431445121765e-01 1.5257687866687775e-01</leafValues></_>
        <_>
          <internalNodes>
            0 -1 317 6.7718105856329203e-04</internalNodes>
          <leafValues>
            8.7956309318542480e-02 -4.9085655808448792e-01</leafValues></_>
        <_>
          <internalNodes>
            0 -1 7 -6.6924154758453369e-02</internalNodes>
          <leafValues>
            -4.7056493163108826e-01 1.1490098387002945e-01</leafValues></_>
        <_>
          <internalNodes>
            0 -1 203 -1.9863629713654518e-02</internalNodes>
          <leafValues>
            5.4039752483367920e-01 -8.2096971571445465e-02</leafValues></_>
        <_>
          <internalNodes>
            0 -1 355 6.8103671073913574e-02</internalNodes>
          <leafValues>
            -1.9629821181297302e-01 2.5629755854606628e-01</leafValues></_>
        <_>
          <internalNodes>
            0 -1 236 -1.2287809513509274e-02</internalNodes>
          <leafValues>
            3.1322070956230164e-01 -1.3806252181529999e-01</leafValues></_>
        <_>
          <internalNodes>
            0 -1 258 -4.7664619982242584e-02</internalNodes>
          <leafValues>
            5.1046615839004517e-01 -8.6135923862457275e-02</leafValues></_>
        <_>
          <internalNodes>
            0 -1 317 -7.3741655796766281e-04</internalNodes>
          <leafValues>
            -4.5568865537643433e-01 9.6884846687316895e-02</leafValues></_>
        <_>
          <internalNodes>
            0 -1 438 5.8052767999470234e-03</internalNodes>
          <leafValues>
            -1.1051536351442337e-01 3.7503162026405334e-01</leafValues></_>
        <_>
          <internalNodes>
            0 -1 454 -4.4167131185531616e-02</internalNodes>
          <leafValues>
            -8.9433872699737549e-01 4.4659562408924103e-02</leafValues></_>
        <_>
          <internalNodes>
            0 -1 215 -8.6935568833723664e-04</internalNodes>
          <leafValues>
            -3.6967372894287109e-01 8.6887992918491364e-02</leafValues></_>
        <_>
          <internalNodes>
            0 -1 215 -3.4444514312781394e-05</internalNodes>
          <leafValues>
            2.0642307400703430e-01 -2.5981020927429199e-01</leafValues></_>
        <_>
          <internalNodes>
            0 -1 127 8.2204997539520264e-02</internalNodes>
          <leafValues>
            -1.0142461210489273e-01 3.8085156679153442e-01</leafValues></_>
        <_>
          <internalNodes>
            0 -1 11 2.5384217500686646e-01</internalNodes>
          <leafValues>
            5.5910572409629822e-02 -7.6052737236022949e-01</leafValues></_>
        <_>
          <internalNodes>
            0 -1 247 6.9931140169501305e-03</internalNodes>
          <leafValues>
            -2.2540925443172455e-01 1.9947075843811035e-01</leafValues></_>
        <_>
          <internalNodes>
            0 -1 310 -7.8331667464226484e-04</internalNodes>
          <leafValues>
            -4.4992998242378235e-01 9.0253271162509918e-02</leafValues></_>
        <_>
          <internalNodes>
            0 -1 250 -6.0504204593598843e-03</internalNodes>
          <leafValues>
            3.7301459908485413e-01 -1.0596474260091782e-01</leafValues></_>
        <_>
          <internalNodes>
            0 -1 108 -3.9426170289516449e-02</internalNodes>
          <leafValues>
            1.9508697092533112e-01 -2.0287877321243286e-01</leafValues></_>
        <_>
          <internalNodes>
            0 -1 391 1.3171625323593616e-04</internalNodes>
          <leafValues>
            1.1605524271726608e-01 -3.2794564962387085e-01</leafValues></_>
        <_>
          <internalNodes>
            0 -1 440 6.8808952346444130e-04</internalNodes>
          <leafValues>
            -1.3754341006278992e-01 2.9398268461227417e-01</leafValues></_>
        <_>
          <internalNodes>
            0 -1 440 -9.1577472630888224e-04</internalNodes>
          <leafValues>
            3.9635670185089111e-01 -1.2896503508090973e-01</leafValues></_>
        <_>
          <internalNodes>
            0 -1 402 -3.4896479919552803e-03</internalNodes>
          <leafValues>
            -5.3421175479888916e-01 7.4657917022705078e-02</leafValues></_>
        <_>
          <internalNodes>
            0 -1 121 7.8623946756124496e-03</internalNodes>
          <leafValues>
            4.2351454496383667e-02 -7.6716822385787964e-01</leafValues></_>
        <_>
          <internalNodes>
            0 -1 369 -2.3276189342141151e-02</internalNodes>
          <leafValues>
            -6.6587322950363159e-01 4.2816687375307083e-02</leafValues></_>
        <_>
          <internalNodes>
            0 -1 107 -5.4836221970617771e-03</internalNodes>
          <leafValues>
            5.4399383068084717e-01 -7.1514546871185303e-02</leafValues></_>
        <_>
          <internalNodes>
            0 -1 284 -5.4254680435406044e-05</internalNodes>
          <leafValues>
            -2.7179667353630066e-01 1.4220039546489716e-01</leafValues></_>
        <_>
          <internalNodes>
            0 -1 289 3.1229257583618164e-02</internalNodes>
          <leafValues>
            -6.5565399825572968e-02 5.9765738248825073e-01</leafValues></_>
        <_>
          <internalNodes>
            0 -1 286 3.9173349738121033e-02</internalNodes>
          <leafValues>
            -1.1632413417100906e-01 3.3411595225334167e-01</leafValues></_>
        <_>
          <internalNodes>
            0 -1 365 -1.1284186039119959e-03</internalNodes>
          <leafValues>
            -4.5940095186233521e-01 9.6447370946407318e-02</leafValues></_>
        <_>
          <internalNodes>
            0 -1 76 7.2898278012871742e-03</internalNodes>
          <leafValues>
            7.1456953883171082e-02 -4.7873288393020630e-01</leafValues></_>
        <_>
          <internalNodes>
            0 -1 43 -3.1067000236362219e-04</internalNodes>
          <leafValues>
            3.1639453768730164e-01 -1.2925887107849121e-01</leafValues></_>
        <_>
          <internalNodes>
            0 -1 396 1.0584229312371463e-04</internalNodes>
          <leafValues>
            1.1142268031835556e-01 -3.3707895874977112e-01</leafValues></_>
        <_>
          <internalNodes>
            0 -1 101 2.6107756420969963e-03</internalNodes>
          <leafValues>
            -1.8831241130828857e-01 2.0627181231975555e-01</leafValues></_></weakClassifiers></_>
    <!-- stage 11 -->
    <_>
      <maxWeakCount>30</maxWeakCount>
      <stageThreshold>-1.4073032140731812e+00</stageThreshold>
      <weakClassifiers>
        <_>
          <internalNodes>
            0 -1 89 5.4754931479692459e-03</internalNodes>
          <leafValues>
            -5.5476057529449463e-01 4.3715845793485641e-02</leafValues></_>
        <_>
          <internalNodes>
            0 -1 61 -2.7225160738453269e-04</internalNodes>
          <leafValues>
            2.3785892128944397e-01 -2.1469160914421082e-01</leafValues></_>
        <_>
          <internalNodes>
            0 -1 450 5.4323684889823198e-04</internalNodes>
          <leafValues>
            -1.5263752639293671e-01 2.7620691061019897e-01</leafValues></_>
        <_>
          <internalNodes>
            0 -1 254 -3.2332919538021088e-02</internalNodes>
          <leafValues>
            4.6871778368949890e-01 -8.5143022239208221e-02</leafValues></_>
        <_>
          <internalNodes>
            0 -1 41 2.6486770366318524e-04</internalNodes>
          <leafValues>
            -1.5341797471046448e-01 2.4682566523551941e-01</leafValues></_>
        <_>
          <internalNodes>
            0 -1 414 -6.4029511995613575e-03</internalNodes>
          <leafValues>
            2.3521931469440460e-01 -1.7741847038269043e-01</leafValues></_>
        <_>
          <internalNodes>
            0 -1 458 5.9561887755990028e-03</internalNodes>
          <leafValues>
            8.0542176961898804e-02 -5.2544313669204712e-01</leafValues></_>
        <_>
          <internalNodes>
            0 -1 390 5.1544666290283203e-02</internalNodes>
          <leafValues>
            -1.0035946965217590e-01 3.3460429310798645e-01</leafValues></_>
        <_>
          <internalNodes>
            0 -1 214 -1.6384359332732856e-04</internalNodes>
          <leafValues>
            -3.8628372550010681e-01 9.1842092573642731e-02</leafValues></_>
        <_>
          <internalNodes>
            0 -1 328 6.9540558615699410e-04</internalNodes>
          <leafValues>
            -1.2108708918094635e-01 2.7176678180694580e-01</leafValues></_>
        <_>
          <internalNodes>
            0 -1 358 4.7632027417421341e-04</internalNodes>
          <leafValues>
            8.8782839477062225e-02 -4.0735527873039246e-01</leafValues></_>
        <_>
          <internalNodes>
            0 -1 358 -3.5590544575825334e-04</internalNodes>
          <leafValues>
            -3.2885709404945374e-01 1.2031073123216629e-01</leafValues></_>
        <_>
          <internalNodes>
            0 -1 0 2.9523191187763587e-05</internalNodes>
          <leafValues>
            -1.8961332738399506e-01 1.9678993523120880e-01</leafValues></_>
        <_>
          <internalNodes>
            0 -1 0 1.0075349127873778e-03</internalNodes>
          <leafValues>
            9.8873436450958252e-02 -5.6146198511123657e-01</leafValues></_>
        <_>
          <internalNodes>
            0 -1 307 -1.6086824238300323e-02</internalNodes>
          <leafValues>
            2.8711569309234619e-01 -1.4441800117492676e-01</leafValues></_>
        <_>
          <internalNodes>
            0 -1 62 1.6716338694095612e-02</internalNodes>
          <leafValues>
            -1.3738723099231720e-01 2.8821831941604614e-01</leafValues></_>
        <_>
          <internalNodes>
            0 -1 432 -5.9457303723320365e-04</internalNodes>
          <leafValues>
            2.2813554108142853e-01 -1.6529877483844757e-01</leafValues></_>
        <_>
          <internalNodes>
            0 -1 114 3.5090960562229156e-02</internalNodes>
          <leafValues>
            -7.8322701156139374e-02 4.5569321513175964e-01</leafValues></_>
        <_>
          <internalNodes>
            0 -1 234 -9.4922579592093825e-04</internalNodes>
          <leafValues>
            2.0813874900341034e-01 -1.8365287780761719e-01</leafValues></_>
        <_>
          <internalNodes>
            0 -1 255 1.4155844226479530e-02</internalNodes>
          <leafValues>
            -1.5061409771442413e-01 2.6472103595733643e-01</leafValues></_>
        <_>
          <internalNodes>
            0 -1 194 9.5303788839373738e-05</internalNodes>
          <leafValues>
            1.0889666527509689e-01 -3.2924291491508484e-01</leafValues></_>
        <_>
          <internalNodes>
            0 -1 347 2.6307237567380071e-04</internalNodes>
          <leafValues>
            -1.4434592425823212e-01 2.4331553280353546e-01</leafValues></_>
        <_>
          <internalNodes>
            0 -1 346 3.0245347879827023e-03</internalNodes>
          <leafValues>
            -8.9219875633716583e-02 4.7719696164131165e-01</leafValues></_>
        <_>
          <internalNodes>
            0 -1 316 1.1790008284151554e-03</internalNodes>
          <leafValues>
            8.5617728531360626e-02 -4.0752544999122620e-01</leafValues></_>
        <_>
          <internalNodes>
            0 -1 152 3.5057313740253448e-02</internalNodes>
          <leafValues>
            4.2965974658727646e-02 -7.2626495361328125e-01</leafValues></_>
        <_>
          <internalNodes>
            0 -1 294 -6.1468761414289474e-03</internalNodes>
          <leafValues>
            6.6745877265930176e-01 -6.3547544181346893e-02</leafValues></_>
        <_>
          <internalNodes>
            0 -1 226 -8.1914931535720825e-02</internalNodes>
          <leafValues>
            5.6430971622467041e-01 -5.5927105247974396e-02</leafValues></_>
        <_>
          <internalNodes>
            0 -1 413 4.7872960567474365e-03</internalNodes>
          <leafValues>
            -6.1988230794668198e-02 5.3801327943801880e-01</leafValues></_>
        <_>
          <internalNodes>
            0 -1 452 1.4140863640932366e-05</internalNodes>
          <leafValues>
            -1.7535075545310974e-01 2.0454928278923035e-01</leafValues></_>
        <_>
          <internalNodes>
            0 -1 442 1.6211951151490211e-03</internalNodes>
          <leafValues>
            9.6535407006740570e-02 -4.0600293874740601e-01</leafValues></_></weakClassifiers></_>
    <!-- stage 12 -->
    <_>
      <maxWeakCount>37</maxWeakCount>
      <stageThreshold>-1.4792367219924927e+00</stageThreshold>
      <weakClassifiers>
        <_>
          <internalNodes>
            0 -1 415 -2.8213150799274445e-03</internalNodes>
          <leafValues>
            -5.8315332978963852e-02 -5.5781733989715576e-01</leafValues></_>
        <_>
          <internalNodes>
            0 -1 356 -2.4560075253248215e-02</internalNodes>
          <leafValues>
            2.8906595706939697e-01 -1.7219817638397217e-01</leafValues></_>
        <_>
          <internalNodes>
            0 -1 357 4.0389701724052429e-02</internalNodes>
          <leafValues>
            -1.0431499779224396e-01 4.3845903873443604e-01</leafValues></_>
        <_>
          <internalNodes>
            0 -1 437 1.0163362458115444e-04</internalNodes>
          <leafValues>
            1.1644905060529709e-01 -3.6730039119720459e-01</leafValues></_>
        <_>
          <internalNodes>
            0 -1 437 -6.3619040884077549e-04</internalNodes>
          <leafValues>
            -3.8480216264724731e-01 1.0584265738725662e-01</leafValues></_>
        <_>
          <internalNodes>
            0 -1 459 -3.3351224847137928e-03</internalNodes>
          <leafValues>
            -3.9187502861022949e-01 8.6558431386947632e-02</leafValues></_>
        <_>
          <internalNodes>
            0 -1 350 7.8011211007833481e-04</internalNodes>
          <leafValues>
            -1.2089310586452484e-01 2.7801606059074402e-01</leafValues></_>
        <_>
          <internalNodes>
            0 -1 354 7.1952771395444870e-03</internalNodes>
          <leafValues>
            -1.7221201956272125e-01 2.3192916810512543e-01</leafValues></_>
        <_>
          <internalNodes>
            0 -1 151 -2.6405518874526024e-02</internalNodes>
          <leafValues>
            3.8649567961692810e-01 -9.0402550995349884e-02</leafValues></_>
        <_>
          <internalNodes>
            0 -1 211 -6.3755514565855265e-04</internalNodes>
          <leafValues>
            -3.7849721312522888e-01 1.0224009305238724e-01</leafValues></_>
        <_>
          <internalNodes>
            0 -1 211 -3.7161098589422181e-05</internalNodes>
          <leafValues>
            2.0113103091716766e-01 -2.7745839953422546e-01</leafValues></_>
        <_>
          <internalNodes>
            0 -1 138 -5.8007821440696716e-02</internalNodes>
          <leafValues>
            4.2520326375961304e-01 -8.9020572602748871e-02</leafValues></_>
        <_>
          <internalNodes>
            0 -1 167 8.3967782557010651e-03</internalNodes>
          <leafValues>
            -1.4960987865924835e-01 2.8040671348571777e-01</leafValues></_>
        <_>
          <internalNodes>
            0 -1 123 -5.7688052766025066e-04</internalNodes>
          <leafValues>
            3.1323090195655823e-01 -1.0942833870649338e-01</leafValues></_>
        <_>
          <internalNodes>
            0 -1 224 -5.4712269047740847e-05</internalNodes>
          <leafValues>
            -2.7209135890007019e-01 1.3412907719612122e-01</leafValues></_>
        <_>
          <internalNodes>
            0 -1 118 -6.8656512303277850e-04</internalNodes>
          <leafValues>
            2.8386127948760986e-01 -1.2585724890232086e-01</leafValues></_>
        <_>
          <internalNodes>
            0 -1 401 2.0971505437046289e-03</internalNodes>
          <leafValues>
            5.5410224944353104e-02 -6.8961888551712036e-01</leafValues></_>
        <_>
          <internalNodes>
            0 -1 352 -1.9648628309369087e-02</internalNodes>
          <leafValues>
            -9.2856013774871826e-01 2.7740608900785446e-02</leafValues></_>
        <_>
          <internalNodes>
            0 -1 9 1.8630954623222351e-01</internalNodes>
          <leafValues>
            5.4048024117946625e-02 -5.4225933551788330e-01</leafValues></_>
        <_>
          <internalNodes>
            0 -1 220 4.5461565256118774e-02</internalNodes>
          <leafValues>
            -7.7072687447071075e-02 4.9953961372375488e-01</leafValues></_>
        <_>
          <internalNodes>
            0 -1 72 3.4458555281162262e-02</internalNodes>
          <leafValues>
            -1.3819018006324768e-01 2.6655930280685425e-01</leafValues></_>
        <_>
          <internalNodes>
            0 -1 322 4.9913403927348554e-05</internalNodes>
          <leafValues>
            1.0525143146514893e-01 -3.7247425317764282e-01</leafValues></_>
        <_>
          <internalNodes>
            0 -1 322 -9.9545880220830441e-04</internalNodes>
          <leafValues>
            -4.7929289937019348e-01 7.6589949429035187e-02</leafValues></_>
        <_>
          <internalNodes>
            0 -1 143 -1.1328871361911297e-02</internalNodes>
          <leafValues>
            3.2287770509719849e-01 -1.2874406576156616e-01</leafValues></_>
        <_>
          <internalNodes>
            0 -1 146 -1.4274255372583866e-02</internalNodes>
          <leafValues>
            2.8590381145477295e-01 -1.2696640193462372e-01</leafValues></_>
        <_>
          <internalNodes>
            0 -1 257 -9.1042257845401764e-02</internalNodes>
          <leafValues>
            4.9622863531112671e-01 -7.8127160668373108e-02</leafValues></_>
        <_>
          <internalNodes>
            0 -1 188 -5.6264651939272881e-03</internalNodes>
          <leafValues>
            2.8534263372421265e-01 -1.2305513024330139e-01</leafValues></_>
        <_>
          <internalNodes>
            0 -1 27 -4.0851509571075439e-01</internalNodes>
          <leafValues>
            9.3125247955322266e-01 -3.9633095264434814e-02</leafValues></_>
        <_>
          <internalNodes>
            0 -1 436 -1.1860469356179237e-02</internalNodes>
          <leafValues>
            1.3583461940288544e-01 -3.3753874897956848e-01</leafValues></_>
        <_>
          <internalNodes>
            0 -1 119 1.0439501143991947e-02</internalNodes>
          <leafValues>
            3.1769908964633942e-02 -8.5536426305770874e-01</leafValues></_>
        <_>
          <internalNodes>
            0 -1 44 -5.0397196901030838e-05</internalNodes>
          <leafValues>
            -2.6915833353996277e-01 1.2162642180919647e-01</leafValues></_>
        <_>
          <internalNodes>
            0 -1 145 8.5365936160087585e-02</internalNodes>
          <leafValues>
            -7.0024445652961731e-02 4.8964685201644897e-01</leafValues></_>
        <_>
          <internalNodes>
            0 -1 439 1.2902098242193460e-03</internalNodes>
          <leafValues>
            -1.0333157330751419e-01 3.2945987582206726e-01</leafValues></_>
        <_>
          <internalNodes>
            0 -1 439 -1.3823464978486300e-03</internalNodes>
          <leafValues>
            3.6734008789062500e-01 -9.6797443926334381e-02</leafValues></_>
        <_>
          <internalNodes>
            0 -1 1 -8.4424042142927647e-04</internalNodes>
          <leafValues>
            -4.2746329307556152e-01 8.4430970251560211e-02</leafValues></_>
        <_>
          <internalNodes>
            0 -1 1 1.1414539767429233e-03</internalNodes>
          <leafValues>
            8.5252709686756134e-02 -4.8272415995597839e-01</leafValues></_>
        <_>
          <internalNodes>
            0 -1 385 -5.4839905351400375e-04</internalNodes>
          <leafValues>
            2.7219262719154358e-01 -1.3843123614788055e-01</leafValues></_></weakClassifiers></_>
    <!-- stage 13 -->
    <_>
      <maxWeakCount>39</maxWeakCount>
      <stageThreshold>-1.4330912828445435e+00</stageThreshold>
      <weakClassifiers>
        <_>
          <internalNodes>
            0 -1 157 1.5958517324179411e-03</internalNodes>
          <leafValues>
            -5.6521737575531006e-01 -1.4378029108047485e-01</leafValues></_>
        <_>
          <internalNodes>
            0 -1 421 -5.4506608285009861e-04</internalNodes>
          <leafValues>
            1.5938571095466614e-01 -2.4635724723339081e-01</leafValues></_>
        <_>
          <internalNodes>
            0 -1 265 -4.0697329677641392e-04</internalNodes>
          <leafValues>
            -4.3155330419540405e-01 8.5624627768993378e-02</leafValues></_>
        <_>
          <internalNodes>
            0 -1 265 8.0637645442038774e-04</internalNodes>
          <leafValues>
            1.2310755252838135e-01 -4.3153497576713562e-01</leafValues></_>
        <_>
          <internalNodes>
            0 -1 39 9.7966264002025127e-04</internalNodes>
          <leafValues>
            -2.2991164028644562e-01 1.5328846871852875e-01</leafValues></_>
        <_>
          <internalNodes>
            0 -1 176 -1.3276680372655392e-02</internalNodes>
          <leafValues>
            2.9461029171943665e-01 -1.2293768674135208e-01</leafValues></_>
        <_>
          <internalNodes>
            0 -1 111 5.9243094176054001e-02</internalNodes>
          <leafValues>
            -1.2413238734006882e-01 3.5818547010421753e-01</leafValues></_>
        <_>
          <internalNodes>
            0 -1 17 2.4467889964580536e-01</internalNodes>
          <leafValues>
            5.3526625037193298e-02 -8.6775159835815430e-01</leafValues></_>
        <_>
          <internalNodes>
            0 -1 98 1.4140863640932366e-05</internalNodes>
          <leafValues>
            -2.1088320016860962e-01 1.6735343635082245e-01</leafValues></_>
        <_>
          <internalNodes>
            0 -1 379 -6.0003194957971573e-03</internalNodes>
          <leafValues>
            5.6012529134750366e-01 -7.0410534739494324e-02</leafValues></_>
        <_>
          <internalNodes>
            0 -1 408 -3.0208937823772430e-03</internalNodes>
          <leafValues>
            4.8061931133270264e-01 -6.8644694983959198e-02</leafValues></_>
        <_>
          <internalNodes>
            0 -1 297 4.6329267206601799e-05</internalNodes>
          <leafValues>
            1.2056891620159149e-01 -3.3823791146278381e-01</leafValues></_>
        <_>
          <internalNodes>
            0 -1 297 -1.0489597916603088e-03</internalNodes>
          <leafValues>
            -3.9984074234962463e-01 8.2449704408645630e-02</leafValues></_>
        <_>
          <internalNodes>
            0 -1 296 5.0363793969154358e-02</internalNodes>
          <leafValues>
            -1.0583331435918808e-01 3.4077742695808411e-01</leafValues></_>
        <_>
          <internalNodes>
            0 -1 191 7.1011088788509369e-02</internalNodes>
          <leafValues>
            -8.8651031255722046e-02 3.8675141334533691e-01</leafValues></_>
        <_>
          <internalNodes>
            0 -1 79 7.8993879258632660e-02</internalNodes>
          <leafValues>
            -9.4165794551372528e-02 3.7135896086692810e-01</leafValues></_>
        <_>
          <internalNodes>
            0 -1 28 -2.6911464333534241e-01</internalNodes>
          <leafValues>
            1.4380025863647461e-01 -2.3691534996032715e-01</leafValues></_>
        <_>
          <internalNodes>
            0 -1 124 -4.9161031842231750e-02</internalNodes>
          <leafValues>
            5.3520685434341431e-01 -7.3796339333057404e-02</leafValues></_>
        <_>
          <internalNodes>
            0 -1 299 2.2614588961005211e-03</internalNodes>
          <leafValues>
            -1.1615271121263504e-01 2.8993305563926697e-01</leafValues></_>
        <_>
          <internalNodes>
            0 -1 98 2.5216361973434687e-03</internalNodes>
          <leafValues>
            6.8256177008152008e-02 -4.5335277915000916e-01</leafValues></_>
        <_>
          <internalNodes>
            0 -1 25 -4.2111221700906754e-03</internalNodes>
          <leafValues>
            2.1232648193836212e-01 -1.4963690936565399e-01</leafValues></_>
        <_>
          <internalNodes>
            0 -1 278 1.0904909577220678e-03</internalNodes>
          <leafValues>
            -1.2782657146453857e-01 2.6078715920448303e-01</leafValues></_>
        <_>
          <internalNodes>
            0 -1 453 -1.7457429785281420e-03</internalNodes>
          <leafValues>
            -5.7371509075164795e-01 5.3545147180557251e-02</leafValues></_>
        <_>
          <internalNodes>
            0 -1 249 -6.6502476111054420e-03</internalNodes>
          <leafValues>
            2.4867203831672668e-01 -1.3274630904197693e-01</leafValues></_>
        <_>
          <internalNodes>
            0 -1 406 -2.4699054192751646e-03</internalNodes>
          <leafValues>
            4.0121492743492126e-01 -7.6814152300357819e-02</leafValues></_>
        <_>
          <internalNodes>
            0 -1 106 2.9357716441154480e-02</internalNodes>
          <leafValues>
            -9.3055158853530884e-02 3.4398841857910156e-01</leafValues></_>
        <_>
          <internalNodes>
            0 -1 404 6.2485719099640846e-03</internalNodes>
          <leafValues>
            4.5458346605300903e-02 -7.6118737459182739e-01</leafValues></_>
        <_>
          <internalNodes>
            0 -1 20 1.5042781829833984e-02</internalNodes>
          <leafValues>
            3.7279456853866577e-02 -7.3302102088928223e-01</leafValues></_>
        <_>
          <internalNodes>
            0 -1 20 -1.1293551884591579e-02</internalNodes>
          <leafValues>
            -4.7677752375602722e-01 5.9155248105525970e-02</leafValues></_>
        <_>
          <internalNodes>
            0 -1 235 1.7933195922523737e-03</internalNodes>
          <leafValues>
            7.2202816605567932e-02 -4.1527757048606873e-01</leafValues></_>
        <_>
          <internalNodes>
            0 -1 291 1.1015396565198898e-02</internalNodes>
          <leafValues>
            -1.2458734214305878e-01 2.6749601960182190e-01</leafValues></_>
        <_>
          <internalNodes>
            0 -1 428 5.7239332818426192e-05</internalNodes>
          <leafValues>
            1.1704102158546448e-01 -2.9789867997169495e-01</leafValues></_>
        <_>
          <internalNodes>
            0 -1 129 -1.9321454688906670e-02</internalNodes>
          <leafValues>
            3.4366792440414429e-01 -1.0353236645460129e-01</leafValues></_>
        <_>
          <internalNodes>
            0 -1 232 -6.4030550420284271e-03</internalNodes>
          <leafValues>
            6.8066060543060303e-01 -4.8666074872016907e-02</leafValues></_>
        <_>
          <internalNodes>
            0 -1 113 -1.5128289305721410e-05</internalNodes>
          <leafValues>
            1.7845341563224792e-01 -1.9141487777233124e-01</leafValues></_>
        <_>
          <internalNodes>
            0 -1 148 1.8520249053835869e-02</internalNodes>
          <leafValues>
            -7.2758816182613373e-02 5.0208860635757446e-01</leafValues></_>
        <_>
          <internalNodes>
            0 -1 200 -6.5937987528741360e-03</internalNodes>
          <leafValues>
            2.2477984428405762e-01 -1.6102357208728790e-01</leafValues></_>
        <_>
          <internalNodes>
            0 -1 427 1.6792459064163268e-04</internalNodes>
          <leafValues>
            1.1300370842218399e-01 -3.1770560145378113e-01</leafValues></_>
        <_>
          <internalNodes>
            0 -1 410 3.2679438591003418e-02</internalNodes>
          <leafValues>
            -1.4711730182170868e-01 2.2959305346012115e-01</leafValues></_></weakClassifiers></_>
    <!-- stage 14 -->
    <_>
      <maxWeakCount>37</maxWeakCount>
      <stageThreshold>-1.3954755067825317e+00</stageThreshold>
      <weakClassifiers>
        <_>
          <internalNodes>
            0 -1 66 -4.0660388767719269e-02</internalNodes>
          <leafValues>
            1.1111111193895340e-01 -5.3797131776809692e-01</leafValues></_>
        <_>
          <internalNodes>
            0 -1 73 -6.1300094239413738e-04</internalNodes>
          <leafValues>
            2.2202114760875702e-01 -1.8109269440174103e-01</leafValues></_>
        <_>
          <internalNodes>
            0 -1 73 6.1713671311736107e-04</internalNodes>
          <leafValues>
            -1.2060769647359848e-01 2.9053884744644165e-01</leafValues></_>
        <_>
          <internalNodes>
            0 -1 240 5.8949706726707518e-05</internalNodes>
          <leafValues>
            9.7271218895912170e-02 -3.9184954762458801e-01</leafValues></_>
        <_>
          <internalNodes>
            0 -1 240 -4.9677636707201600e-04</internalNodes>
          <leafValues>
            -2.8763487935066223e-01 1.4634196460247040e-01</leafValues></_>
        <_>
          <internalNodes>
            0 -1 3 1.4248088933527470e-02</internalNodes>
          <leafValues>
            -2.1653206646442413e-01 1.5950816869735718e-01</leafValues></_>
        <_>
          <internalNodes>
            0 -1 156 7.5810414273291826e-04</internalNodes>
          <leafValues>
            -1.1938591301441193e-01 2.9689219594001770e-01</leafValues></_>
        <_>
          <internalNodes>
            0 -1 1 1.5163559510256164e-05</internalNodes>
          <leafValues>
            -1.4659783244132996e-01 2.1141286194324493e-01</leafValues></_>
        <_>
          <internalNodes>
            0 -1 430 -2.1923510357737541e-03</internalNodes>
          <leafValues>
            3.7539350986480713e-01 -9.1005727648735046e-02</leafValues></_>
        <_>
          <internalNodes>
            0 -1 430 1.7115084920078516e-03</internalNodes>
          <leafValues>
            -9.2318907380104065e-02 3.6664035916328430e-01</leafValues></_>
        <_>
          <internalNodes>
            0 -1 104 5.5345475673675537e-02</internalNodes>
          <leafValues>
            -1.1006225645542145e-01 2.8499403595924377e-01</leafValues></_>
        <_>
          <internalNodes>
            0 -1 199 -4.6579542686231434e-04</internalNodes>
          <leafValues>
            -3.2737806439399719e-01 1.1005569994449615e-01</leafValues></_>
        <_>
          <internalNodes>
            0 -1 49 -3.4552015364170074e-02</internalNodes>
          <leafValues>
            -7.7240341901779175e-01 4.1714344173669815e-02</leafValues></_>
        <_>
          <internalNodes>
            0 -1 434 -5.8038689894601703e-04</internalNodes>
          <leafValues>
            1.9323039054870605e-01 -1.6477426886558533e-01</leafValues></_>
        <_>
          <internalNodes>
            0 -1 435 3.8446451071649790e-04</internalNodes>
          <leafValues>
            -1.2080462276935577e-01 2.8589972853660583e-01</leafValues></_>
        <_>
          <internalNodes>
            0 -1 431 5.7955225929617882e-03</internalNodes>
          <leafValues>
            5.2469532936811447e-02 -5.9450531005859375e-01</leafValues></_>
        <_>
          <internalNodes>
            0 -1 300 -1.7898786813020706e-02</internalNodes>
          <leafValues>
            5.1955252885818481e-01 -6.9081105291843414e-02</leafValues></_>
        <_>
          <internalNodes>
            0 -1 19 -4.7247448563575745e-01</internalNodes>
          <leafValues>
            8.7796300649642944e-01 -3.3690921962261200e-02</leafValues></_>
        <_>
          <internalNodes>
            0 -1 455 -1.4234329573810101e-03</internalNodes>
          <leafValues>
            -4.5337048172950745e-01 7.6817415654659271e-02</leafValues></_>
        <_>
          <internalNodes>
            0 -1 400 1.6123163513839245e-03</internalNodes>
          <leafValues>
            -9.2147246003150940e-02 3.6790201067924500e-01</leafValues></_>
        <_>
          <internalNodes>
            0 -1 360 4.0451712906360626e-02</internalNodes>
          <leafValues>
            -5.6865155696868896e-02 5.4379117488861084e-01</leafValues></_>
        <_>
          <internalNodes>
            0 -1 277 -3.4370835055597126e-04</internalNodes>
          <leafValues>
            -3.8281613588333130e-01 9.6016660332679749e-02</leafValues></_>
        <_>
          <internalNodes>
            0 -1 306 -6.4601805061101913e-03</internalNodes>
          <leafValues>
            5.8498603105545044e-01 -5.6265052407979965e-02</leafValues></_>
        <_>
          <internalNodes>
            0 -1 10 1.4231300354003906e-01</internalNodes>
          <leafValues>
            6.5927878022193909e-02 -5.4245680570602417e-01</leafValues></_>
        <_>
          <internalNodes>
            0 -1 446 -4.9226207192987204e-04</internalNodes>
          <leafValues>
            1.8681795895099640e-01 -1.7458966374397278e-01</leafValues></_>
        <_>
          <internalNodes>
            0 -1 217 4.5397621579468250e-03</internalNodes>
          <leafValues>
            3.6072853952646255e-02 -7.7626872062683105e-01</leafValues></_>
        <_>
          <internalNodes>
            0 -1 444 -4.8436461947858334e-03</internalNodes>
          <leafValues>
            2.4620515108108521e-01 -1.2664309144020081e-01</leafValues></_>
        <_>
          <internalNodes>
            0 -1 344 -4.1349383536726236e-05</internalNodes>
          <leafValues>
            -2.2580963373184204e-01 1.2906302511692047e-01</leafValues></_>
        <_>
          <internalNodes>
            0 -1 308 -1.4027770608663559e-02</internalNodes>
          <leafValues>
            2.5101289153099060e-01 -1.1862891912460327e-01</leafValues></_>
        <_>
          <internalNodes>
            0 -1 302 -8.6490988731384277e-02</internalNodes>
          <leafValues>
            -8.1047928333282471e-01 4.3096624314785004e-02</leafValues></_>
        <_>
          <internalNodes>
            0 -1 85 -1.2898460030555725e-01</internalNodes>
          <leafValues>
            9.3701265752315521e-02 -3.1059113144874573e-01</leafValues></_>
        <_>
          <internalNodes>
            0 -1 177 9.9312718957662582e-03</internalNodes>
          <leafValues>
            -1.2669929862022400e-01 3.7539431452751160e-01</leafValues></_>
        <_>
          <internalNodes>
            0 -1 195 5.4770046845078468e-03</internalNodes>
          <leafValues>
            -1.7830920219421387e-01 2.1203386783599854e-01</leafValues></_>
        <_>
          <internalNodes>
            0 -1 338 1.3865638175047934e-04</internalNodes>
          <leafValues>
            1.1097791790962219e-01 -3.3981913328170776e-01</leafValues></_>
        <_>
          <internalNodes>
            0 -1 155 3.4399502910673618e-03</internalNodes>
          <leafValues>
            -7.3121994733810425e-02 4.9293240904808044e-01</leafValues></_>
        <_>
          <internalNodes>
            0 -1 372 -5.2430316805839539e-02</internalNodes>
          <leafValues>
            -7.3325073719024658e-01 4.8243772238492966e-02</leafValues></_>
        <_>
          <internalNodes>
            0 -1 261 -6.3945516943931580e-02</internalNodes>
          <leafValues>
            5.5257433652877808e-01 -6.2987700104713440e-02</leafValues></_></weakClassifiers></_>
    <!-- stage 15 -->
    <_>
      <maxWeakCount>37</maxWeakCount>
      <stageThreshold>-1.4030805826187134e+00</stageThreshold>
      <weakClassifiers>
        <_>
          <internalNodes>
            0 -1 389 -6.6325858235359192e-02</internalNodes>
          <leafValues>
            2.8205129504203796e-01 -5.3173774480819702e-01</leafValues></_>
        <_>
          <internalNodes>
            0 -1 181 -3.6859666579402983e-05</internalNodes>
          <leafValues>
            9.3837380409240723e-02 -2.8118547797203064e-01</leafValues></_>
        <_>
          <internalNodes>
            0 -1 181 -6.8150472361594439e-04</internalNodes>
          <leafValues>
            -3.8020807504653931e-01 1.1996256560087204e-01</leafValues></_>
        <_>
          <internalNodes>
            0 -1 305 1.6927436809055507e-04</internalNodes>
          <leafValues>
            1.0518172383308411e-01 -2.8662955760955811e-01</leafValues></_>
        <_>
          <internalNodes>
            0 -1 213 -2.2691302001476288e-02</internalNodes>
          <leafValues>
            3.4003543853759766e-01 -8.2247622311115265e-02</leafValues></_>
        <_>
          <internalNodes>
            0 -1 90 3.5563133656978607e-02</internalNodes>
          <leafValues>
            -2.0181125402450562e-01 1.7831166088581085e-01</leafValues></_>
        <_>
          <internalNodes>
            0 -1 36 8.2102720625698566e-04</internalNodes>
          <leafValues>
            -1.1610800027847290e-01 2.8766933083534241e-01</leafValues></_>
        <_>
          <internalNodes>
            0 -1 345 -4.3930980609729886e-04</internalNodes>
          <leafValues>
            -3.5351139307022095e-01 9.5009297132492065e-02</leafValues></_>
        <_>
          <internalNodes>
            0 -1 326 -1.3407696038484573e-02</internalNodes>
          <leafValues>
            3.5810098052024841e-01 -1.1638933420181274e-01</leafValues></_>
        <_>
          <internalNodes>
            0 -1 123 2.8656836366280913e-04</internalNodes>
          <leafValues>
            -1.3045194745063782e-01 2.5838947296142578e-01</leafValues></_>
        <_>
          <internalNodes>
            0 -1 123 -4.7817928134463727e-04</internalNodes>
          <leafValues>
            2.7207949757575989e-01 -1.2720514833927155e-01</leafValues></_>
        <_>
          <internalNodes>
            0 -1 70 1.2829328887164593e-02</internalNodes>
          <leafValues>
            6.1696566641330719e-02 -4.7292712330818176e-01</leafValues></_>
        <_>
          <internalNodes>
            0 -1 42 -2.4106977507472038e-02</internalNodes>
          <leafValues>
            -9.0149408578872681e-01 3.7063561379909515e-02</leafValues></_>
        <_>
          <internalNodes>
            0 -1 318 4.6108478272799402e-05</internalNodes>
          <leafValues>
            8.7679527699947357e-02 -3.6777037382125854e-01</leafValues></_>
        <_>
          <internalNodes>
            0 -1 109 1.8208332359790802e-02</internalNodes>
          <leafValues>
            -1.2097416073083878e-01 2.7415770292282104e-01</leafValues></_>
        <_>
          <internalNodes>
            0 -1 230 -8.3841616287827492e-05</internalNodes>
          <leafValues>
            -3.0724564194679260e-01 1.0183048248291016e-01</leafValues></_>
        <_>
          <internalNodes>
            0 -1 26 2.9027885198593140e-01</internalNodes>
          <leafValues>
            2.7023058384656906e-02 -9.0125840902328491e-01</leafValues></_>
        <_>
          <internalNodes>
            0 -1 31 2.2932771593332291e-02</internalNodes>
          <leafValues>
            -1.7471165955066681e-01 1.9143044948577881e-01</leafValues></_>
        <_>
          <internalNodes>
            0 -1 147 -7.1782304439693689e-04</internalNodes>
          <leafValues>
            -3.2742145657539368e-01 9.7783140838146210e-02</leafValues></_>
        <_>
          <internalNodes>
            0 -1 349 -9.7733745351433754e-03</internalNodes>
          <leafValues>
            -5.5434232950210571e-01 5.3121492266654968e-02</leafValues></_>
        <_>
          <internalNodes>
            0 -1 448 -2.0470502204261720e-04</internalNodes>
          <leafValues>
            2.3176091909408569e-01 -1.4271068572998047e-01</leafValues></_>
        <_>
          <internalNodes>
            0 -1 448 7.8805472003296018e-04</internalNodes>
          <leafValues>
            -1.2841612100601196e-01 3.1677651405334473e-01</leafValues></_>
        <_>
          <internalNodes>
            0 -1 304 6.5487235784530640e-02</internalNodes>
          <leafValues>
            6.7136026918888092e-02 -5.1283138990402222e-01</leafValues></_>
        <_>
          <internalNodes>
            0 -1 375 5.6208176829386503e-05</internalNodes>
          <leafValues>
            1.0249301046133041e-01 -2.9878544807434082e-01</leafValues></_>
        <_>
          <internalNodes>
            0 -1 192 4.3718103319406509e-02</internalNodes>
          <leafValues>
            -8.8415071368217468e-02 3.5981222987174988e-01</leafValues></_>
        <_>
          <internalNodes>
            0 -1 162 -1.9728593528270721e-02</internalNodes>
          <leafValues>
            3.8114851713180542e-01 -8.3184719085693359e-02</leafValues></_>
        <_>
          <internalNodes>
            0 -1 186 2.9703238978981972e-02</internalNodes>
          <leafValues>
            -1.1344484239816666e-01 2.9909050464630127e-01</leafValues></_>
        <_>
          <internalNodes>
            0 -1 189 -1.1599213629961014e-01</internalNodes>
          <leafValues>
            5.1518422365188599e-01 -7.1243122220039368e-02</leafValues></_>
        <_>
          <internalNodes>
            0 -1 99 9.3194376677274704e-03</internalNodes>
          <leafValues>
            6.2594622373580933e-02 -5.9405332803726196e-01</leafValues></_>
        <_>
          <internalNodes>
            0 -1 100 -1.4644986018538475e-02</internalNodes>
          <leafValues>
            -5.2472507953643799e-01 5.1746778190135956e-02</leafValues></_>
        <_>
          <internalNodes>
            0 -1 48 -2.8091733111068606e-04</internalNodes>
          <leafValues>
            2.4621628224849701e-01 -1.3275280594825745e-01</leafValues></_>
        <_>
          <internalNodes>
            0 -1 288 -6.8381473422050476e-02</internalNodes>
          <leafValues>
            -8.9218783378601074e-01 3.7505384534597397e-02</leafValues></_>
        <_>
          <internalNodes>
            0 -1 48 3.5464961547404528e-04</internalNodes>
          <leafValues>
            -1.4889204502105713e-01 2.0873922109603882e-01</leafValues></_>
        <_>
          <internalNodes>
            0 -1 210 -4.4085907575208694e-05</internalNodes>
          <leafValues>
            -3.1168597936630249e-01 1.1810174584388733e-01</leafValues></_>
        <_>
          <internalNodes>
            0 -1 205 -4.8398752696812153e-03</internalNodes>
          <leafValues>
            6.5265202522277832e-01 -5.1415149122476578e-02</leafValues></_>
        <_>
          <internalNodes>
            0 -1 132 -3.3262245357036591e-02</internalNodes>
          <leafValues>
            3.9150035381317139e-01 -7.1638368070125580e-02</leafValues></_>
        <_>
          <internalNodes>
            0 -1 81 4.9899154901504517e-01</internalNodes>
          <leafValues>
            -3.5064853727817535e-02 8.3858388662338257e-01</leafValues></_></weakClassifiers></_>
    <!-- stage 16 -->
    <_>
      <maxWeakCount>42</maxWeakCount>
      <stageThreshold>-1.4610505104064941e+00</stageThreshold>
      <weakClassifiers>
        <_>
          <internalNodes>
            0 -1 115 -5.7097221724689007e-03</internalNodes>
          <leafValues>
            7.7519379556179047e-02 -5.3981828689575195e-01</leafValues></_>
        <_>
          <internalNodes>
            0 -1 341 4.1252722439821810e-05</internalNodes>
          <leafValues>
            2.7111770585179329e-02 -4.1932845115661621e-01</leafValues></_>
        <_>
          <internalNodes>
            0 -1 264 -4.3724100105464458e-03</internalNodes>
          <leafValues>
            2.4223066866397858e-01 -1.3416671752929688e-01</leafValues></_>
        <_>
          <internalNodes>
            0 -1 341 -5.9926195535808802e-04</internalNodes>
          <leafValues>
            -3.2954728603363037e-01 1.5251821279525757e-01</leafValues></_>
        <_>
          <internalNodes>
            0 -1 154 -6.6120579838752747e-02</internalNodes>
          <leafValues>
            6.7877203226089478e-01 -1.1426589637994766e-01</leafValues></_>
        <_>
          <internalNodes>
            0 -1 335 5.5186994373798370e-02</internalNodes>
          <leafValues>
            -9.8096251487731934e-02 3.3854791522026062e-01</leafValues></_>
        <_>
          <internalNodes>
            0 -1 212 5.4458389058709145e-04</internalNodes>
          <leafValues>
            -1.4801754057407379e-01 2.2026424109935760e-01</leafValues></_>
        <_>
          <internalNodes>
            0 -1 260 -9.5386262983083725e-03</internalNodes>
          <leafValues>
            2.6379716396331787e-01 -1.3711228966712952e-01</leafValues></_>
        <_>
          <internalNodes>
            0 -1 405 2.6494762278161943e-04</internalNodes>
          <leafValues>
            -2.0535328984260559e-01 1.6913263499736786e-01</leafValues></_>
        <_>
          <internalNodes>
            0 -1 406 3.0237651662901044e-04</internalNodes>
          <leafValues>
            -1.2667261064052582e-01 2.6034384965896606e-01</leafValues></_>
        <_>
          <internalNodes>
            0 -1 374 5.1059825636912137e-05</internalNodes>
          <leafValues>
            1.3086517155170441e-01 -3.0462601780891418e-01</leafValues></_>
        <_>
          <internalNodes>
            0 -1 374 -3.3052716753445566e-04</internalNodes>
          <leafValues>
            -3.0589699745178223e-01 1.0982815176248550e-01</leafValues></_>
        <_>
          <internalNodes>
            0 -1 135 -5.5123829841613770e-01</internalNodes>
          <leafValues>
            -8.4012526273727417e-01 2.9826778918504715e-02</leafValues></_>
        <_>
          <internalNodes>
            0 -1 384 -3.9977952837944031e-03</internalNodes>
          <leafValues>
            -4.6145525574684143e-01 5.6893955916166306e-02</leafValues></_>
        <_>
          <internalNodes>
            0 -1 246 -1.5932178939692676e-04</internalNodes>
          <leafValues>
            -3.4525841474533081e-01 8.2771673798561096e-02</leafValues></_>
        <_>
          <internalNodes>
            0 -1 441 -1.0133315809071064e-03</internalNodes>
          <leafValues>
            2.4463148415088654e-01 -1.2179456651210785e-01</leafValues></_>
        <_>
          <internalNodes>
            0 -1 406 -5.6324765319004655e-04</internalNodes>
          <leafValues>
            2.3736840486526489e-01 -1.1559629440307617e-01</leafValues></_>
        <_>
          <internalNodes>
            0 -1 82 9.2071309685707092e-02</internalNodes>
          <leafValues>
            -9.6386231482028961e-02 2.9607656598091125e-01</leafValues></_>
        <_>
          <internalNodes>
            0 -1 333 3.1985532492399216e-02</internalNodes>
          <leafValues>
            -7.9986318945884705e-02 4.1086712479591370e-01</leafValues></_>
        <_>
          <internalNodes>
            0 -1 262 -4.4948363211005926e-04</internalNodes>
          <leafValues>
            -3.9481052756309509e-01 8.5949033498764038e-02</leafValues></_>
        <_>
          <internalNodes>
            0 -1 47 6.5545989200472832e-03</internalNodes>
          <leafValues>
            -1.6635735332965851e-01 1.7756225168704987e-01</leafValues></_>
        <_>
          <internalNodes>
            0 -1 197 -1.9880201667547226e-02</internalNodes>
          <leafValues>
            5.4027086496353149e-01 -6.4707487821578979e-02</leafValues></_>
        <_>
          <internalNodes>
            0 -1 159 1.0018090717494488e-02</internalNodes>
          <leafValues>
            6.1950866132974625e-02 -5.5779153108596802e-01</leafValues></_>
        <_>
          <internalNodes>
            0 -1 301 2.6014822651632130e-04</internalNodes>
          <leafValues>
            -1.2769000232219696e-01 2.3487192392349243e-01</leafValues></_>
        <_>
          <internalNodes>
            0 -1 216 -4.2869983008131385e-04</internalNodes>
          <leafValues>
            2.3192822933197021e-01 -1.2799604237079620e-01</leafValues></_>
        <_>
          <internalNodes>
            0 -1 376 -2.9617827385663986e-04</internalNodes>
          <leafValues>
            -3.1754258275032043e-01 9.2442899942398071e-02</leafValues></_>
        <_>
          <internalNodes>
            0 -1 164 8.7077528238296509e-02</internalNodes>
          <leafValues>
            -9.6784368157386780e-02 3.5061648488044739e-01</leafValues></_>
        <_>
          <internalNodes>
            0 -1 80 5.0696551799774170e-01</internalNodes>
          <leafValues>
            3.2462738454341888e-02 -9.3234819173812866e-01</leafValues></_>
        <_>
          <internalNodes>
            0 -1 181 -8.0247395089827478e-05</internalNodes>
          <leafValues>
            1.4451740682125092e-01 -2.0039632916450500e-01</leafValues></_>
        <_>
          <internalNodes>
            0 -1 252 3.8896498153917491e-04</internalNodes>
          <leafValues>
            9.1774404048919678e-02 -3.1471809744834900e-01</leafValues></_>
        <_>
          <internalNodes>
            0 -1 125 5.1878273487091064e-01</internalNodes>
          <leafValues>
            2.6985347270965576e-02 -8.8092100620269775e-01</leafValues></_>
        <_>
          <internalNodes>
            0 -1 75 -1.4182325452566147e-02</internalNodes>
          <leafValues>
            -6.5312391519546509e-01 3.5207226872444153e-02</leafValues></_>
        <_>
          <internalNodes>
            0 -1 117 -2.6261280290782452e-03</internalNodes>
          <leafValues>
            3.9457994699478149e-01 -7.9345576465129852e-02</leafValues></_>
        <_>
          <internalNodes>
            0 -1 407 -2.2751910146325827e-03</internalNodes>
          <leafValues>
            1.9860419631004333e-01 -1.4046165347099304e-01</leafValues></_>
        <_>
          <internalNodes>
            0 -1 417 1.3025564141571522e-02</internalNodes>
          <leafValues>
            4.1502211242914200e-02 -6.8040925264358521e-01</leafValues></_>
        <_>
          <internalNodes>
            0 -1 367 4.7474743041675538e-05</internalNodes>
          <leafValues>
            8.1571012735366821e-02 -3.3073914051055908e-01</leafValues></_>
        <_>
          <internalNodes>
            0 -1 457 1.9723994773812592e-04</internalNodes>
          <leafValues>
            -1.4841197431087494e-01 1.9342352449893951e-01</leafValues></_>
        <_>
          <internalNodes>
            0 -1 456 -1.5402765944600105e-02</internalNodes>
          <leafValues>
            -7.3311358690261841e-01 3.8770493119955063e-02</leafValues></_>
        <_>
          <internalNodes>
            0 -1 343 -6.1463844031095505e-03</internalNodes>
          <leafValues>
            6.0139417648315430e-01 -5.3816135972738266e-02</leafValues></_>
        <_>
          <internalNodes>
            0 -1 320 -1.4407097478397191e-04</internalNodes>
          <leafValues>
            -9.8934054374694824e-02 2.6834845542907715e-01</leafValues></_>
        <_>
          <internalNodes>
            0 -1 366 -3.1562923686578870e-04</internalNodes>
          <leafValues>
            1.9049946963787079e-01 -1.5755368769168854e-01</leafValues></_>
        <_>
          <internalNodes>
            0 -1 287 -8.4710132796317339e-04</internalNodes>
          <leafValues>
            -3.5271388292312622e-01 7.6355792582035065e-02</leafValues></_></weakClassifiers></_>
    <!-- stage 17 -->
    <_>
      <maxWeakCount>45</maxWeakCount>
      <stageThreshold>-1.5283932685852051e+00</stageThreshold>
      <weakClassifiers>
        <_>
          <internalNodes>
            0 -1 327 9.5425872132182121e-03</internalNodes>
          <leafValues>
            -5.3630840778350830e-01 1.4553990960121155e-01</leafValues></_>
        <_>
          <internalNodes>
            0 -1 373 -5.7626292109489441e-02</internalNodes>
          <leafValues>
            4.2141237854957581e-01 -1.2645164132118225e-01</leafValues></_>
        <_>
          <internalNodes>
            0 -1 314 -2.5130711495876312e-02</internalNodes>
          <leafValues>
            2.5342532992362976e-01 -1.2032066285610199e-01</leafValues></_>
        <_>
          <internalNodes>
            0 -1 362 -1.8834215006791055e-04</internalNodes>
          <leafValues>
            -2.7954313158988953e-01 1.1311835050582886e-01</leafValues></_>
        <_>
          <internalNodes>
            0 -1 388 1.5635002404451370e-02</internalNodes>
          <leafValues>
            3.9974667131900787e-02 -6.9407081604003906e-01</leafValues></_>
        <_>
          <internalNodes>
            0 -1 412 -5.2545689977705479e-03</internalNodes>
          <leafValues>
            5.5724948644638062e-01 -5.0240200012922287e-02</leafValues></_>
        <_>
          <internalNodes>
            0 -1 329 6.7053511738777161e-03</internalNodes>
          <leafValues>
            -8.7820626795291901e-02 3.4242364764213562e-01</leafValues></_>
        <_>
          <internalNodes>
            0 -1 351 -2.4330115411430597e-03</internalNodes>
          <leafValues>
            2.9053491353988647e-01 -1.1705896258354187e-01</leafValues></_>
        <_>
          <internalNodes>
            0 -1 56 1.4622891285398509e-05</internalNodes>
          <leafValues>
            -1.4741483330726624e-01 2.0821672677993774e-01</leafValues></_>
        <_>
          <internalNodes>
            0 -1 23 -9.4169020652770996e-02</internalNodes>
          <leafValues>
