<?xml version="1.0"?>
<opencv_storage>
<cascade>
  <stageType>BOOST</stageType>
  <featureType>HAAR</featureType>
  <height>20</height>
  <width>20</width>
  <stageParams>
    <boostType>GAB</boostType>
    <minHitRate>9.9500000476837158e-01</minHitRate>
    <maxFalseAlarm>5.0000000000000000e-01</maxFalseAlarm>
    <weightTrimRate>9.4999999999999996e-01</weightTrimRate>
    <maxDepth>1</maxDepth>
    <maxWeakCount>100</maxWeakCount></stageParams>
  <featureParams>
    <maxCatCount>0</maxCatCount>
    <featSize>1</featSize>
    <mode>BASIC</mode></featureParams>
  <stageNum>12</stageNum>
  <stages>
    <!-- stage 0 -->
    <_>
      <maxWeakCount>3</maxWeakCount>
      <stageThreshold>-1.3064844608306885e+00</stageThreshold>
      <weakClassifiers>
        <_>
          <internalNodes>
            0 -1 16 6.2789879739284515e-02</internalNodes>
          <leafValues>
            -8.3813893795013428e-01 5.1127821207046509e-01</leafValues></_>
        <_>
          <internalNodes>
            0 -1 31 -1.3218352198600769e-01</internalNodes>
          <leafValues>
            3.4604239463806152e-01 -8.2243651151657104e-01</leafValues></_>
        <_>
          <internalNodes>
            0 -1 40 -1.8486294895410538e-02</internalNodes>
          <leafValues>
            3.5409095883369446e-01 -7.4876850843429565e-01</leafValues></_></weakClassifiers></_>
    <!-- stage 1 -->
    <_>
      <maxWeakCount>5</maxWeakCount>
      <stageThreshold>-1.5388318300247192e+00</stageThreshold>
      <weakClassifiers>
        <_>
          <internalNodes>
            0 -1 8 4.0462430566549301e-02</internalNodes>
          <leafValues>
            -8.3964514732360840e-01 3.3841133117675781e-01</leafValues></_>
        <_>
          <internalNodes>
            0 -1 68 -3.1255539506673813e-02</internalNodes>
          <leafValues>
            5.6284582614898682e-01 -6.7368859052658081e-01</leafValues></_>
        <_>
          <internalNodes>
            0 -1 4 -7.2956368967425078e-05</internalNodes>
          <leafValues>
            -9.4362968206405640e-01 2.7151000499725342e-01</leafValues></_>
        <_>
          <internalNodes>
            0 -1 47 1.0882146656513214e-02</internalNodes>
          <leafValues>
            -5.1630783081054688e-01 4.9887627363204956e-01</leafValues></_>
        <_>
          <internalNodes>
            0 -1 1 1.6051692000473849e-05</internalNodes>
          <leafValues>
            3.9050441980361938e-01 -7.9588437080383301e-01</leafValues></_></weakClassifiers></_>
    <!-- stage 2 -->
    <_>
      <maxWeakCount>7</maxWeakCount>
      <stageThreshold>-2.0292706489562988e+00</stageThreshold>
      <weakClassifiers>
        <_>
          <internalNodes>
            0 -1 78 -1.7699630931019783e-02</internalNodes>
          <leafValues>
            3.5437589883804321e-01 -7.6022833585739136e-01</leafValues></_>
        <_>
          <internalNodes>
            0 -1 1 -5.4979260312393308e-05</internalNodes>
          <leafValues>
            -9.7084546089172363e-01 1.6966862976551056e-01</leafValues></_>
        <_>
          <internalNodes>
            0 -1 22 1.0177665390074253e-02</internalNodes>
          <leafValues>
            -5.2711379528045654e-01 5.2884596586227417e-01</leafValues></_>
        <_>
          <internalNodes>
            0 -1 59 7.1080081397667527e-05</internalNodes>
          <leafValues>
            2.8306445479393005e-01 -7.8516519069671631e-01</leafValues></_>
        <_>
          <internalNodes>
            0 -1 1 7.6898315455764532e-05</internalNodes>
          <leafValues>
            2.4918101727962494e-01 -7.1322143077850342e-01</leafValues></_>
        <_>
          <internalNodes>
            0 -1 42 8.7063005194067955e-03</internalNodes>
          <leafValues>
            -5.7041877508163452e-01 4.4623842835426331e-01</leafValues></_>
        <_>
          <internalNodes>
            0 -1 28 5.4744770750403404e-05</internalNodes>
          <leafValues>
            1.9480590522289276e-01 -8.8560783863067627e-01</leafValues></_></weakClassifiers></_>
    <!-- stage 3 -->
    <_>
      <maxWeakCount>6</maxWeakCount>
      <stageThreshold>-1.5659636259078979e+00</stageThreshold>
      <weakClassifiers>
        <_>
          <internalNodes>
            0 -1 20 8.1890504807233810e-03</internalNodes>
          <leafValues>
            -8.5985159873962402e-01 -4.4943820685148239e-02</leafValues></_>
        <_>
          <internalNodes>
            0 -1 79 -8.9028170332312584e-03</internalNodes>
          <leafValues>
            3.2571649551391602e-01 -6.0700696706771851e-01</leafValues></_>
        <_>
          <internalNodes>
            0 -1 1 2.0367395336506888e-05</internalNodes>
          <leafValues>
            2.4259082973003387e-01 -7.1531152725219727e-01</leafValues></_>
        <_>
          <internalNodes>
            0 -1 7 -1.6574418987147510e-04</internalNodes>
          <leafValues>
            -9.4100397825241089e-01 2.5833469629287720e-01</leafValues></_>
        <_>
          <internalNodes>
            0 -1 25 2.1267689764499664e-02</internalNodes>
          <leafValues>
            -5.1966917514801025e-01 2.8360983729362488e-01</leafValues></_>
        <_>
          <internalNodes>
            0 -1 77 -1.2194550072308630e-04</internalNodes>
          <leafValues>
            -8.7009024620056152e-01 2.1492934226989746e-01</leafValues></_></weakClassifiers></_>
    <!-- stage 4 -->
    <_>
      <maxWeakCount>9</maxWeakCount>
      <stageThreshold>-1.7929005622863770e+00</stageThreshold>
      <weakClassifiers>
        <_>
          <internalNodes>
            0 -1 66 -1.4509748667478561e-02</internalNodes>
          <leafValues>
            1.4628821611404419e-01 -7.7845942974090576e-01</leafValues></_>
        <_>
          <internalNodes>
            0 -1 19 2.9576674103736877e-02</internalNodes>
          <leafValues>
            -6.0778337717056274e-01 2.5781387090682983e-01</leafValues></_>
        <_>
          <internalNodes>
            0 -1 83 1.1976307723671198e-04</internalNodes>
          <leafValues>
            2.8301659226417542e-01 -5.9274548292160034e-01</leafValues></_>
        <_>
          <internalNodes>
            0 -1 43 1.3289598748087883e-02</internalNodes>
          <leafValues>
            -4.7089838981628418e-01 3.5731536149978638e-01</leafValues></_>
        <_>
          <internalNodes>
            0 -1 72 -1.0902255773544312e-02</internalNodes>
          <leafValues>
            5.5500471591949463e-01 -3.1180343031883240e-01</leafValues></_>
        <_>
          <internalNodes>
            0 -1 0 -1.8014396118815057e-05</internalNodes>
          <leafValues>
            -8.8130235671997070e-01 2.1871820092201233e-01</leafValues></_>
        <_>
          <internalNodes>
            0 -1 1 1.8364407878834754e-05</internalNodes>
          <leafValues>
            2.0739355683326721e-01 -7.2936469316482544e-01</leafValues></_>
        <_>
          <internalNodes>
            0 -1 46 9.1876499354839325e-03</internalNodes>
          <leafValues>
            -2.8664591908454895e-01 6.0281080007553101e-01</leafValues></_>
        <_>
          <internalNodes>
            0 -1 85 4.5281986240297556e-04</internalNodes>
          <leafValues>
            1.8798491358757019e-01 -8.7449997663497925e-01</leafValues></_></weakClassifiers></_>
    <!-- stage 5 -->
    <_>
      <maxWeakCount>9</maxWeakCount>
      <stageThreshold>-2.0235548019409180e+00</stageThreshold>
      <weakClassifiers>
        <_>
          <internalNodes>
            0 -1 69 -5.9487172402441502e-03</internalNodes>
          <leafValues>
            1.0886076092720032e-01 -7.3071897029876709e-01</leafValues></_>
        <_>
          <internalNodes>
            0 -1 21 1.5207600779831409e-02</internalNodes>
          <leafValues>
            -5.1414340734481812e-01 2.8586745262145996e-01</leafValues></_>
        <_>
          <internalNodes>
            0 -1 76 4.2427418520674109e-05</internalNodes>
          <leafValues>
            1.6884543001651764e-01 -9.0674734115600586e-01</leafValues></_>
        <_>
          <internalNodes>
            0 -1 15 -1.8564102356322110e-04</internalNodes>
          <leafValues>
            -7.0491313934326172e-01 2.1613775193691254e-01</leafValues></_>
        <_>
          <internalNodes>
            0 -1 65 -2.5960628408938646e-04</internalNodes>
          <leafValues>
            -7.5684738159179688e-01 1.8701630830764771e-01</leafValues></_>
        <_>
          <internalNodes>
            0 -1 14 2.6722084730863571e-02</internalNodes>
          <leafValues>
            -6.2329953908920288e-01 1.8831007182598114e-01</leafValues></_>
        <_>
          <internalNodes>
            0 -1 0 8.9109824330080301e-05</internalNodes>
          <leafValues>
            2.4745726585388184e-01 -5.1137739419937134e-01</leafValues></_>
        <_>
          <internalNodes>
            0 -1 5 1.7015535384416580e-02</internalNodes>
          <leafValues>
            -2.6284343004226685e-01 6.4082837104797363e-01</leafValues></_>
        <_>
          <internalNodes>
            0 -1 87 2.6391795836389065e-04</internalNodes>
          <leafValues>
            1.6786831617355347e-01 -8.1447988748550415e-01</leafValues></_></weakClassifiers></_>
    <!-- stage 6 -->
    <_>
      <maxWeakCount>9</maxWeakCount>
      <stageThreshold>-1.4731634855270386e+00</stageThreshold>
      <weakClassifiers>
        <_>
          <internalNodes>
            0 -1 66 -9.1474093496799469e-03</internalNodes>
          <leafValues>
            -8.8905215263366699e-02 -8.1518679857254028e-01</leafValues></_>
        <_>
          <internalNodes>
            0 -1 41 -1.0652113705873489e-02</internalNodes>
          <leafValues>
            4.2366051673889160e-01 -4.2787495255470276e-01</leafValues></_>
        <_>
          <internalNodes>
            0 -1 82 -8.2283420488238335e-04</internalNodes>
          <leafValues>
            -5.6161296367645264e-01 2.6830163598060608e-01</leafValues></_>
        <_>
          <internalNodes>
            0 -1 55 5.1620654761791229e-02</internalNodes>
          <leafValues>
            -2.2327952086925507e-01 6.5842288732528687e-01</leafValues></_>
        <_>
          <internalNodes>
            0 -1 38 6.0841381549835205e-02</internalNodes>
          <leafValues>
            -1.6758878529071808e-01 7.3028117418289185e-01</leafValues></_>
        <_>
          <internalNodes>
            0 -1 27 2.4817634766804986e-05</internalNodes>
          <leafValues>
            2.1991322934627533e-01 -8.7990182638168335e-01</leafValues></_>
        <_>
          <internalNodes>
            0 -1 34 6.0546202585101128e-03</internalNodes>
          <leafValues>
            -5.7468378543853760e-01 1.7499299347400665e-01</leafValues></_>
        <_>
          <internalNodes>
            0 -1 1 7.5716212450060993e-05</internalNodes>
          <leafValues>
            1.9903202354907990e-01 -8.3925330638885498e-01</leafValues></_>
        <_>
          <internalNodes>
            0 -1 1 -7.2958842793013901e-05</internalNodes>
          <leafValues>
            -9.2607760429382324e-01 1.2844128906726837e-01</leafValues></_></weakClassifiers></_>
    <!-- stage 7 -->
    <_>
      <maxWeakCount>9</maxWeakCount>
      <stageThreshold>-1.3353379964828491e+00</stageThreshold>
      <weakClassifiers>
        <_>
          <internalNodes>
            0 -1 80 -1.1232797056436539e-02</internalNodes>
          <leafValues>
            -9.8478786647319794e-02 -7.7931565046310425e-01</leafValues></_>
        <_>
          <internalNodes>
            0 -1 20 7.3250820860266685e-03</internalNodes>
          <leafValues>
            -6.5049868822097778e-01 2.1660991013050079e-01</leafValues></_>
        <_>
          <internalNodes>
            0 -1 67 -1.0626597329974174e-02</internalNodes>
          <leafValues>
            4.6907046437263489e-01 -2.9522988200187683e-01</leafValues></_>
        <_>
          <internalNodes>
            0 -1 58 6.3456544012296945e-05</internalNodes>
          <leafValues>
            1.9815602898597717e-01 -7.3048490285873413e-01</leafValues></_>
        <_>
          <internalNodes>
            0 -1 37 1.9315163081046194e-04</internalNodes>
          <leafValues>
            1.8888881802558899e-01 -6.2390989065170288e-01</leafValues></_>
        <_>
          <internalNodes>
            0 -1 23 5.6755058467388153e-03</internalNodes>
          <leafValues>
            -4.2641025781631470e-01 2.8011420369148254e-01</leafValues></_>
        <_>
          <internalNodes>
            0 -1 44 -4.6754322946071625e-02</internalNodes>
          <leafValues>
            6.3134086132049561e-01 -1.7360937595367432e-01</leafValues></_>
        <_>
          <internalNodes>
            0 -1 56 -4.4509783387184143e-02</internalNodes>
          <leafValues>
            6.1630797386169434e-01 -2.0147119462490082e-01</leafValues></_>
        <_>
          <internalNodes>
            0 -1 0 1.5057647033245303e-05</internalNodes>
          <leafValues>
            2.0848946273326874e-01 -6.0205471515655518e-01</leafValues></_></weakClassifiers></_>
    <!-- stage 8 -->
    <_>
      <maxWeakCount>9</maxWeakCount>
      <stageThreshold>-1.4879961013793945e+00</stageThreshold>
      <weakClassifiers>
        <_>
          <internalNodes>
            0 -1 42 1.6836639493703842e-02</internalNodes>
          <leafValues>
            -7.6967686414718628e-01 -2.0334261655807495e-01</leafValues></_>
        <_>
          <internalNodes>
            0 -1 10 6.5258992835879326e-03</internalNodes>
          <leafValues>
            -6.4297837018966675e-01 1.1098553240299225e-01</leafValues></_>
        <_>
          <internalNodes>
            0 -1 2 -4.7776033170521259e-05</internalNodes>
          <leafValues>
            -6.4720082283020020e-01 1.7434608936309814e-01</leafValues></_>
        <_>
          <internalNodes>
            0 -1 73 -4.1495962068438530e-03</internalNodes>
          <leafValues>
            4.7231462597846985e-01 -2.8452688455581665e-01</leafValues></_>
        <_>
          <internalNodes>
            0 -1 6 -1.5944173355819657e-05</internalNodes>
          <leafValues>
            -9.5014595985412598e-01 1.7926068603992462e-01</leafValues></_>
        <_>
          <internalNodes>
            0 -1 33 8.3899137098342180e-04</internalNodes>
          <leafValues>
            1.4579801261425018e-01 -5.5368149280548096e-01</leafValues></_>
        <_>
          <internalNodes>
            0 -1 8 3.8629114627838135e-02</internalNodes>
          <leafValues>
            -4.0137121081352234e-01 2.8950652480125427e-01</leafValues></_>
        <_>
          <internalNodes>
            0 -1 29 1.2249416857957840e-01</internalNodes>
          <leafValues>
            1.0754055529832840e-01 -9.2895776033401489e-01</leafValues></_>
        <_>
          <internalNodes>
            0 -1 83 -9.8965458164457232e-05</internalNodes>
          <leafValues>
            -8.8625329732894897e-01 7.9796798527240753e-02</leafValues></_></weakClassifiers></_>
    <!-- stage 9 -->
    <_>
      <maxWeakCount>15</maxWeakCount>
      <stageThreshold>-1.8419945240020752e+00</stageThreshold>
      <weakClassifiers>
        <_>
          <internalNodes>
            0 -1 52 4.9699847586452961e-03</internalNodes>
          <leafValues>
            -6.9132655858993530e-01 2.5210084393620491e-02</leafValues></_>
        <_>
          <internalNodes>
            0 -1 14 5.7466179132461548e-02</internalNodes>
          <leafValues>
            -6.3941019773483276e-01 1.2856762111186981e-01</leafValues></_>
        <_>
          <internalNodes>
            0 -1 83 8.6453292169608176e-05</internalNodes>
          <leafValues>
            2.1496574580669403e-01 -6.1589771509170532e-01</leafValues></_>
        <_>
          <internalNodes>
            0 -1 43 5.6835673749446869e-03</internalNodes>
          <leafValues>
            -5.8468228578567505e-01 2.3725177347660065e-01</leafValues></_>
        <_>
          <internalNodes>
            0 -1 57 -3.2732918043620884e-05</internalNodes>
          <leafValues>
            3.1227552890777588e-01 -4.0373340249061584e-01</leafValues></_>
        <_>
          <internalNodes>
            0 -1 3 3.9315847971010953e-05</internalNodes>
          <leafValues>
            1.4092631638050079e-01 -7.6307356357574463e-01</leafValues></_>
        <_>
          <internalNodes>
            0 -1 79 -5.8217183686792850e-03</internalNodes>
          <leafValues>
            2.2569820284843445e-01 -4.1078034043312073e-01</leafValues></_>
        <_>
          <internalNodes>
            0 -1 17 3.6545741750160232e-05</internalNodes>
          <leafValues>
            2.3936383426189423e-01 -4.8874589800834656e-01</leafValues></_>
        <_>
          <internalNodes>
            0 -1 84 -1.7201807349920273e-03</internalNodes>
          <leafValues>
            -9.2949181795120239e-01 9.6548788249492645e-02</leafValues></_>
        <_>
          <internalNodes>
            0 -1 49 -7.4094370007514954e-02</internalNodes>
          <leafValues>
            6.1043703556060791e-01 -1.9677804410457611e-01</leafValues></_>
        <_>
          <internalNodes>
            0 -1 63 1.2300678528845310e-02</internalNodes>
          <leafValues>
            -2.0270061492919922e-01 4.6641543507575989e-01</leafValues></_>
        <_>
          <internalNodes>
            0 -1 61 -7.5224475003778934e-03</internalNodes>
          <leafValues>
            4.9588811397552490e-01 -1.8445880711078644e-01</leafValues></_>
        <_>
          <internalNodes>
            0 -1 12 6.6588461399078369e-02</internalNodes>
          <leafValues>
            1.3764360547065735e-01 -6.8906635046005249e-01</leafValues></_>
        <_>
          <internalNodes>
            0 -1 35 -4.1744899749755859e-01</internalNodes>
          <leafValues>
            -8.6318522691726685e-01 9.1898791491985321e-02</leafValues></_>
        <_>
          <internalNodes>
            0 -1 11 -2.4802913685562089e-05</internalNodes>
          <leafValues>
            -7.9714655876159668e-01 8.9548975229263306e-02</leafValues></_></weakClassifiers></_>
    <!-- stage 10 -->
    <_>
      <maxWeakCount>13</maxWeakCount>
      <stageThreshold>-1.6053676605224609e+00</stageThreshold>
      <weakClassifiers>
        <_>
          <internalNodes>
            0 -1 50 -1.4281571566243656e-05</internalNodes>
          <leafValues>
            -2.1236559748649597e-01 -7.7646064758300781e-01</leafValues></_>
        <_>
          <internalNodes>
            0 -1 23 1.0882213711738586e-02</internalNodes>
          <leafValues>
            -4.7393661737442017e-01 2.2740915417671204e-01</leafValues></_>
        <_>
          <internalNodes>
            0 -1 71 -4.1092455387115479e-02</internalNodes>
          <leafValues>
            2.7546420693397522e-01 -4.3641367554664612e-01</leafValues></_>
        <_>
          <internalNodes>
            0 -1 81 -1.5197998145595193e-03</internalNodes>
          <leafValues>
            -5.6633210182189941e-01 1.5800808370113373e-01</leafValues></_>
        <_>
          <internalNodes>
            0 -1 70 1.4075119048357010e-02</internalNodes>
          <leafValues>
            -1.3853430747985840e-01 5.5789035558700562e-01</leafValues></_>
        <_>
          <internalNodes>
            0 -1 1 -3.8434678572230041e-05</internalNodes>
          <leafValues>
            -9.6922934055328369e-01 9.8096974194049835e-02</leafValues></_>
        <_>
          <internalNodes>
            0 -1 13 4.4631957280216739e-05</internalNodes>
          <leafValues>
            -6.3546246290206909e-01 9.6196711063385010e-02</leafValues></_>
        <_>
          <internalNodes>
            0 -1 75 2.9665962792932987e-03</internalNodes>
          <leafValues>
            1.1688438057899475e-01 -8.5060739517211914e-01</leafValues></_>
        <_>
          <internalNodes>
            0 -1 9 2.6087191145052202e-05</internalNodes>
          <leafValues>
            2.2360599040985107e-01 -3.5349199175834656e-01</leafValues></_>
        <_>
          <internalNodes>
            0 -1 18 1.5834448859095573e-03</internalNodes>
          <leafValues>
            -5.2978336811065674e-01 2.2999112308025360e-01</leafValues></_>
        <_>
          <internalNodes>
            0 -1 86 -3.4646809217520058e-04</internalNodes>
          <leafValues>
            -5.5634349584579468e-01 1.6828474402427673e-01</leafValues></_>
        <_>
          <internalNodes>
            0 -1 74 1.4816079055890441e-04</internalNodes>
          <leafValues>
            1.3318140804767609e-01 -6.9759583473205566e-01</leafValues></_>
        <_>
          <internalNodes>
            0 -1 36 -6.4930781722068787e-02</internalNodes>
          <leafValues>
            6.9724631309509277e-01 -1.7349451780319214e-01</leafValues></_></weakClassifiers></_>
    <!-- stage 11 -->
    <_>
      <maxWeakCount>15</maxWeakCount>
      <stageThreshold>-1.5824922323226929e+00</stageThreshold>
      <weakClassifiers>
        <_>
          <internalNodes>
            0 -1 26 6.6497921943664551e-03</internalNodes>
          <leafValues>
            -6.5697151422500610e-01 7.9611651599407196e-02</leafValues></_>
        <_>
          <internalNodes>
            0 -1 60 -3.1819894502405077e-05</internalNodes>
          <leafValues>
            2.3246006667613983e-01 -4.2893338203430176e-01</leafValues></_>
        <_>
          <internalNodes>
            0 -1 53 1.3767305972578470e-05</internalNodes>
          <leafValues>
            -3.6553767323493958e-01 2.8238019347190857e-01</leafValues></_>
        <_>
          <internalNodes>
            0 -1 30 4.8377674829680473e-05</internalNodes>
          <leafValues>
            1.8985888361930847e-01 -5.3739970922470093e-01</leafValues></_>
        <_>
          <internalNodes>
            0 -1 62 -2.8622403740882874e-02</internalNodes>
          <leafValues>
            5.7554888725280762e-01 -1.5298484265804291e-01</leafValues></_>
        <_>
          <internalNodes>
            0 -1 24 4.7974893823266029e-03</internalNodes>
          <leafValues>
            -2.4508303403854370e-01 3.8908272981643677e-01</leafValues></_>
        <_>
          <internalNodes>
            0 -1 9 -1.8241309589939192e-05</internalNodes>
          <leafValues>
            -8.1460505723953247e-01 8.7958492338657379e-02</leafValues></_>
        <_>
          <internalNodes>
            0 -1 64 -6.8072555586695671e-03</internalNodes>
          <leafValues>
            4.4125282764434814e-01 -2.0998276770114899e-01</leafValues></_>
        <_>
          <internalNodes>
            0 -1 32 2.4139795277733356e-04</internalNodes>
          <leafValues>
            1.3810326159000397e-01 -6.1094969511032104e-01</leafValues></_>
        <_>
          <internalNodes>
            0 -1 39 -1.6749478163546883e-05</internalNodes>
          <leafValues>
            2.8722032904624939e-01 -3.0085682868957520e-01</leafValues></_>
        <_>
          <internalNodes>
            0 -1 45 -1.8546290695667267e-02</internalNodes>
          <leafValues>
            5.1294863224029541e-01 -1.7909598350524902e-01</leafValues></_>
        <_>
          <internalNodes>
            0 -1 1 1.6964466340141371e-05</internalNodes>
          <leafValues>
            1.5973700582981110e-01 -6.3195794820785522e-01</leafValues></_>
        <_>
          <internalNodes>
            0 -1 48 6.5919803455471992e-03</internalNodes>
          <leafValues>
            -4.8695635795593262e-01 1.7223918437957764e-01</leafValues></_>
        <_>
          <internalNodes>
            0 -1 54 -3.9916135370731354e-02</internalNodes>
          <leafValues>
            4.7156584262847900e-01 -2.0177587866783142e-01</leafValues></_>
        <_>
          <internalNodes>
            0 -1 51 -2.7698077261447906e-02</internalNodes>
          <leafValues>
            7.3982375860214233e-01 -1.1137919872999191e-01</leafValues></_></weakClassifiers></_></stages>
  <features>
    <_>
      <rects>
        <_>
          0 0 2 1 -1.</_>
        <_>
          1 0 1 1 2.</_></rects>
      <tilted>0</tilted></_>
    <_>
      <rects>
        <_>
          0 0 1 2 -1.</_>
        <_>
          0 1 1 1 2.</_></rects>
      <tilted>0</tilted></_>
    <_>
      <rects>
        <_>
          0 0 3 1 -1.</_>
        <_>
          1 0 1 1 3.</_></rects>
      <tilted>0</tilted></_>
    <_>
      <rects>
        <_>
          0 0 1 3 -1.</_>
        <_>
          0 1 1 1 3.</_></rects>
      <tilted>0</tilted></_>
    <_>
      <rects>
        <_>
          0 0 1 6 -1.</_>
        <_>
          0 3 1 3 2.</_></rects>
      <tilted>0</tilted></_>
    <_>
      <rects>
        <_>
          0 0 3 14 -1.</_>
        <_>
          1 0 1 14 3.</_></rects>
      <tilted>0</tilted></_>
    <_>
      <rects>
        <_>
          0 0 4 1 -1.</_>
        <_>
          2 0 2 1 2.</_></rects>
      <tilted>0</tilted></_>
    <_>
      <rects>
        <_>
          0 0 2 2 -1.</_>
        <_>
          0 1 2 1 2.</_></rects>
      <tilted>0</tilted></_>
    <_>
      <rects>
        <_>
          0 0 4 19 -1.</_>
        <_>
          2 0 2 19 2.</_></rects>
      <tilted>0</tilted></_>
    <_>
      <rects>
        <_>
          0 0 6 1 -1.</_>
        <_>
          3 0 3 1 2.</_></rects>
      <tilted>0</tilted></_>
    <_>
      <rects>
        <_>
          0 0 8 3 -1.</_>
        <_>
          4 0 4 3 2.</_></rects>
      <tilted>0</tilted></_>
    <_>
      <rects>
        <_>
          0 0 4 8 -1.</_>
        <_>
          0 4 4 4 2.</_></rects>
      <tilted>0</tilted></_>
    <_>
      <rects>
        <_>
          0 0 4 20 -1.</_>
        <_>
          0 10 4 10 2.</_></rects>
      <tilted>0</tilted></_>
    <_>
      <rects>
        <_>
          0 0 10 18 -1.</_>
        <_>
          5 0 5 18 2.</_></rects>
      <tilted>0</tilted></_>
    <_>
      <rects>
        <_>
          0 0 16 20 -1.</_>
        <_>
          8 0 8 20 2.</_></rects>
      <tilted>0</tilted></_>
    <_>
      <rects>
        <_>
          0 0 9 10 -1.</_>
        <_>
          0 5 9 5 2.</_></rects>
      <tilted>0</tilted></_>
    <_>
      <rects>
        <_>
          0 0 20 4 -1.</_>
        <_>
          0 2 20 2 2.</_></rects>
      <tilted>0</tilted></_>
    <_>
      <rects>
        <_>
          0 1 1 2 -1.</_>
        <_>
          0 2 1 1 2.</_></rects>
      <tilted>0</tilted></_>
    <_>
      <rects>
        <_>
          0 1 4 3 -1.</_>
        <_>
          2 1 2 3 2.</_></rects>
      <tilted>0</tilted></_>
    <_>
      <rects>
        <_>
          0 1 4 17 -1.</_>
        <_>
          2 1 2 17 2.</_></rects>
      <tilted>0</tilted></_>
    <_>
      <rects>
        <_>
          0 1 6 2 -1.</_>
        <_>
          3 1 3 2 2.</_></rects>
      <tilted>0</tilted></_>
    <_>
      <rects>
        <_>
          0 1 18 1 -1.</_>
        <_>
          6 1 6 1 3.</_></rects>
      <tilted>0</tilted></_>
    <_>
      <rects>
        <_>
          0 2 2 13 -1.</_>
        <_>
          1 2 1 13 2.</_></rects>
      <tilted>0</tilted></_>
    <_>
      <rects>
        <_>
          0 2 2 14 -1.</_>
        <_>
          1 2 1 14 2.</_></rects>
      <tilted>0</tilted></_>
    <_>
      <rects>
        <_>
          0 2 4 1 -1.</_>
        <_>
          2 2 2 1 2.</_></rects>
      <tilted>0</tilted></_>
    <_>
      <rects>
        <_>
          0 2 4 16 -1.</_>
        <_>
          2 2 2 16 2.</_></rects>
      <tilted>0</tilted></_>
    <_>
      <rects>
        <_>
          0 5 3 2 -1.</_>
        <_>
          1 5 1 2 3.</_></rects>
      <tilted>0</tilted></_>
    <_>
      <rects>
        <_>
          0 12 6 8 -1.</_>
        <_>
          0 16 6 4 2.</_></rects>
      <tilted>0</tilted></_>
    <_>
      <rects>
        <_>
          0 16 1 4 -1.</_>
        <_>
          0 18 1 2 2.</_></rects>
      <tilted>0</tilted></_>
    <_>
      <rects>
        <_>
          0 16 20 4 -1.</_>
        <_>
          10 16 10 4 2.</_></rects>
      <tilted>0</tilted></_>
    <_>
      <rects>
        <_>
          1 0 2 1 -1.</_>
        <_>
          2 0 1 1 2.</_></rects>
      <tilted>0</tilted></_>
    <_>
      <rects>
        <_>
          1 8 19 12 -1.</_>
        <_>
          1 14 19 6 2.</_></rects>
      <tilted>0</tilted></_>
    <_>
      <rects>
        <_>
          2 0 2 1 -1.</_>
        <_>
          3 0 1 1 2.</_></rects>
      <tilted>0</tilted></_>
    <_>
      <rects>
        <_>
          2 0 2 2 -1.</_>
        <_>
          3 0 1 2 2.</_></rects>
      <tilted>0</tilted></_>
    <_>
      <rects>
        <_>
          2 0 18 2 -1.</_>
        <_>
          2 1 18 1 2.</_></rects>
      <tilted>0</tilted></_>
    <_>
      <rects>
        <_>
          2 6 15 14 -1.</_>
        <_>
          2 13 15 7 2.</_></rects>
      <tilted>0</tilted></_>
    <_>
      <rects>
        <_>
          2 10 12 5 -1.</_>
        <_>
          6 10 4 5 3.</_></rects>
      <tilted>0</tilted></_>
    <_>
      <rects>
        <_>
          3 0 2 1 -1.</_>
        <_>
          4 0 1 1 2.</_></rects>
      <tilted>0</tilted></_>
    <_>
      <rects>
        <_>
          3 9 9 8 -1.</_>
        <_>
          6 9 3 8 3.</_></rects>
      <tilted>0</tilted></_>
    <_>
      <rects>
        <_>
          3 11 1 2 -1.</_>
        <_>
          3 12 1 1 2.</_></rects>
      <tilted>0</tilted></_>
    <_>
      <rects>
        <_>
          3 16 16 4 -1.</_>
        <_>
          3 18 16 2 2.</_></rects>
      <tilted>0</tilted></_>
    <_>
      <rects>
        <_>
          4 0 16 2 -1.</_>
        <_>
          4 0 8 1 2.</_>
        <_>
          12 1 8 1 2.</_></rects>
      <tilted>0</tilted></_>
    <_>
      <rects>
        <_>
          4 0 12 2 -1.</_>
        <_>
          4 1 12 1 2.</_></rects>
      <tilted>0</tilted></_>
    <_>
      <rects>
        <_>
          4 0 16 2 -1.</_>
        <_>
          4 1 16 1 2.</_></rects>
      <tilted>0</tilted></_>
    <_>
      <rects>
        <_>
          4 7 9 9 -1.</_>
        <_>
          7 7 3 9 3.</_></rects>
      <tilted>0</tilted></_>
    <_>
      <rects>
        <_>
          4 8 6 6 -1.</_>
        <_>
          4 10 6 2 3.</_></rects>
      <tilted>0</tilted></_>
    <_>
      <rects>
        <_>
          5 0 3 2 -1.</_>
        <_>
          5 1 3 1 2.</_></rects>
      <tilted>0</tilted></_>
    <_>
      <rects>
        <_>
          5 0 10 2 -1.</_>
        <_>
          5 1 10 1 2.</_></rects>
      <tilted>0</tilted></_>
    <_>
      <rects>
        <_>
          5 0 11 2 -1.</_>
        <_>
          5 1 11 1 2.</_></rects>
      <tilted>0</tilted></_>
    <_>
      <rects>
        <_>
          5 5 12 9 -1.</_>
        <_>
          9 5 4 9 3.</_></rects>
      <tilted>0</tilted></_>
    <_>
      <rects>
        <_>
          5 10 1 2 -1.</_>
        <_>
          5 11 1 1 2.</_></rects>
      <tilted>0</tilted></_>
    <_>
      <rects>
        <_>
          5 10 8 2 -1.</_>
        <_>
          9 10 4 2 2.</_></rects>
      <tilted>0</tilted></_>
    <_>
      <rects>
        <_>
          6 0 1 2 -1.</_>
        <_>
          6 1 1 1 2.</_></rects>
      <tilted>0</tilted></_>
    <_>
      <rects>
        <_>
          6 0 2 2 -1.</_>
        <_>
          7 0 1 2 2.</_></rects>
      <tilted>0</tilted></_>
    <_>
      <rects>
        <_>
          6 2 10 9 -1.</_>
        <_>
          6 5 10 3 3.</_></rects>
      <tilted>0</tilted></_>
    <_>
      <rects>
        <_>
          7 10 9 8 -1.</_>
        <_>
          10 10 3 8 3.</_></rects>
      <tilted>0</tilted></_>
    <_>
      <rects>
        <_>
          8 5 9 11 -1.</_>
        <_>
          11 5 3 11 3.</_></rects>
      <tilted>0</tilted></_>
    <_>
      <rects>
        <_>
          8 12 1 2 -1.</_>
        <_>
          8 13 1 1 2.</_></rects>
      <tilted>0</tilted></_>
    <_>
      <rects>
        <_>
          10 0 10 2 -1.</_>
        <_>
          15 0 5 2 2.</_></rects>
      <tilted>0</tilted></_>
    <_>
      <rects>
        <_>
          10 0 10 3 -1.</_>
        <_>
          15 0 5 3 2.</_></rects>
      <tilted>0</tilted></_>
    <_>
      <rects>
        <_>
          10 12 1 2 -1.</_>
        <_>
          10 13 1 1 2.</_></rects>
      <tilted>0</tilted></_>
    <_>
      <rects>
        <_>
          11 18 4 2 -1.</_>
        <_>
          11 19 4 1 2.</_></rects>
      <tilted>0</tilted></_>
    <_>
      <rects>
        <_>
          12 6 6 10 -1.</_>
        <_>
          14 6 2 10 3.</_></rects>
      <tilted>0</tilted></_>
    <_>
      <rects>
        <_>
          13 0 2 6 -1.</_>
        <_>
          13 2 2 2 3.</_></rects>
      <tilted>0</tilted></_>
    <_>
      <rects>
        <_>
          13 17 6 1 -1.</_>
        <_>
          16 17 3 1 2.</_></rects>
      <tilted>0</tilted></_>
    <_>
      <rects>
        <_>
          14 0 2 1 -1.</_>
        <_>
          15 0 1 1 2.</_></rects>
      <tilted>0</tilted></_>
    <_>
      <rects>
        <_>
          14 1 6 2 -1.</_>
        <_>
          17 1 3 2 2.</_></rects>
      <tilted>0</tilted></_>
    <_>
      <rects>
        <_>
          14 16 2 4 -1.</_>
        <_>
          14 18 2 2 2.</_></rects>
      <tilted>0</tilted></_>
    <_>
      <rects>
        <_>
          16 0 4 18 -1.</_>
        <_>
          18 0 2 18 2.</_></rects>
      <tilted>0</tilted></_>
    <_>
      <rects>
        <_>
          16 2 4 1 -1.</_>
        <_>
          18 2 2 1 2.</_></rects>
      <tilted>0</tilted></_>
    <_>
      <rects>
        <_>
          16 4 4 6 -1.</_>
        <_>
          16 4 2 3 2.</_>
        <_>
          18 7 2 3 2.</_></rects>
      <tilted>0</tilted></_>
    <_>
      <rects>
        <_>
          16 10 4 10 -1.</_>
        <_>
          16 15 4 5 2.</_></rects>
      <tilted>0</tilted></_>
    <_>
      <rects>
        <_>
          16 14 4 3 -1.</_>
        <_>
          18 14 2 3 2.</_></rects>
      <tilted>0</tilted></_>
    <_>
      <rects>
        <_>
          16 16 4 1 -1.</_>
        <_>
          18 16 2 1 2.</_></rects>
      <tilted>0</tilted></_>
    <_>
      <rects>
        <_>
          16 16 4 4 -1.</_>
        <_>
          16 18 4 2 2.</_></rects>
      <tilted>0</tilted></_>
    <_>
      <rects>
        <_>
          16 18 4 2 -1.</_>
        <_>
          18 18 2 2 2.</_></rects>
      <tilted>0</tilted></_>
    <_>
      <rects>
        <_>
          18 0 2 1 -1.</_>
        <_>
          19 0 1 1 2.</_></rects>
      <tilted>0</tilted></_>
    <_>
      <rects>
        <_>
          18 0 2 2 -1.</_>
        <_>
          18 1 2 1 2.</_></rects>
      <tilted>0</tilted></_>
    <_>
      <rects>
        <_>
          18 1 2 16 -1.</_>
        <_>
          19 1 1 16 2.</_></rects>
      <tilted>0</tilted></_>
    <_>
      <rects>
        <_>
          18 2 2 14 -1.</_>
        <_>
          19 2 1 14 2.</_></rects>
      <tilted>0</tilted></_>
    <_>
      <rects>
        <_>
          18 3 2 13 -1.</_>
        <_>
          19 3 1 13 2.</_></rects>
      <tilted>0</tilted></_>
    <_>
      <rects>
        <_>
          18 16 2 2 -1.</_>
        <_>
          18 17 2 1 2.</_></rects>
      <tilted>0</tilted></_>
    <_>
      <rects>
        <_>
          18 18 2 2 -1.</_>
        <_>
          18 19 2 1 2.</_></rects>
      <tilted>0</tilted></_>
    <_>
      <rects>
        <_>
          19 0 1 2 -1.</_>
        <_>
          19 1 1 1 2.</_></rects>
      <tilted>0</tilted></_>
    <_>
      <rects>
        <_>
          19 3 1 4 -1.</_>
        <_>
          19 5 1 2 2.</_></rects>
      <tilted>0</tilted></_>
    <_>
      <rects>
        <_>
          19 10 1 10 -1.</_>
        <_>
          19 15 1 5 2.</_></rects>
      <tilted>0</tilted></_>
    <_>
      <rects>
        <_>
          19 17 1 2 -1.</_>
        <_>
          19 18 1 1 2.</_></rects>
      <tilted>0</tilted></_>
    <_>
      <rects>
        <_>
          19 18 1 2 -1.</_>
        <_>
          19 19 1 1 2.</_></rects>
      <tilted>0</tilted></_></features></cascade>
</opencv_storage>
