<?xml version="1.0"?>
<opencv_storage>
<myhaar type_id="opencv-haar-classifier">
  <size>
    24 24</size>
  <stages>
    <_>
      <trees>
        <_>
          <_>
            <feature>
              <rects>
                <_>
                  3 1 20 1 -1.</_>
                <_>
                  8 6 10 1 2.</_></rects>
              <tilted>1</tilted></feature>
            <threshold>0.0327031090855598</threshold>
            <left_val>-1.</left_val>
            <right_val>0.8181813955307007</right_val></_></_></trees>
      <stage_threshold>0.8181813955307007</stage_threshold>
      <parent>-1</parent>
      <next>-1</next></_>
    <_>
      <trees>
        <_>
          <_>
            <feature>
              <rects>
                <_>
                  2 14 18 2 -1.</_>
                <_>
                  2 15 18 1 2.</_></rects>
              <tilted>0</tilted></feature>
            <threshold>-8.7490752339363098e-003</threshold>
            <left_val>0.7699115872383118</left_val>
            <right_val>-1.</right_val></_></_></trees>
      <stage_threshold>0.7699115872383118</stage_threshold>
      <parent>0</parent>
      <next>-1</next></_>
    <_>
      <trees>
        <_>
          <_>
            <feature>
              <rects>
                <_>
                  3 10 6 12 -1.</_>
                <_>
                  3 13 6 6 2.</_></rects>
              <tilted>0</tilted></feature>
            <threshold>0.0138954399153590</threshold>
            <left_val>-1.</left_val>
            <right_val>0.7857139706611633</right_val></_></_></trees>
      <stage_threshold>0.7857139706611633</stage_threshold>
      <parent>1</parent>
      <next>-1</next></_>
    <_>
      <trees>
        <_>
          <_>
            <feature>
              <rects>
                <_>
                  1 7 16 11 -1.</_>
                <_>
                  5 7 8 11 2.</_></rects>
              <tilted>0</tilted></feature>
            <threshold>0.0767536535859108</threshold>
            <left_val>-1.</left_val>
            <right_val>0.8433176875114441</right_val></_></_></trees>
      <stage_threshold>0.8433176875114441</stage_threshold>
      <parent>2</parent>
      <next>-1</next></_>
    <_>
      <trees>
        <_>
          <_>
            <feature>
              <rects>
                <_>
                  2 16 2 4 -1.</_>
                <_>
                  2 18 2 2 2.</_></rects>
              <tilted>0</tilted></feature>
            <threshold>1.1516360100358725e-003</threshold>
            <left_val>-1.</left_val>
            <right_val>0.6806722283363342</right_val></_></_></trees>
      <stage_threshold>0.6806722283363342</stage_threshold>
      <parent>3</parent>
      <next>-1</next></_>
    <_>
      <trees>
        <_>
          <_>
            <feature>
              <rects>
                <_>
                  2 4 12 2 -1.</_>
                <_>
                  2 4 6 1 2.</_>
                <_>
                  8 5 6 1 2.</_></rects>
              <tilted>0</tilted></feature>
            <threshold>5.0891111604869366e-003</threshold>
            <left_val>-0.7989948987960815</left_val>
            <right_val>0.7910447120666504</right_val></_></_>
        <_>
          <_>
            <feature>
              <rects>
                <_>
                  14 10 6 10 -1.</_>
                <_>
                  17 10 3 5 2.</_>
                <_>
                  14 15 3 5 2.</_></rects>
              <tilted>0</tilted></feature>
            <threshold>-0.0116523196920753</threshold>
            <left_val>-0.6970825791358948</left_val>
            <right_val>0.2122644931077957</right_val></_></_>
        <_>
          <_>
            <feature>
              <rects>
                <_>
                  4 10 6 10 -1.</_>
                <_>
                  4 10 3 5 2.</_>
                <_>
                  7 15 3 5 2.</_></rects>
              <tilted>0</tilted></feature>
            <threshold>2.3543300630990416e-004</threshold>
            <left_val>-1.</left_val>
            <right_val>0.6197429895401001</right_val></_></_></trees>
      <stage_threshold>0.0330125689506531</stage_threshold>
      <parent>4</parent>
      <next>-1</next></_>
    <_>
      <trees>
        <_>
          <_>
            <feature>
              <rects>
                <_>
                  11 3 8 2 -1.</_>
                <_>
                  13 5 4 2 2.</_></rects>
              <tilted>1</tilted></feature>
            <threshold>0.0127745401114225</threshold>
            <left_val>-1.</left_val>
            <right_val>0.6194332242012024</right_val></_></_></trees>
      <stage_threshold>0.6194332242012024</stage_threshold>
      <parent>5</parent>
      <next>-1</next></_></stages></myhaar>
</opencv_storage>
